<?xml version="1.0"?>
<opencv_storage>
<cascade>
  <stageType>BOOST</stageType>
  <featureType>HAAR</featureType>
  <height>24</height>
  <width>24</width>
  <stageParams>
    <boostType>GAB</boostType>
    <minHitRate>9.9500000476837158e-01</minHitRate>
    <maxFalseAlarm>5.0000000000000000e-01</maxFalseAlarm>
    <weightTrimRate>9.4999998807907104e-01</weightTrimRate>
    <maxDepth>1</maxDepth>
    <maxWeakCount>100</maxWeakCount></stageParams>
  <featureParams>
    <maxCatCount>0</maxCatCount>
    <featSize>1</featSize>
    <mode>BASIC</mode></featureParams>
  <stageNum>20</stageNum>
  <stages>
    <!-- stage 0 -->
    <_>
      <maxWeakCount>6</maxWeakCount>
      <stageThreshold>-1.8454196453094482e+00</stageThreshold>
      <weakClassifiers>
        <_>
          <internalNodes>
            0 -1 4 1.0430774092674255e-01</internalNodes>
          <leafValues>
            -8.6590039730072021e-01 6.6666668653488159e-01</leafValues></_>
        <_>
          <internalNodes>
            0 -1 199 2.5714235380291939e-03</internalNodes>
          <leafValues>
            -7.2218275070190430e-01 4.3387007713317871e-01</leafValues></_>
        <_>
          <internalNodes>
            0 -1 51 -6.9731036201119423e-03</internalNodes>
          <leafValues>
            3.9424809813499451e-01 -7.9716539382934570e-01</leafValues></_>
        <_>
          <internalNodes>
            0 -1 49 4.0262527763843536e-03</internalNodes>
          <leafValues>
            -5.1055794954299927e-01 5.6767642498016357e-01</leafValues></_>
        <_>
          <internalNodes>
            0 -1 1 9.9901326000690460e-02</internalNodes>
          <leafValues>
            -6.4576607942581177e-01 3.9733070135116577e-01</leafValues></_>
        <_>
          <internalNodes>
            0 -1 96 2.0006325095891953e-02</internalNodes>
          <leafValues>
            -3.5799223184585571e-01 6.1791849136352539e-01</leafValues></_></weakClassifiers></_>
    <!-- stage 1 -->
    <_>
      <maxWeakCount>7</maxWeakCount>
      <stageThreshold>-1.8748785257339478e+00</stageThreshold>
      <weakClassifiers>
        <_>
          <internalNodes>
            0 -1 0 2.8738471865653992e-01</internalNodes>
          <leafValues>
            -8.1220656633377075e-01 4.8148149251937866e-01</leafValues></_>
        <_>
          <internalNodes>
            0 -1 146 9.8255984485149384e-03</internalNodes>
          <leafValues>
            -6.7897337675094604e-01 2.6903647184371948e-01</leafValues></_>
        <_>
          <internalNodes>
            0 -1 18 1.7635796219110489e-02</internalNodes>
          <leafValues>
            -5.2245867252349854e-01 4.7941362857818604e-01</leafValues></_>
        <_>
          <internalNodes>
            0 -1 22 3.9079293608665466e-02</internalNodes>
          <leafValues>
            -6.2900841236114502e-01 4.1086566448211670e-01</leafValues></_>
        <_>
          <internalNodes>
            0 -1 94 1.5304445289075375e-02</internalNodes>
          <leafValues>
            -3.6522477865219116e-01 5.1681953668594360e-01</leafValues></_>
        <_>
          <internalNodes>
            0 -1 131 1.0310970246791840e-01</internalNodes>
          <leafValues>
            -2.7234196662902832e-01 7.0014017820358276e-01</leafValues></_>
        <_>
          <internalNodes>
            0 -1 162 -2.5116968899965286e-03</internalNodes>
          <leafValues>
            4.5821914076805115e-01 -4.2471891641616821e-01</leafValues></_></weakClassifiers></_>
    <!-- stage 2 -->
    <_>
      <maxWeakCount>6</maxWeakCount>
      <stageThreshold>-1.7997940778732300e+00</stageThreshold>
      <weakClassifiers>
        <_>
          <internalNodes>
            0 -1 171 -1.3993385434150696e-01</internalNodes>
          <leafValues>
            5.5102038383483887e-01 -8.3665716648101807e-01</leafValues></_>
        <_>
          <internalNodes>
            0 -1 11 1.0048336535692215e-01</internalNodes>
          <leafValues>
            -6.3067257404327393e-01 5.5348807573318481e-01</leafValues></_>
        <_>
          <internalNodes>
            0 -1 69 -1.1588756740093231e-01</internalNodes>
          <leafValues>
            8.2067149877548218e-01 -3.4117662906646729e-01</leafValues></_>
        <_>
          <internalNodes>
            0 -1 32 -1.0103862732648849e-03</internalNodes>
          <leafValues>
            -8.9921712875366211e-01 2.6743677258491516e-01</leafValues></_>
        <_>
          <internalNodes>
            0 -1 44 7.2833155281841755e-03</internalNodes>
          <leafValues>
            -3.9655023813247681e-01 5.1252758502960205e-01</leafValues></_>
        <_>
          <internalNodes>
            0 -1 200 1.1292951239738613e-04</internalNodes>
          <leafValues>
            -7.7125209569931030e-01 2.4517381191253662e-01</leafValues></_></weakClassifiers></_>
    <!-- stage 3 -->
    <_>
      <maxWeakCount>7</maxWeakCount>
      <stageThreshold>-1.9113684892654419e+00</stageThreshold>
      <weakClassifiers>
        <_>
          <internalNodes>
            0 -1 185 -5.8546476066112518e-02</internalNodes>
          <leafValues>
            4.1176471114158630e-01 -8.2425981760025024e-01</leafValues></_>
        <_>
          <internalNodes>
            0 -1 27 3.0598672106862068e-02</internalNodes>
          <leafValues>
            -5.8953499794006348e-01 4.4235154986381531e-01</leafValues></_>
        <_>
          <internalNodes>
            0 -1 39 5.7703163474798203e-03</internalNodes>
          <leafValues>
            -5.9837383031845093e-01 3.7812247872352600e-01</leafValues></_>
        <_>
          <internalNodes>
            0 -1 12 1.3674038648605347e-01</internalNodes>
          <leafValues>
            -3.8393753767013550e-01 5.6891906261444092e-01</leafValues></_>
        <_>
          <internalNodes>
            0 -1 10 -1.0537559166550636e-02</internalNodes>
          <leafValues>
            5.7850205898284912e-01 -3.2442918419837952e-01</leafValues></_>
        <_>
          <internalNodes>
            0 -1 112 -3.0760285444557667e-03</internalNodes>
          <leafValues>
            5.3427815437316895e-01 -3.2136347889900208e-01</leafValues></_>
        <_>
          <internalNodes>
            0 -1 75 -1.4606253243982792e-03</internalNodes>
          <leafValues>
            -9.2975133657455444e-01 2.2759906947612762e-01</leafValues></_></weakClassifiers></_>
    <!-- stage 4 -->
    <_>
      <maxWeakCount>8</maxWeakCount>
      <stageThreshold>-1.7610104084014893e+00</stageThreshold>
      <weakClassifiers>
        <_>
          <internalNodes>
            0 -1 3 2.7078270912170410e-01</internalNodes>
          <leafValues>
            -7.9487180709838867e-01 6.2962961196899414e-01</leafValues></_>
        <_>
          <internalNodes>
            0 -1 186 -3.8592480123043060e-02</internalNodes>
          <leafValues>
            3.4088546037673950e-01 -5.7333588600158691e-01</leafValues></_>
        <_>
          <internalNodes>
            0 -1 73 -2.0979887267458253e-05</internalNodes>
          <leafValues>
            2.5321480631828308e-01 -5.8360934257507324e-01</leafValues></_>
        <_>
          <internalNodes>
            0 -1 92 -2.2586523555219173e-03</internalNodes>
          <leafValues>
            -9.0475773811340332e-01 1.5771614015102386e-01</leafValues></_>
        <_>
          <internalNodes>
            0 -1 91 3.4939746838063002e-03</internalNodes>
          <leafValues>
            2.1788305044174194e-01 -8.0605041980743408e-01</leafValues></_>
        <_>
          <internalNodes>
            0 -1 80 1.2422192841768265e-02</internalNodes>
          <leafValues>
            -4.1653952002525330e-01 3.9770597219467163e-01</leafValues></_>
        <_>
          <internalNodes>
            0 -1 105 -3.3260844647884369e-03</internalNodes>
          <leafValues>
            2.8861421346664429e-01 -5.5944210290908813e-01</leafValues></_>
        <_>
          <internalNodes>
            0 -1 132 7.7358027920126915e-03</internalNodes>
          <leafValues>
            1.5282076597213745e-01 -9.2167872190475464e-01</leafValues></_></weakClassifiers></_>
    <!-- stage 5 -->
    <_>
      <maxWeakCount>9</maxWeakCount>
      <stageThreshold>-1.3203625679016113e+00</stageThreshold>
      <weakClassifiers>
        <_>
          <internalNodes>
            0 -1 82 -4.5877516269683838e-02</internalNodes>
          <leafValues>
            9.4972066581249237e-02 -8.0019587278366089e-01</leafValues></_>
        <_>
          <internalNodes>
            0 -1 196 -4.5186933130025864e-02</internalNodes>
          <leafValues>
            4.3572705984115601e-01 -5.1814550161361694e-01</leafValues></_>
        <_>
          <internalNodes>
            0 -1 85 8.8226543739438057e-03</internalNodes>
          <leafValues>
            -6.9738239049911499e-01 2.1422801911830902e-01</leafValues></_>
        <_>
          <internalNodes>
            0 -1 28 3.0322827398777008e-02</internalNodes>
          <leafValues>
            -3.3997121453285217e-01 5.0241208076477051e-01</leafValues></_>
        <_>
          <internalNodes>
            0 -1 179 2.7449725894257426e-04</internalNodes>
          <leafValues>
            2.5871878862380981e-01 -6.9686394929885864e-01</leafValues></_>
        <_>
          <internalNodes>
            0 -1 182 -3.3005599398165941e-03</internalNodes>
          <leafValues>
            4.5748773217201233e-01 -3.6138451099395752e-01</leafValues></_>
        <_>
          <internalNodes>
            0 -1 117 7.5744907371699810e-04</internalNodes>
          <leafValues>
            1.6977402567863464e-01 -9.6668994426727295e-01</leafValues></_>
        <_>
          <internalNodes>
            0 -1 149 1.2563837226480246e-03</internalNodes>
          <leafValues>
            -4.0639477968215942e-01 3.6487561464309692e-01</leafValues></_>
        <_>
          <internalNodes>
            0 -1 79 6.5385445952415466e-02</internalNodes>
          <leafValues>
            -2.1381348371505737e-01 6.8529403209686279e-01</leafValues></_></weakClassifiers></_>
    <!-- stage 6 -->
    <_>
      <maxWeakCount>9</maxWeakCount>
      <stageThreshold>-1.8290084600448608e+00</stageThreshold>
      <weakClassifiers>
        <_>
          <internalNodes>
            0 -1 169 3.3469714224338531e-02</internalNodes>
          <leafValues>
            -7.8461539745330811e-01 1.0000000149011612e-01</leafValues></_>
        <_>
          <internalNodes>
            0 -1 77 3.9538845419883728e-02</internalNodes>
          <leafValues>
            -5.9735494852066040e-01 3.2601895928382874e-01</leafValues></_>
        <_>
          <internalNodes>
            0 -1 35 3.8330093957483768e-03</internalNodes>
          <leafValues>
            -3.9787527918815613e-01 5.4431724548339844e-01</leafValues></_>
        <_>
          <internalNodes>
            0 -1 66 4.3289824388921261e-03</internalNodes>
          <leafValues>
            -3.5549867153167725e-01 4.3057131767272949e-01</leafValues></_>
        <_>
          <internalNodes>
            0 -1 142 6.7553116241469979e-04</internalNodes>
          <leafValues>
            -2.6676061749458313e-01 5.5166488885879517e-01</leafValues></_>
        <_>
          <internalNodes>
            0 -1 134 1.9889574497938156e-02</internalNodes>
          <leafValues>
            -4.6858417987823486e-01 3.3203643560409546e-01</leafValues></_>
        <_>
          <internalNodes>
            0 -1 64 -1.2314501218497753e-03</internalNodes>
          <leafValues>
            2.2914043068885803e-01 -7.3383808135986328e-01</leafValues></_>
        <_>
          <internalNodes>
            0 -1 192 -1.7192028462886810e-02</internalNodes>
          <leafValues>
            3.9442715048789978e-01 -3.9426985383033752e-01</leafValues></_>
        <_>
          <internalNodes>
            0 -1 49 4.5150760561227798e-03</internalNodes>
          <leafValues>
            -3.3910718560218811e-01 4.2074009776115417e-01</leafValues></_></weakClassifiers></_>
    <!-- stage 7 -->
    <_>
      <maxWeakCount>11</maxWeakCount>
      <stageThreshold>-1.9734690189361572e+00</stageThreshold>
      <weakClassifiers>
        <_>
          <internalNodes>
            0 -1 193 -1.0623976588249207e-02</internalNodes>
          <leafValues>
            -7.7669903635978699e-02 -7.8873240947723389e-01</leafValues></_>
        <_>
          <internalNodes>
            0 -1 152 -5.1733516156673431e-03</internalNodes>
          <leafValues>
            2.8642210364341736e-01 -5.4600429534912109e-01</leafValues></_>
        <_>
          <internalNodes>
            0 -1 45 2.5428934022784233e-03</internalNodes>
          <leafValues>
            -4.3918758630752563e-01 3.6945989727973938e-01</leafValues></_>
        <_>
          <internalNodes>
            0 -1 174 4.9373623915016651e-03</internalNodes>
          <leafValues>
            -4.8107817769050598e-01 3.1859090924263000e-01</leafValues></_>
        <_>
          <internalNodes>
            0 -1 109 2.1404875442385674e-03</internalNodes>
          <leafValues>
            -3.1495639681816101e-01 4.3961232900619507e-01</leafValues></_>
        <_>
          <internalNodes>
            0 -1 165 -4.2932818178087473e-04</internalNodes>
          <leafValues>
            3.0959880352020264e-01 -4.5033437013626099e-01</leafValues></_>
        <_>
          <internalNodes>
            0 -1 95 -9.7977612167596817e-03</internalNodes>
          <leafValues>
            3.0755054950714111e-01 -4.1011258959770203e-01</leafValues></_>
        <_>
          <internalNodes>
            0 -1 21 2.0258763470337726e-05</internalNodes>
          <leafValues>
            2.4687452614307404e-01 -5.7319498062133789e-01</leafValues></_>
        <_>
          <internalNodes>
            0 -1 215 -1.0196827352046967e-02</internalNodes>
          <leafValues>
            6.6262173652648926e-01 -2.3697337508201599e-01</leafValues></_>
        <_>
          <internalNodes>
            0 -1 81 7.6574251579586416e-05</internalNodes>
          <leafValues>
            -4.7110101580619812e-01 3.3300042152404785e-01</leafValues></_>
        <_>
          <internalNodes>
            0 -1 9 -3.3961667213588953e-03</internalNodes>
          <leafValues>
            4.2926913499832153e-01 -3.5819667577743530e-01</leafValues></_></weakClassifiers></_>
    <!-- stage 8 -->
    <_>
      <maxWeakCount>9</maxWeakCount>
      <stageThreshold>-1.7625626325607300e+00</stageThreshold>
      <weakClassifiers>
        <_>
          <internalNodes>
            0 -1 100 -4.4326208531856537e-02</internalNodes>
          <leafValues>
            -6.9124422967433929e-02 -7.9857575893402100e-01</leafValues></_>
        <_>
          <internalNodes>
            0 -1 89 -3.3834547502920032e-04</internalNodes>
          <leafValues>
            1.6324837505817413e-01 -6.6873842477798462e-01</leafValues></_>
        <_>
          <internalNodes>
            0 -1 154 -2.1157706156373024e-02</internalNodes>
          <leafValues>
            3.9691591262817383e-01 -3.8916021585464478e-01</leafValues></_>
        <_>
          <internalNodes>
            0 -1 209 -3.1205745472107083e-05</internalNodes>
          <leafValues>
            2.9897743463516235e-01 -4.4211885333061218e-01</leafValues></_>
        <_>
          <internalNodes>
            0 -1 41 -3.2336197793483734e-02</internalNodes>
          <leafValues>
            -7.7018082141876221e-01 1.9029107689857483e-01</leafValues></_>
        <_>
          <internalNodes>
            0 -1 88 2.9188054613769054e-03</internalNodes>
          <leafValues>
            -3.6455106735229492e-01 3.7153267860412598e-01</leafValues></_>
        <_>
          <internalNodes>
            0 -1 20 3.4064711071550846e-03</internalNodes>
          <leafValues>
            -3.1743773818016052e-01 4.0594762563705444e-01</leafValues></_>
        <_>
          <internalNodes>
            0 -1 47 2.7519891038537025e-02</internalNodes>
          <leafValues>
            1.3473390042781830e-01 -8.9322495460510254e-01</leafValues></_>
        <_>
          <internalNodes>
            0 -1 98 1.3692791573703289e-02</internalNodes>
          <leafValues>
            -3.9000830054283142e-01 3.3130654692649841e-01</leafValues></_></weakClassifiers></_>
    <!-- stage 9 -->
    <_>
      <maxWeakCount>10</maxWeakCount>
      <stageThreshold>-1.6561062335968018e+00</stageThreshold>
      <weakClassifiers>
        <_>
          <internalNodes>
            0 -1 170 -6.7014709115028381e-02</internalNodes>
          <leafValues>
            -1.0222221910953522e-01 -7.9692310094833374e-01</leafValues></_>
        <_>
          <internalNodes>
            0 -1 43 1.6535049304366112e-02</internalNodes>
          <leafValues>
            -4.4884246587753296e-01 4.2190152406692505e-01</leafValues></_>
        <_>
          <internalNodes>
            0 -1 158 -1.7438329756259918e-02</internalNodes>
          <leafValues>
            4.7404676675796509e-01 -3.2717186212539673e-01</leafValues></_>
        <_>
          <internalNodes>
            0 -1 180 -1.3246081653051078e-04</internalNodes>
          <leafValues>
            2.2630171477794647e-01 -5.0108176469802856e-01</leafValues></_>
        <_>
          <internalNodes>
            0 -1 210 -6.6108908504247665e-04</internalNodes>
          <leafValues>
            -8.7412583827972412e-01 1.3484962284564972e-01</leafValues></_>
        <_>
          <internalNodes>
            0 -1 198 4.7883775085210800e-02</internalNodes>
          <leafValues>
            -1.4918799698352814e-01 8.0739676952362061e-01</leafValues></_>
        <_>
          <internalNodes>
            0 -1 57 3.2867081463336945e-03</internalNodes>
          <leafValues>
            -2.7662283182144165e-01 4.1587796807289124e-01</leafValues></_>
        <_>
          <internalNodes>
            0 -1 97 5.9355415403842926e-02</internalNodes>
          <leafValues>
            -1.8523898720741272e-01 6.0086023807525635e-01</leafValues></_>
        <_>
          <internalNodes>
            0 -1 14 1.5751937031745911e-01</internalNodes>
          <leafValues>
            1.7013272643089294e-01 -7.2383970022201538e-01</leafValues></_>
        <_>
          <internalNodes>
            0 -1 16 -2.4442588910460472e-03</internalNodes>
          <leafValues>
            -8.9926117658615112e-01 1.0447016358375549e-01</leafValues></_></weakClassifiers></_>
    <!-- stage 10 -->
    <_>
      <maxWeakCount>11</maxWeakCount>
      <stageThreshold>-1.5550571680068970e+00</stageThreshold>
      <weakClassifiers>
        <_>
          <internalNodes>
            0 -1 2 1.5545165538787842e-01</internalNodes>
          <leafValues>
            -8.0454546213150024e-01 -2.8749999403953552e-01</leafValues></_>
        <_>
          <internalNodes>
            0 -1 166 1.2077974155545235e-02</internalNodes>
          <leafValues>
            -5.9578114748001099e-01 1.0195053368806839e-01</leafValues></_>
        <_>
          <internalNodes>
            0 -1 42 2.8737045824527740e-02</internalNodes>
          <leafValues>
            -2.5274732708930969e-01 4.8947149515151978e-01</leafValues></_>
        <_>
          <internalNodes>
            0 -1 205 -8.3742372225970030e-04</internalNodes>
          <leafValues>
            -7.0899116992950439e-01 1.7780335247516632e-01</leafValues></_>
        <_>
          <internalNodes>
            0 -1 190 -1.1935599613934755e-03</internalNodes>
          <leafValues>
            -8.3627331256866455e-01 1.4042414724826813e-01</leafValues></_>
        <_>
          <internalNodes>
            0 -1 61 3.3368647098541260e-02</internalNodes>
          <leafValues>
            -2.5307360291481018e-01 4.9812278151512146e-01</leafValues></_>
        <_>
          <internalNodes>
            0 -1 86 3.9636841975152493e-03</internalNodes>
          <leafValues>
            -1.9150090217590332e-01 5.8247107267379761e-01</leafValues></_>
        <_>
          <internalNodes>
            0 -1 133 1.4868505299091339e-02</internalNodes>
          <leafValues>
            -4.4900542497634888e-01 2.4409894645214081e-01</leafValues></_>
        <_>
          <internalNodes>
            0 -1 213 -8.8283177465200424e-03</internalNodes>
          <leafValues>
            4.8129838705062866e-01 -2.4626265466213226e-01</leafValues></_>
        <_>
          <internalNodes>
            0 -1 6 4.8634014092385769e-04</internalNodes>
          <leafValues>
            2.4734343588352203e-01 -4.7228360176086426e-01</leafValues></_>
        <_>
          <internalNodes>
            0 -1 119 2.8599768877029419e-02</internalNodes>
          <leafValues>
            1.6824692487716675e-01 -6.2328892946243286e-01</leafValues></_></weakClassifiers></_>
    <!-- stage 11 -->
    <_>
      <maxWeakCount>12</maxWeakCount>
      <stageThreshold>-1.5583478212356567e+00</stageThreshold>
      <weakClassifiers>
        <_>
          <internalNodes>
            0 -1 197 -1.1427870020270348e-02</internalNodes>
          <leafValues>
            -1.9672131538391113e-01 -7.8661090135574341e-01</leafValues></_>
        <_>
          <internalNodes>
            0 -1 29 -2.3773010820150375e-02</internalNodes>
          <leafValues>
            2.3271760344505310e-01 -4.5148530602455139e-01</leafValues></_>
        <_>
          <internalNodes>
            0 -1 26 2.8092652559280396e-02</internalNodes>
          <leafValues>
            -3.9564383029937744e-01 3.0867430567741394e-01</leafValues></_>
        <_>
          <internalNodes>
            0 -1 181 -3.6141202144790441e-05</internalNodes>
          <leafValues>
            2.6001095771789551e-01 -4.0787276625633240e-01</leafValues></_>
        <_>
          <internalNodes>
            0 -1 114 3.0091833323240280e-03</internalNodes>
          <leafValues>
            -1.7764565348625183e-01 5.1905763149261475e-01</leafValues></_>
        <_>
          <internalNodes>
            0 -1 106 3.3691052813082933e-03</internalNodes>
          <leafValues>
            -2.8996375203132629e-01 3.4642416238784790e-01</leafValues></_>
        <_>
          <internalNodes>
            0 -1 163 1.9532800652086735e-03</internalNodes>
          <leafValues>
            1.6477587819099426e-01 -6.1051523685455322e-01</leafValues></_>
        <_>
          <internalNodes>
            0 -1 145 1.7726603895425797e-02</internalNodes>
          <leafValues>
            -4.8666527867317200e-01 2.1061129868030548e-01</leafValues></_>
        <_>
          <internalNodes>
            0 -1 201 1.6497645527124405e-02</internalNodes>
          <leafValues>
            1.0063920915126801e-01 -8.4179544448852539e-01</leafValues></_>
        <_>
          <internalNodes>
            0 -1 87 7.8158583492040634e-03</internalNodes>
          <leafValues>
            -2.5445342063903809e-01 4.3850421905517578e-01</leafValues></_>
        <_>
          <internalNodes>
            0 -1 104 6.3747083768248558e-03</internalNodes>
          <leafValues>
            -1.7447674274444580e-01 5.3013724088668823e-01</leafValues></_>
        <_>
          <internalNodes>
            0 -1 46 4.7854937613010406e-02</internalNodes>
          <leafValues>
            -3.0940529704093933e-01 3.7338164448738098e-01</leafValues></_></weakClassifiers></_>
    <!-- stage 12 -->
    <_>
      <maxWeakCount>11</maxWeakCount>
      <stageThreshold>-1.7964062690734863e+00</stageThreshold>
      <weakClassifiers>
        <_>
          <internalNodes>
            0 -1 33 1.3193681836128235e-02</internalNodes>
          <leafValues>
            -7.8464818000793457e-01 -2.4427480995655060e-01</leafValues></_>
        <_>
          <internalNodes>
            0 -1 58 4.4025111943483353e-02</internalNodes>
          <leafValues>
            -6.3512873649597168e-01 8.8111162185668945e-02</leafValues></_>
        <_>
          <internalNodes>
            0 -1 70 -3.9942506700754166e-03</internalNodes>
          <leafValues>
            -5.9261220693588257e-01 1.5515571832656860e-01</leafValues></_>
        <_>
          <internalNodes>
            0 -1 191 -1.1363325174897909e-03</internalNodes>
          <leafValues>
            -8.6707472801208496e-01 1.2720309197902679e-01</leafValues></_>
        <_>
          <internalNodes>
            0 -1 202 8.7703783065080643e-03</internalNodes>
          <leafValues>
            1.1617069691419601e-01 -7.8864926099777222e-01</leafValues></_>
        <_>
          <internalNodes>
            0 -1 203 -4.5355482143349946e-05</internalNodes>
          <leafValues>
            2.1921280026435852e-01 -4.3771922588348389e-01</leafValues></_>
        <_>
          <internalNodes>
            0 -1 90 -1.6890760161913931e-04</internalNodes>
          <leafValues>
            2.3843093216419220e-01 -4.1477900743484497e-01</leafValues></_>
        <_>
          <internalNodes>
            0 -1 108 3.6678507458418608e-03</internalNodes>
          <leafValues>
            1.2606070935726166e-01 -8.1085115671157837e-01</leafValues></_>
        <_>
          <internalNodes>
            0 -1 212 -6.7721437662839890e-03</internalNodes>
          <leafValues>
            4.0842482447624207e-01 -2.6488026976585388e-01</leafValues></_>
        <_>
          <internalNodes>
            0 -1 183 3.0689965933561325e-04</internalNodes>
          <leafValues>
            2.0146431028842926e-01 -5.4926449060440063e-01</leafValues></_>
        <_>
          <internalNodes>
            0 -1 48 -3.6812163889408112e-02</internalNodes>
          <leafValues>
            -8.0393189191818237e-01 1.0925262421369553e-01</leafValues></_></weakClassifiers></_>
    <!-- stage 13 -->
    <_>
      <maxWeakCount>17</maxWeakCount>
      <stageThreshold>-1.7977852821350098e+00</stageThreshold>
      <weakClassifiers>
        <_>
          <internalNodes>
            0 -1 153 -5.2800900302827358e-03</internalNodes>
          <leafValues>
            -3.1125828623771667e-01 -7.8619152307510376e-01</leafValues></_>
        <_>
          <internalNodes>
            0 -1 17 1.8312441185116768e-02</internalNodes>
          <leafValues>
            -5.3302139043807983e-01 1.1026453226804733e-01</leafValues></_>
        <_>
          <internalNodes>
            0 -1 175 2.1531274542212486e-02</internalNodes>
          <leafValues>
            -3.7896409630775452e-01 2.9431849718093872e-01</leafValues></_>
        <_>
          <internalNodes>
            0 -1 74 1.1441567912697792e-03</internalNodes>
          <leafValues>
            -3.4038838744163513e-01 3.2750889658927917e-01</leafValues></_>
        <_>
          <internalNodes>
            0 -1 55 -4.9076443247031420e-05</internalNodes>
          <leafValues>
            2.3800776898860931e-01 -4.6167582273483276e-01</leafValues></_>
        <_>
          <internalNodes>
            0 -1 172 1.5959225594997406e-01</internalNodes>
          <leafValues>
            1.0565797239542007e-01 -8.4782552719116211e-01</leafValues></_>
        <_>
          <internalNodes>
            0 -1 211 -1.6242119017988443e-03</internalNodes>
          <leafValues>
            -7.6360243558883667e-01 1.0709451884031296e-01</leafValues></_>
        <_>
          <internalNodes>
            0 -1 7 -8.4713287651538849e-03</internalNodes>
          <leafValues>
            2.3874631524085999e-01 -3.6697658896446228e-01</leafValues></_>
        <_>
          <internalNodes>
            0 -1 103 2.7084231376647949e-02</internalNodes>
          <leafValues>
            1.1108926683664322e-01 -8.2473856210708618e-01</leafValues></_>
        <_>
          <internalNodes>
            0 -1 141 2.2958617191761732e-03</internalNodes>
          <leafValues>
            -1.7958220839500427e-01 5.5459159612655640e-01</leafValues></_>
        <_>
          <internalNodes>
            0 -1 71 -2.3325212299823761e-02</internalNodes>
          <leafValues>
            -8.6347895860671997e-01 1.1781752109527588e-01</leafValues></_>
        <_>
          <internalNodes>
            0 -1 130 2.8367526829242706e-03</internalNodes>
          <leafValues>
            7.5338087975978851e-02 -9.2060720920562744e-01</leafValues></_>
        <_>
          <internalNodes>
            0 -1 177 9.5199150964617729e-03</internalNodes>
          <leafValues>
            1.0116510093212128e-01 -6.7391926050186157e-01</leafValues></_>
        <_>
          <internalNodes>
            0 -1 123 2.3164367303252220e-03</internalNodes>
          <leafValues>
            -2.2739513218402863e-01 4.3064430356025696e-01</leafValues></_>
        <_>
          <internalNodes>
            0 -1 216 -6.9519812241196632e-03</internalNodes>
          <leafValues>
            4.7740525007247925e-01 -2.0186446607112885e-01</leafValues></_>
        <_>
          <internalNodes>
            0 -1 217 -2.0806051907129586e-04</internalNodes>
          <leafValues>
            -4.4667792320251465e-01 2.1437488496303558e-01</leafValues></_>
        <_>
          <internalNodes>
            0 -1 63 2.1782043040730059e-04</internalNodes>
          <leafValues>
            -4.0119856595993042e-01 2.4001413583755493e-01</leafValues></_></weakClassifiers></_>
    <!-- stage 14 -->
    <_>
      <maxWeakCount>14</maxWeakCount>
      <stageThreshold>-1.6325502395629883e+00</stageThreshold>
      <weakClassifiers>
        <_>
          <internalNodes>
            0 -1 194 2.7052615769207478e-03</internalNodes>
          <leafValues>
            -8.0676329135894775e-01 -3.5483869910240173e-01</leafValues></_>
        <_>
          <internalNodes>
            0 -1 24 -2.3015527985990047e-03</internalNodes>
          <leafValues>
            2.0969875156879425e-01 -4.3415844440460205e-01</leafValues></_>
        <_>
          <internalNodes>
            0 -1 34 -6.0843899846076965e-03</internalNodes>
          <leafValues>
            2.4662223458290100e-01 -4.0952670574188232e-01</leafValues></_>
        <_>
          <internalNodes>
            0 -1 147 -1.4837128110229969e-03</internalNodes>
          <leafValues>
            4.0442919731140137e-01 -2.3487840592861176e-01</leafValues></_>
        <_>
          <internalNodes>
            0 -1 156 -2.1602492779493332e-03</internalNodes>
          <leafValues>
            3.2443580031394958e-01 -3.0208972096443176e-01</leafValues></_>
        <_>
          <internalNodes>
            0 -1 184 -4.8180326120927930e-04</internalNodes>
          <leafValues>
            3.1294557452201843e-01 -3.0982044339179993e-01</leafValues></_>
        <_>
          <internalNodes>
            0 -1 78 6.6751897335052490e-02</internalNodes>
          <leafValues>
            -1.4553548395633698e-01 7.3828816413879395e-01</leafValues></_>
        <_>
          <internalNodes>
            0 -1 120 -1.1840341612696648e-03</internalNodes>
          <leafValues>
            4.0661826729774475e-01 -2.3289528489112854e-01</leafValues></_>
        <_>
          <internalNodes>
            0 -1 157 -1.6320543363690376e-03</internalNodes>
          <leafValues>
            -8.2685148715972900e-01 1.3539905846118927e-01</leafValues></_>
        <_>
          <internalNodes>
            0 -1 76 3.8304686313495040e-04</internalNodes>
          <leafValues>
            -3.6617311835289001e-01 2.8209283947944641e-01</leafValues></_>
        <_>
          <internalNodes>
            0 -1 139 -2.8162675444036722e-03</internalNodes>
          <leafValues>
            5.6264817714691162e-01 -1.7059916257858276e-01</leafValues></_>
        <_>
          <internalNodes>
            0 -1 144 5.5991588160395622e-03</internalNodes>
          <leafValues>
            2.6077532768249512e-01 -3.8906505703926086e-01</leafValues></_>
        <_>
          <internalNodes>
            0 -1 137 -3.9662819355726242e-02</internalNodes>
          <leafValues>
            -8.3346235752105713e-01 1.0830539464950562e-01</leafValues></_>
        <_>
          <internalNodes>
            0 -1 136 1.3571856543421745e-03</internalNodes>
          <leafValues>
            -4.3362149596214294e-01 2.0071941614151001e-01</leafValues></_></weakClassifiers></_>
    <!-- stage 15 -->
    <_>
      <maxWeakCount>12</maxWeakCount>
      <stageThreshold>-1.6530754566192627e+00</stageThreshold>
      <weakClassifiers>
        <_>
          <internalNodes>
            0 -1 128 -1.0400164872407913e-02</internalNodes>
          <leafValues>
            8.6956523358821869e-02 -7.2924184799194336e-01</leafValues></_>
        <_>
          <internalNodes>
            0 -1 37 -1.6984476242214441e-03</internalNodes>
          <leafValues>
            -8.4938555955886841e-01 -3.6774899810552597e-02</leafValues></_>
        <_>
          <internalNodes>
            0 -1 160 1.0297682601958513e-03</internalNodes>
          <leafValues>
            -2.1194289624691010e-01 4.8350277543067932e-01</leafValues></_>
        <_>
          <internalNodes>
            0 -1 204 -5.4668355733156204e-03</internalNodes>
          <leafValues>
            3.4531208872795105e-01 -2.6462417840957642e-01</leafValues></_>
        <_>
          <internalNodes>
            0 -1 38 -1.0213717818260193e-02</internalNodes>
          <leafValues>
            -7.6833766698837280e-01 1.2256427109241486e-01</leafValues></_>
        <_>
          <internalNodes>
            0 -1 8 1.3675820082426071e-02</internalNodes>
          <leafValues>
            -4.6938467025756836e-01 2.4169263243675232e-01</leafValues></_>
        <_>
          <internalNodes>
            0 -1 159 -3.3472548238933086e-05</internalNodes>
          <leafValues>
            2.3330041766166687e-01 -3.8655897974967957e-01</leafValues></_>
        <_>
          <internalNodes>
            0 -1 208 1.4390973956324160e-04</internalNodes>
          <leafValues>
            1.9695486128330231e-01 -4.7456845641136169e-01</leafValues></_>
        <_>
          <internalNodes>
            0 -1 54 -1.3370069209486246e-03</internalNodes>
          <leafValues>
            -8.3097171783447266e-01 1.1774431169033051e-01</leafValues></_>
        <_>
          <internalNodes>
            0 -1 62 -2.2946955636143684e-02</internalNodes>
          <leafValues>
            -6.9747465848922729e-01 1.0622423142194748e-01</leafValues></_>
        <_>
          <internalNodes>
            0 -1 189 1.5823723515495658e-04</internalNodes>
          <leafValues>
            2.2008134424686432e-01 -3.7938442826271057e-01</leafValues></_>
        <_>
          <internalNodes>
            0 -1 151 -1.1529456824064255e-03</internalNodes>
          <leafValues>
            3.3301272988319397e-01 -3.1115576624870300e-01</leafValues></_></weakClassifiers></_>
    <!-- stage 16 -->
    <_>
      <maxWeakCount>10</maxWeakCount>
      <stageThreshold>-1.4727613925933838e+00</stageThreshold>
      <weakClassifiers>
        <_>
          <internalNodes>
            0 -1 102 1.3278100639581680e-02</internalNodes>
          <leafValues>
            -7.6787567138671875e-01 -2.5106382369995117e-01</leafValues></_>
        <_>
          <internalNodes>
            0 -1 161 1.1639741715043783e-03</internalNodes>
          <leafValues>
            -4.8918253183364868e-01 1.5277837216854095e-01</leafValues></_>
        <_>
          <internalNodes>
            0 -1 188 3.5507753636920825e-05</internalNodes>
          <leafValues>
            -3.9264345169067383e-01 1.9527088105678558e-01</leafValues></_>
        <_>
          <internalNodes>
            0 -1 101 1.0045676026493311e-03</internalNodes>
          <leafValues>
            1.1763764917850494e-01 -6.4797377586364746e-01</leafValues></_>
        <_>
          <internalNodes>
            0 -1 113 -2.4181610206142068e-04</internalNodes>
          <leafValues>
            3.4547284245491028e-01 -2.3968631029129028e-01</leafValues></_>
        <_>
          <internalNodes>
            0 -1 31 6.6774047911167145e-02</internalNodes>
          <leafValues>
            -2.2268229722976685e-01 4.2394837737083435e-01</leafValues></_>
        <_>
          <internalNodes>
            0 -1 59 1.5345871448516846e-02</internalNodes>
          <leafValues>
            -1.7281293869018555e-01 4.8740652203559875e-01</leafValues></_>
        <_>
          <internalNodes>
            0 -1 214 2.2011404507793486e-04</internalNodes>
          <leafValues>
            2.4248231947422028e-01 -3.7247452139854431e-01</leafValues></_>
        <_>
          <internalNodes>
            0 -1 53 6.7471980582922697e-04</internalNodes>
          <leafValues>
            1.1955227702856064e-01 -6.9062578678131104e-01</leafValues></_>
        <_>
          <internalNodes>
            0 -1 121 -8.5862446576356888e-03</internalNodes>
          <leafValues>
            4.4264709949493408e-01 -2.1136635541915894e-01</leafValues></_></weakClassifiers></_>
    <!-- stage 17 -->
    <_>
      <maxWeakCount>16</maxWeakCount>
      <stageThreshold>-1.6029075384140015e+00</stageThreshold>
      <weakClassifiers>
        <_>
          <internalNodes>
            0 -1 124 -8.3410497754812241e-03</internalNodes>
          <leafValues>
            1.0112359374761581e-01 -7.2817283868789673e-01</leafValues></_>
        <_>
          <internalNodes>
            0 -1 207 -4.3474663980305195e-03</internalNodes>
          <leafValues>
            4.8845343291759491e-02 -5.8605414628982544e-01</leafValues></_>
        <_>
          <internalNodes>
            0 -1 187 6.1602392233908176e-03</internalNodes>
          <leafValues>
            -4.1850483417510986e-01 1.8847289681434631e-01</leafValues></_>
        <_>
          <internalNodes>
            0 -1 115 7.0400945842266083e-03</internalNodes>
          <leafValues>
            -9.7858503460884094e-02 6.7192047834396362e-01</leafValues></_>
        <_>
          <internalNodes>
            0 -1 127 4.0253913030028343e-03</internalNodes>
          <leafValues>
            -1.3416334986686707e-01 5.9212392568588257e-01</leafValues></_>
        <_>
          <internalNodes>
            0 -1 67 -1.3907006010413170e-02</internalNodes>
          <leafValues>
            9.1273486614227295e-01 -9.0150021016597748e-02</leafValues></_>
        <_>
          <internalNodes>
            0 -1 19 1.4051919803023338e-02</internalNodes>
          <leafValues>
            -2.1352417767047882e-01 3.7517806887626648e-01</leafValues></_>
        <_>
          <internalNodes>
            0 -1 60 3.6237910389900208e-03</internalNodes>
          <leafValues>
            2.1041829884052277e-01 -4.1647815704345703e-01</leafValues></_>
        <_>
          <internalNodes>
            0 -1 168 1.5878427075222135e-04</internalNodes>
          <leafValues>
            -2.9774203896522522e-01 2.9215431213378906e-01</leafValues></_>
        <_>
          <internalNodes>
            0 -1 176 -1.2735247611999512e-02</internalNodes>
          <leafValues>
            -7.8141343593597412e-01 1.2034504115581512e-01</leafValues></_>
        <_>
          <internalNodes>
            0 -1 116 -1.9614067859947681e-03</internalNodes>
          <leafValues>
            -8.2534033060073853e-01 8.4986366331577301e-02</leafValues></_>
        <_>
          <internalNodes>
            0 -1 50 5.6855511502362788e-05</internalNodes>
          <leafValues>
            2.0101641118526459e-01 -4.1182380914688110e-01</leafValues></_>
        <_>
          <internalNodes>
            0 -1 68 3.3804251870606095e-05</internalNodes>
          <leafValues>
            -4.5120564103126526e-01 1.9017049670219421e-01</leafValues></_>
        <_>
          <internalNodes>
            0 -1 56 7.6407231390476227e-03</internalNodes>
          <leafValues>
            -3.1719636917114258e-01 2.6997050642967224e-01</leafValues></_>
        <_>
          <internalNodes>
            0 -1 122 -1.8013927619904280e-03</internalNodes>
          <leafValues>
            4.0085199475288391e-01 -2.2248639166355133e-01</leafValues></_>
        <_>
          <internalNodes>
            0 -1 143 -2.0837425254285336e-03</internalNodes>
          <leafValues>
            -7.6302713155746460e-01 1.4323998987674713e-01</leafValues></_></weakClassifiers></_>
    <!-- stage 18 -->
    <_>
      <maxWeakCount>15</maxWeakCount>
      <stageThreshold>-1.7282576560974121e+00</stageThreshold>
      <weakClassifiers>
        <_>
          <internalNodes>
            0 -1 126 4.5980191789567471e-03</internalNodes>
          <leafValues>
            -7.5424575805664063e-01 -2.2613064944744110e-01</leafValues></_>
        <_>
          <internalNodes>
            0 -1 167 1.1602032929658890e-02</internalNodes>
          <leafValues>
            -4.1582876443862915e-01 2.1325394511222839e-01</leafValues></_>
        <_>
          <internalNodes>
            0 -1 206 -9.7396422643214464e-04</internalNodes>
          <leafValues>
            2.2264550626277924e-01 -3.8423770666122437e-01</leafValues></_>
        <_>
          <internalNodes>
            0 -1 99 1.0829967446625233e-02</internalNodes>
          <leafValues>
            -3.3020558953285217e-01 2.3853667080402374e-01</leafValues></_>
        <_>
          <internalNodes>
            0 -1 118 9.2965119984000921e-04</internalNodes>
          <leafValues>
            1.8093982338905334e-01 -6.4614862203598022e-01</leafValues></_>
        <_>
          <internalNodes>
            0 -1 36 -1.3443026691675186e-02</internalNodes>
          <leafValues>
            4.9759918451309204e-01 -2.0272234082221985e-01</leafValues></_>
        <_>
          <internalNodes>
            0 -1 164 -8.6164735257625580e-03</internalNodes>
          <leafValues>
            -8.1180083751678467e-01 1.2800824642181396e-01</leafValues></_>
        <_>
          <internalNodes>
            0 -1 138 -1.3157939538359642e-03</internalNodes>
          <leafValues>
            3.6702623963356018e-01 -2.2685135900974274e-01</leafValues></_>
        <_>
          <internalNodes>
            0 -1 111 4.1604614816606045e-03</internalNodes>
          <leafValues>
            -2.1173796057701111e-01 4.1365611553192139e-01</leafValues></_>
        <_>
          <internalNodes>
            0 -1 40 -3.2833265140652657e-03</internalNodes>
          <leafValues>
            -5.2440518140792847e-01 1.6686002910137177e-01</leafValues></_>
        <_>
          <internalNodes>
            0 -1 148 -1.6160369850695133e-03</internalNodes>
          <leafValues>
            3.0050259828567505e-01 -2.7779892086982727e-01</leafValues></_>
        <_>
          <internalNodes>
            0 -1 5 -9.6421670168638229e-03</internalNodes>
          <leafValues>
            -8.7318944931030273e-01 8.5884712636470795e-02</leafValues></_>
        <_>
          <internalNodes>
            0 -1 13 -3.4316565841436386e-02</internalNodes>
          <leafValues>
            2.4940983951091766e-01 -3.0223938822746277e-01</leafValues></_>
        <_>
          <internalNodes>
            0 -1 83 1.6339041758328676e-04</internalNodes>
          <leafValues>
            -2.5589442253112793e-01 3.3095115423202515e-01</leafValues></_>
        <_>
          <internalNodes>
            0 -1 93 1.3671502470970154e-01</internalNodes>
          <leafValues>
            -1.0381371527910233e-01 7.9699873924255371e-01</leafValues></_></weakClassifiers></_>
    <!-- stage 19 -->
    <_>
      <maxWeakCount>19</maxWeakCount>
      <stageThreshold>-1.6242561340332031e+00</stageThreshold>
      <weakClassifiers>
        <_>
          <internalNodes>
            0 -1 178 -1.5833415091037750e-02</internalNodes>
          <leafValues>
            -2.1052631735801697e-01 -7.3282444477081299e-01</leafValues></_>
        <_>
          <internalNodes>
            0 -1 110 -7.0175873115658760e-03</internalNodes>
          <leafValues>
            7.6944909989833832e-02 -4.8134142160415649e-01</leafValues></_>
        <_>
          <internalNodes>
            0 -1 65 1.7708027735352516e-04</internalNodes>
          <leafValues>
            1.0132275521755219e-01 -6.7432731389999390e-01</leafValues></_>
        <_>
          <internalNodes>
            0 -1 52 9.0949824079871178e-03</internalNodes>
          <leafValues>
            1.2343113124370575e-01 -6.5371155738830566e-01</leafValues></_>
        <_>
          <internalNodes>
            0 -1 84 1.6755897086113691e-03</internalNodes>
          <leafValues>
            -1.5956474840641022e-01 4.9786439538002014e-01</leafValues></_>
        <_>
          <internalNodes>
            0 -1 173 3.2574005424976349e-02</internalNodes>
          <leafValues>
            -4.7627779841423035e-01 1.9337400794029236e-01</leafValues></_>
        <_>
          <internalNodes>
            0 -1 129 -1.9904971122741699e-03</internalNodes>
          <leafValues>
            3.7493368983268738e-01 -1.9964985549449921e-01</leafValues></_>
        <_>
          <internalNodes>
            0 -1 150 1.9633800256997347e-03</internalNodes>
          <leafValues>
            1.0388645529747009e-01 -8.1583100557327271e-01</leafValues></_>
        <_>
          <internalNodes>
            0 -1 140 -2.7919705025851727e-03</internalNodes>
          <leafValues>
            4.7719225287437439e-01 -1.8598179519176483e-01</leafValues></_>
        <_>
          <internalNodes>
            0 -1 135 -2.0616967231035233e-03</internalNodes>
          <leafValues>
            4.5087778568267822e-01 -2.0232264697551727e-01</leafValues></_>
        <_>
          <internalNodes>
            0 -1 195 -4.9980692565441132e-02</internalNodes>
          <leafValues>
            3.5159042477607727e-01 -2.2228689491748810e-01</leafValues></_>
        <_>
          <internalNodes>
            0 -1 107 2.3737435694783926e-03</internalNodes>
          <leafValues>
            -2.0774564146995544e-01 4.0695387125015259e-01</leafValues></_>
        <_>
          <internalNodes>
            0 -1 125 -5.7105044834315777e-03</internalNodes>
          <leafValues>
            6.5530365705490112e-01 -1.3345168530941010e-01</leafValues></_>
        <_>
          <internalNodes>
            0 -1 72 2.1871287375688553e-02</internalNodes>
          <leafValues>
            1.2076690793037415e-01 -9.1145741939544678e-01</leafValues></_>
        <_>
          <internalNodes>
            0 -1 23 1.6775779658928514e-03</internalNodes>
          <leafValues>
            -3.9621722698211670e-01 2.2127674520015717e-01</leafValues></_>
        <_>
          <internalNodes>
            0 -1 155 -7.4566568946465850e-04</internalNodes>
          <leafValues>
            -7.8172481060028076e-01 1.0891902446746826e-01</leafValues></_>
        <_>
          <internalNodes>
            0 -1 30 8.4830913692712784e-05</internalNodes>
          <leafValues>
            -3.4567034244537354e-01 2.4071933329105377e-01</leafValues></_>
        <_>
          <internalNodes>
            0 -1 15 2.1899039857089520e-03</internalNodes>
          <leafValues>
            1.2249260395765305e-01 -8.0944907665252686e-01</leafValues></_>
        <_>
          <internalNodes>
            0 -1 25 -6.5051550045609474e-03</internalNodes>
          <leafValues>
            5.1261752843856812e-01 -2.0222808420658112e-01</leafValues></_></weakClassifiers></_></stages>
  <features>
    <_>
      <rects>
        <_>
          0 0 24 7 -1.</_>
        <_>
          8 0 8 7 3.</_></rects>
      <tilted>0</tilted></_>
    <_>
      <rects>
        <_>
          0 0 24 13 -1.</_>
        <_>
          8 0 8 13 3.</_></rects>
      <tilted>0</tilted></_>
    <_>
      <rects>
        <_>
          0 1 24 4 -1.</_>
        <_>
          8 1 8 4 3.</_></rects>
      <tilted>0</tilted></_>
    <_>
      <rects>
        <_>
          0 1 24 6 -1.</_>
        <_>
          8 1 8 6 3.</_></rects>
      <tilted>0</tilted></_>
    <_>
      <rects>
        <_>
          0 3 24 3 -1.</_>
        <_>
          8 3 8 3 3.</_></rects>
      <tilted>0</tilted></_>
    <_>
      <rects>
        <_>
          0 4 24 2 -1.</_>
        <_>
          0 4 12 1 2.</_>
        <_>
          12 5 12 1 2.</_></rects>
      <tilted>0</tilted></_>
    <_>
      <rects>
        <_>
          0 7 2 6 -1.</_>
        <_>
          1 7 1 6 2.</_></rects>
      <tilted>0</tilted></_>
    <_>
      <rects>
        <_>
          0 7 11 6 -1.</_>
        <_>
          0 9 11 2 3.</_></rects>
      <tilted>0</tilted></_>
    <_>
      <rects>
        <_>
          0 8 10 8 -1.</_>
        <_>
          0 12 10 4 2.</_></rects>
      <tilted>0</tilted></_>
    <_>
      <rects>
        <_>
          0 18 6 4 -1.</_>
        <_>
          0 18 3 2 2.</_>
        <_>
          3 20 3 2 2.</_></rects>
      <tilted>0</tilted></_>
    <_>
      <rects>
        <_>
          0 21 9 2 -1.</_>
        <_>
          3 21 3 2 3.</_></rects>
      <tilted>0</tilted></_>
    <_>
      <rects>
        <_>
          1 0 8 23 -1.</_>
        <_>
          5 0 4 23 2.</_></rects>
      <tilted>0</tilted></_>
    <_>
      <rects>
        <_>
          1 0 21 7 -1.</_>
        <_>
          8 0 7 7 3.</_></rects>
      <tilted>0</tilted></_>
    <_>
      <rects>
        <_>
          1 0 14 14 -1.</_>
        <_>
          1 0 7 7 2.</_>
        <_>
          8 7 7 7 2.</_></rects>
      <tilted>0</tilted></_>
    <_>
      <rects>
        <_>
          1 0 13 21 -1.</_>
        <_>
          1 7 13 7 3.</_></rects>
      <tilted>0</tilted></_>
    <_>
      <rects>
        <_>
          1 1 4 3 -1.</_>
        <_>
          1 2 4 1 3.</_></rects>
      <tilted>0</tilted></_>
    <_>
      <rects>
        <_>
          1 1 6 2 -1.</_>
        <_>
          1 2 6 1 2.</_></rects>
      <tilted>0</tilted></_>
    <_>
      <rects>
        <_>
          1 2 4 12 -1.</_>
        <_>
          3 2 2 12 2.</_></rects>
      <tilted>0</tilted></_>
    <_>
      <rects>
        <_>
          1 2 4 13 -1.</_>
        <_>
          3 2 2 13 2.</_></rects>
      <tilted>0</tilted></_>
    <_>
      <rects>
        <_>
          1 4 4 4 -1.</_>
        <_>
          3 4 2 4 2.</_></rects>
      <tilted>0</tilted></_>
    <_>
      <rects>
        <_>
          1 6 6 2 -1.</_>
        <_>
          3 6 2 2 3.</_></rects>
      <tilted>0</tilted></_>
    <_>
      <rects>
        <_>
          1 7 2 14 -1.</_>
        <_>
          1 7 1 7 2.</_>
        <_>
          2 14 1 7 2.</_></rects>
      <tilted>0</tilted></_>
    <_>
      <rects>
        <_>
          1 7 10 15 -1.</_>
        <_>
          1 12 10 5 3.</_></rects>
      <tilted>0</tilted></_>
    <_>
      <rects>
        <_>
          1 9 6 4 -1.</_>
        <_>
          1 9 3 2 2.</_>
        <_>
          4 11 3 2 2.</_></rects>
      <tilted>0</tilted></_>
    <_>
      <rects>
        <_>
          1 20 6 1 -1.</_>
        <_>
          3 20 2 1 3.</_></rects>
      <tilted>0</tilted></_>
    <_>
      <rects>
        <_>
          1 20 6 2 -1.</_>
        <_>
          4 20 3 2 2.</_></rects>
      <tilted>0</tilted></_>
    <_>
      <rects>
        <_>
          1 21 14 3 -1.</_>
        <_>
          8 21 7 3 2.</_></rects>
      <tilted>0</tilted></_>
    <_>
      <rects>
        <_>
          2 1 4 16 -1.</_>
        <_>
          4 1 2 16 2.</_></rects>
      <tilted>0</tilted></_>
    <_>
      <rects>
        <_>
          2 1 6 6 -1.</_>
        <_>
          5 1 3 6 2.</_></rects>
      <tilted>0</tilted></_>
    <_>
      <rects>
        <_>
          2 1 8 10 -1.</_>
        <_>
          2 1 4 5 2.</_>
        <_>
          6 6 4 5 2.</_></rects>
      <tilted>0</tilted></_>
    <_>
      <rects>
        <_>
          2 1 5 3 -1.</_>
        <_>
          2 2 5 1 3.</_></rects>
      <tilted>0</tilted></_>
    <_>
      <rects>
        <_>
          2 1 21 2 -1.</_>
        <_>
          9 1 7 2 3.</_></rects>
      <tilted>0</tilted></_>
    <_>
      <rects>
        <_>
          2 2 3 2 -1.</_>
        <_>
          2 3 3 1 2.</_></rects>
      <tilted>0</tilted></_>
    <_>
      <rects>
        <_>
          2 3 2 14 -1.</_>
        <_>
          3 3 1 14 2.</_></rects>
      <tilted>0</tilted></_>
    <_>
      <rects>
        <_>
          2 3 6 8 -1.</_>
        <_>
          2 3 3 4 2.</_>
        <_>
          5 7 3 4 2.</_></rects>
      <tilted>0</tilted></_>
    <_>
      <rects>
        <_>
          2 4 2 5 -1.</_>
        <_>
          3 4 1 5 2.</_></rects>
      <tilted>0</tilted></_>
    <_>
      <rects>
        <_>
          2 4 2 20 -1.</_>
        <_>
          2 4 1 10 2.</_>
        <_>
          3 14 1 10 2.</_></rects>
      <tilted>0</tilted></_>
    <_>
      <rects>
        <_>
          2 4 4 3 -1.</_>
        <_>
          2 5 4 1 3.</_></rects>
      <tilted>0</tilted></_>
    <_>
      <rects>
        <_>
          2 5 2 9 -1.</_>
        <_>
          2 8 2 3 3.</_></rects>
      <tilted>0</tilted></_>
    <_>
      <rects>
        <_>
          2 8 6 8 -1.</_>
        <_>
          2 8 3 4 2.</_>
        <_>
          5 12 3 4 2.</_></rects>
      <tilted>0</tilted></_>
    <_>
      <rects>
        <_>
          2 10 18 4 -1.</_>
        <_>
          8 10 6 4 3.</_></rects>
      <tilted>0</tilted></_>
    <_>
      <rects>
        <_>
          2 10 22 8 -1.</_>
        <_>
          2 10 11 4 2.</_>
        <_>
          13 14 11 4 2.</_></rects>
      <tilted>0</tilted></_>
    <_>
      <rects>
        <_>
          2 12 4 12 -1.</_>
        <_>
          4 12 2 12 2.</_></rects>
      <tilted>0</tilted></_>
    <_>
      <rects>
        <_>
          2 21 8 2 -1.</_>
        <_>
          6 21 4 2 2.</_></rects>
      <tilted>0</tilted></_>
    <_>
      <rects>
        <_>
          2 22 12 1 -1.</_>
        <_>
          8 22 6 1 2.</_></rects>
      <tilted>0</tilted></_>
    <_>
      <rects>
        <_>
          3 1 2 7 -1.</_>
        <_>
          4 1 1 7 2.</_></rects>
      <tilted>0</tilted></_>
    <_>
      <rects>
        <_>
          3 2 17 9 -1.</_>
        <_>
          3 5 17 3 3.</_></rects>
      <tilted>0</tilted></_>
    <_>
      <rects>
        <_>
          3 7 14 10 -1.</_>
        <_>
          3 7 7 5 2.</_>
        <_>
          10 12 7 5 2.</_></rects>
      <tilted>0</tilted></_>
    <_>
      <rects>
        <_>
          3 8 20 8 -1.</_>
        <_>
          3 8 10 4 2.</_>
        <_>
          13 12 10 4 2.</_></rects>
      <tilted>0</tilted></_>
    <_>
      <rects>
        <_>
          3 9 4 6 -1.</_>
        <_>
          3 9 2 3 2.</_>
        <_>
          5 12 2 3 2.</_></rects>
      <tilted>0</tilted></_>
    <_>
      <rects>
        <_>
          3 10 1 8 -1.</_>
        <_>
          3 14 1 4 2.</_></rects>
      <tilted>0</tilted></_>
    <_>
      <rects>
        <_>
          3 13 5 10 -1.</_>
        <_>
          3 18 5 5 2.</_></rects>
      <tilted>0</tilted></_>
    <_>
      <rects>
        <_>
          3 14 4 6 -1.</_>
        <_>
          3 16 4 2 3.</_></rects>
      <tilted>0</tilted></_>
    <_>
      <rects>
        <_>
          3 15 1 3 -1.</_>
        <_>
          3 16 1 1 3.</_></rects>
      <tilted>0</tilted></_>
    <_>
      <rects>
        <_>
          3 15 2 3 -1.</_>
        <_>
          3 16 2 1 3.</_></rects>
      <tilted>0</tilted></_>
    <_>
      <rects>
        <_>
          3 17 3 2 -1.</_>
        <_>
          3 18 3 1 2.</_></rects>
      <tilted>0</tilted></_>
    <_>
      <rects>
        <_>
          3 17 8 6 -1.</_>
        <_>
          3 17 4 3 2.</_>
        <_>
          7 20 4 3 2.</_></rects>
      <tilted>0</tilted></_>
    <_>
      <rects>
        <_>
          4 0 17 2 -1.</_>
        <_>
          4 1 17 1 2.</_></rects>
      <tilted>0</tilted></_>
    <_>
      <rects>
        <_>
          4 1 15 14 -1.</_>
        <_>
          9 1 5 14 3.</_></rects>
      <tilted>0</tilted></_>
    <_>
      <rects>
        <_>
          4 5 11 6 -1.</_>
        <_>
          4 7 11 2 3.</_></rects>
      <tilted>0</tilted></_>
    <_>
      <rects>
        <_>
          4 7 12 14 -1.</_>
        <_>
          4 7 6 7 2.</_>
        <_>
          10 14 6 7 2.</_></rects>
      <tilted>0</tilted></_>
    <_>
      <rects>
        <_>
          4 9 16 6 -1.</_>
        <_>
          4 11 16 2 3.</_></rects>
      <tilted>0</tilted></_>
    <_>
      <rects>
        <_>
          4 12 16 8 -1.</_>
        <_>
          4 12 8 4 2.</_>
        <_>
          12 16 8 4 2.</_></rects>
      <tilted>0</tilted></_>
    <_>
      <rects>
        <_>
          4 13 6 1 -1.</_>
        <_>
          6 13 2 1 3.</_></rects>
      <tilted>0</tilted></_>
    <_>
      <rects>
        <_>
          4 14 6 6 -1.</_>
        <_>
          4 17 6 3 2.</_></rects>
      <tilted>0</tilted></_>
    <_>
      <rects>
        <_>
          4 18 1 2 -1.</_>
        <_>
          4 19 1 1 2.</_></rects>
      <tilted>0</tilted></_>
    <_>
      <rects>
        <_>
          4 18 8 4 -1.</_>
        <_>
          4 18 4 2 2.</_>
        <_>
          8 20 4 2 2.</_></rects>
      <tilted>0</tilted></_>
    <_>
      <rects>
        <_>
          5 0 12 2 -1.</_>
        <_>
          5 1 12 1 2.</_></rects>
      <tilted>0</tilted></_>
    <_>
      <rects>
        <_>
          5 5 2 2 -1.</_>
        <_>
          6 5 1 2 2.</_></rects>
      <tilted>0</tilted></_>
    <_>
      <rects>
        <_>
          5 5 15 9 -1.</_>
        <_>
          5 8 15 3 3.</_></rects>
      <tilted>0</tilted></_>
    <_>
      <rects>
        <_>
          5 7 9 10 -1.</_>
        <_>
          5 12 9 5 2.</_></rects>
      <tilted>0</tilted></_>
    <_>
      <rects>
        <_>
          5 14 4 9 -1.</_>
        <_>
          5 17 4 3 3.</_></rects>
      <tilted>0</tilted></_>
    <_>
      <rects>
        <_>
          5 18 7 6 -1.</_>
        <_>
          5 21 7 3 2.</_></rects>
      <tilted>0</tilted></_>
    <_>
      <rects>
        <_>
          5 19 1 2 -1.</_>
        <_>
          5 20 1 1 2.</_></rects>
      <tilted>0</tilted></_>
    <_>
      <rects>
        <_>
          5 19 6 2 -1.</_>
        <_>
          5 19 3 1 2.</_>
        <_>
          8 20 3 1 2.</_></rects>
      <tilted>0</tilted></_>
    <_>
      <rects>
        <_>
          6 0 3 3 -1.</_>
        <_>
          7 0 1 3 3.</_></rects>
      <tilted>0</tilted></_>
    <_>
      <rects>
        <_>
          6 0 4 3 -1.</_>
        <_>
          6 1 4 1 3.</_></rects>
      <tilted>0</tilted></_>
    <_>
      <rects>
        <_>
          6 2 12 10 -1.</_>
        <_>
          10 2 4 10 3.</_></rects>
      <tilted>0</tilted></_>
    <_>
      <rects>
        <_>
          6 2 11 8 -1.</_>
        <_>
          6 6 11 4 2.</_></rects>
      <tilted>0</tilted></_>
    <_>
      <rects>
        <_>
          6 2 15 8 -1.</_>
        <_>
          6 6 15 4 2.</_></rects>
      <tilted>0</tilted></_>
    <_>
      <rects>
        <_>
          6 4 7 6 -1.</_>
        <_>
          6 6 7 2 3.</_></rects>
      <tilted>0</tilted></_>
    <_>
      <rects>
        <_>
          6 5 2 1 -1.</_>
        <_>
          7 5 1 1 2.</_></rects>
      <tilted>0</tilted></_>
    <_>
      <rects>
        <_>
          6 6 12 6 -1.</_>
        <_>
          6 8 12 2 3.</_></rects>
      <tilted>0</tilted></_>
    <_>
      <rects>
        <_>
          6 8 2 2 -1.</_>
        <_>
          6 8 1 1 2.</_>
        <_>
          7 9 1 1 2.</_></rects>
      <tilted>0</tilted></_>
    <_>
      <rects>
        <_>
          6 8 3 3 -1.</_>
        <_>
          6 9 3 1 3.</_></rects>
      <tilted>0</tilted></_>
    <_>
      <rects>
        <_>
          6 8 4 15 -1.</_>
        <_>
          6 13 4 5 3.</_></rects>
      <tilted>0</tilted></_>
    <_>
      <rects>
        <_>
          6 8 11 3 -1.</_>
        <_>
          6 9 11 1 3.</_></rects>
      <tilted>0</tilted></_>
    <_>
      <rects>
        <_>
          6 9 16 2 -1.</_>
        <_>
          6 10 16 1 2.</_></rects>
      <tilted>0</tilted></_>
    <_>
      <rects>
        <_>
          6 13 14 3 -1.</_>
        <_>
          6 14 14 1 3.</_></rects>
      <tilted>0</tilted></_>
    <_>
      <rects>
        <_>
          6 20 1 4 -1.</_>
        <_>
          6 22 1 2 2.</_></rects>
      <tilted>0</tilted></_>
    <_>
      <rects>
        <_>
          6 22 2 2 -1.</_>
        <_>
          6 23 2 1 2.</_></rects>
      <tilted>0</tilted></_>
    <_>
      <rects>
        <_>
          7 0 3 9 -1.</_>
        <_>
          8 0 1 9 3.</_></rects>
      <tilted>0</tilted></_>
    <_>
      <rects>
        <_>
          7 1 3 5 -1.</_>
        <_>
          8 1 1 5 3.</_></rects>
      <tilted>0</tilted></_>
    <_>
      <rects>
        <_>
          7 1 9 12 -1.</_>
        <_>
          7 5 9 4 3.</_></rects>
      <tilted>0</tilted></_>
    <_>
      <rects>
        <_>
          7 3 9 6 -1.</_>
        <_>
          7 5 9 2 3.</_></rects>
      <tilted>0</tilted></_>
    <_>
      <rects>
        <_>
          7 12 15 6 -1.</_>
        <_>
          7 15 15 3 2.</_></rects>
      <tilted>0</tilted></_>
    <_>
      <rects>
        <_>
          8 1 5 9 -1.</_>
        <_>
          8 4 5 3 3.</_></rects>
      <tilted>0</tilted></_>
    <_>
      <rects>
        <_>
          8 1 8 10 -1.</_>
        <_>
          8 6 8 5 2.</_></rects>
      <tilted>0</tilted></_>
    <_>
      <rects>
        <_>
          8 3 10 6 -1.</_>
        <_>
          8 5 10 2 3.</_></rects>
      <tilted>0</tilted></_>
    <_>
      <rects>
        <_>
          8 4 9 5 -1.</_>
        <_>
          11 4 3 5 3.</_></rects>
      <tilted>0</tilted></_>
    <_>
      <rects>
        <_>
          8 4 9 6 -1.</_>
        <_>
          8 7 9 3 2.</_></rects>
      <tilted>0</tilted></_>
    <_>
      <rects>
        <_>
          8 5 3 2 -1.</_>
        <_>
          9 5 1 2 3.</_></rects>
      <tilted>0</tilted></_>
    <_>
      <rects>
        <_>
          8 8 9 2 -1.</_>
        <_>
          11 8 3 2 3.</_></rects>
      <tilted>0</tilted></_>
    <_>
      <rects>
        <_>
          8 8 4 10 -1.</_>
        <_>
          8 13 4 5 2.</_></rects>
      <tilted>0</tilted></_>
    <_>
      <rects>
        <_>
          8 8 11 3 -1.</_>
        <_>
          8 9 11 1 3.</_></rects>
      <tilted>0</tilted></_>
    <_>
      <rects>
        <_>
          8 11 3 10 -1.</_>
        <_>
          8 16 3 5 2.</_></rects>
      <tilted>0</tilted></_>
    <_>
      <rects>
        <_>
          8 12 12 3 -1.</_>
        <_>
          8 13 12 1 3.</_></rects>
      <tilted>0</tilted></_>
    <_>
      <rects>
        <_>
          8 16 5 3 -1.</_>
        <_>
          8 17 5 1 3.</_></rects>
      <tilted>0</tilted></_>
    <_>
      <rects>
        <_>
          9 1 3 8 -1.</_>
        <_>
          10 1 1 8 3.</_></rects>
      <tilted>0</tilted></_>
    <_>
      <rects>
        <_>
          9 3 4 8 -1.</_>
        <_>
          9 3 2 4 2.</_>
        <_>
          11 7 2 4 2.</_></rects>
      <tilted>0</tilted></_>
    <_>
      <rects>
        <_>
          9 5 3 6 -1.</_>
        <_>
          9 8 3 3 2.</_></rects>
      <tilted>0</tilted></_>
    <_>
      <rects>
        <_>
          9 8 4 5 -1.</_>
        <_>
          11 8 2 5 2.</_></rects>
      <tilted>0</tilted></_>
    <_>
      <rects>
        <_>
          9 9 4 4 -1.</_>
        <_>
          9 9 2 2 2.</_>
        <_>
          11 11 2 2 2.</_></rects>
      <tilted>0</tilted></_>
    <_>
      <rects>
        <_>
          9 11 2 2 -1.</_>
        <_>
          9 11 1 1 2.</_>
        <_>
          10 12 1 1 2.</_></rects>
      <tilted>0</tilted></_>
    <_>
      <rects>
        <_>
          9 16 8 3 -1.</_>
        <_>
          9 17 8 1 3.</_></rects>
      <tilted>0</tilted></_>
    <_>
      <rects>
        <_>
          9 18 8 3 -1.</_>
        <_>
          9 19 8 1 3.</_></rects>
      <tilted>0</tilted></_>
    <_>
      <rects>
        <_>
          9 21 3 3 -1.</_>
        <_>
          10 21 1 3 3.</_></rects>
      <tilted>0</tilted></_>
    <_>
      <rects>
        <_>
          10 2 3 1 -1.</_>
        <_>
          11 2 1 1 3.</_></rects>
      <tilted>0</tilted></_>
    <_>
      <rects>
        <_>
          10 4 2 2 -1.</_>
        <_>
          11 4 1 2 2.</_></rects>
      <tilted>0</tilted></_>
    <_>
      <rects>
        <_>
          10 7 8 14 -1.</_>
        <_>
          10 14 8 7 2.</_></rects>
      <tilted>0</tilted></_>
    <_>
      <rects>
        <_>
          10 8 3 5 -1.</_>
        <_>
          11 8 1 5 3.</_></rects>
      <tilted>0</tilted></_>
    <_>
      <rects>
        <_>
          10 8 6 6 -1.</_>
        <_>
          12 8 2 6 3.</_></rects>
      <tilted>0</tilted></_>
    <_>
      <rects>
        <_>
          10 10 3 6 -1.</_>
        <_>
          11 10 1 6 3.</_></rects>
      <tilted>0</tilted></_>
    <_>
      <rects>
        <_>
          10 13 4 3 -1.</_>
        <_>
          10 14 4 1 3.</_></rects>
      <tilted>0</tilted></_>
    <_>
      <rects>
        <_>
          10 14 5 3 -1.</_>
        <_>
          10 15 5 1 3.</_></rects>
      <tilted>0</tilted></_>
    <_>
      <rects>
        <_>
          10 16 4 3 -1.</_>
        <_>
          10 17 4 1 3.</_></rects>
      <tilted>0</tilted></_>
    <_>
      <rects>
        <_>
          10 16 5 3 -1.</_>
        <_>
          10 17 5 1 3.</_></rects>
      <tilted>0</tilted></_>
    <_>
      <rects>
        <_>
          10 17 4 3 -1.</_>
        <_>
          10 18 4 1 3.</_></rects>
      <tilted>0</tilted></_>
    <_>
      <rects>
        <_>
          10 17 7 3 -1.</_>
        <_>
          10 18 7 1 3.</_></rects>
      <tilted>0</tilted></_>
    <_>
      <rects>
        <_>
          10 22 8 2 -1.</_>
        <_>
          10 22 4 1 2.</_>
        <_>
          14 23 4 1 2.</_></rects>
      <tilted>0</tilted></_>
    <_>
      <rects>
        <_>
          11 0 3 4 -1.</_>
        <_>
          12 0 1 4 3.</_></rects>
      <tilted>0</tilted></_>
    <_>
      <rects>
        <_>
          11 1 12 18 -1.</_>
        <_>
          11 1 6 9 2.</_>
        <_>
          17 10 6 9 2.</_></rects>
      <tilted>0</tilted></_>
    <_>
      <rects>
        <_>
          11 2 6 3 -1.</_>
        <_>
          13 2 2 3 3.</_></rects>
      <tilted>0</tilted></_>
    <_>
      <rects>
        <_>
          11 4 10 10 -1.</_>
        <_>
          11 4 5 5 2.</_>
        <_>
          16 9 5 5 2.</_></rects>
      <tilted>0</tilted></_>
    <_>
      <rects>
        <_>
          11 4 10 12 -1.</_>
        <_>
          11 4 5 6 2.</_>
        <_>
          16 10 5 6 2.</_></rects>
      <tilted>0</tilted></_>
    <_>
      <rects>
        <_>
          11 5 2 8 -1.</_>
        <_>
          11 5 1 4 2.</_>
        <_>
          12 9 1 4 2.</_></rects>
      <tilted>0</tilted></_>
    <_>
      <rects>
        <_>
          11 5 9 1 -1.</_>
        <_>
          14 5 3 1 3.</_></rects>
      <tilted>0</tilted></_>
    <_>
      <rects>
        <_>
          11 5 4 12 -1.</_>
        <_>
          11 11 4 6 2.</_></rects>
      <tilted>0</tilted></_>
    <_>
      <rects>
        <_>
          11 6 3 6 -1.</_>
        <_>
          12 6 1 6 3.</_></rects>
      <tilted>0</tilted></_>
    <_>
      <rects>
        <_>
          11 7 3 6 -1.</_>
        <_>
          12 7 1 6 3.</_></rects>
      <tilted>0</tilted></_>
    <_>
      <rects>
        <_>
          11 8 2 12 -1.</_>
        <_>
          11 8 1 6 2.</_>
        <_>
          12 14 1 6 2.</_></rects>
      <tilted>0</tilted></_>
    <_>
      <rects>
        <_>
          11 14 2 3 -1.</_>
        <_>
          11 15 2 1 3.</_></rects>
      <tilted>0</tilted></_>
    <_>
      <rects>
        <_>
          11 16 2 2 -1.</_>
        <_>
          11 17 2 1 2.</_></rects>
      <tilted>0</tilted></_>
    <_>
      <rects>
        <_>
          11 18 3 5 -1.</_>
        <_>
          12 18 1 5 3.</_></rects>
      <tilted>0</tilted></_>
    <_>
      <rects>
        <_>
          12 2 6 12 -1.</_>
        <_>
          14 2 2 12 3.</_></rects>
      <tilted>0</tilted></_>
    <_>
      <rects>
        <_>
          12 3 8 14 -1.</_>
        <_>
          12 3 4 7 2.</_>
        <_>
          16 10 4 7 2.</_></rects>
      <tilted>0</tilted></_>
    <_>
      <rects>
        <_>
          12 4 6 12 -1.</_>
        <_>
          12 4 3 6 2.</_>
        <_>
          15 10 3 6 2.</_></rects>
      <tilted>0</tilted></_>
    <_>
      <rects>
        <_>
          12 8 3 4 -1.</_>
        <_>
          13 8 1 4 3.</_></rects>
      <tilted>0</tilted></_>
    <_>
      <rects>
        <_>
          12 8 3 8 -1.</_>
        <_>
          13 8 1 8 3.</_></rects>
      <tilted>0</tilted></_>
    <_>
      <rects>
        <_>
          12 11 5 3 -1.</_>
        <_>
          12 12 5 1 3.</_></rects>
      <tilted>0</tilted></_>
    <_>
      <rects>
        <_>
          12 16 2 6 -1.</_>
        <_>
          12 16 1 3 2.</_>
        <_>
          13 19 1 3 2.</_></rects>
      <tilted>0</tilted></_>
    <_>
      <rects>
        <_>
          12 17 6 2 -1.</_>
        <_>
          12 18 6 1 2.</_></rects>
      <tilted>0</tilted></_>
    <_>
      <rects>
        <_>
          12 19 8 4 -1.</_>
        <_>
          12 19 4 2 2.</_>
        <_>
          16 21 4 2 2.</_></rects>
      <tilted>0</tilted></_>
    <_>
      <rects>
        <_>
          12 20 6 4 -1.</_>
        <_>
          12 20 3 2 2.</_>
        <_>
          15 22 3 2 2.</_></rects>
      <tilted>0</tilted></_>
    <_>
      <rects>
        <_>
          12 21 10 3 -1.</_>
        <_>
          17 21 5 3 2.</_></rects>
      <tilted>0</tilted></_>
    <_>
      <rects>
        <_>
          12 23 3 1 -1.</_>
        <_>
          13 23 1 1 3.</_></rects>
      <tilted>0</tilted></_>
    <_>
      <rects>
        <_>
          13 1 2 10 -1.</_>
        <_>
          14 1 1 10 2.</_></rects>
      <tilted>0</tilted></_>
    <_>
      <rects>
        <_>
          13 2 3 3 -1.</_>
        <_>
          14 2 1 3 3.</_></rects>
      <tilted>0</tilted></_>
    <_>
      <rects>
        <_>
          13 2 4 8 -1.</_>
        <_>
          13 6 4 4 2.</_></rects>
      <tilted>0</tilted></_>
    <_>
      <rects>
        <_>
          13 3 2 1 -1.</_>
        <_>
          14 3 1 1 2.</_></rects>
      <tilted>0</tilted></_>
    <_>
      <rects>
        <_>
          13 17 1 3 -1.</_>
        <_>
          13 18 1 1 3.</_></rects>
      <tilted>0</tilted></_>
    <_>
      <rects>
        <_>
          13 19 3 4 -1.</_>
        <_>
          13 21 3 2 2.</_></rects>
      <tilted>0</tilted></_>
    <_>
      <rects>
        <_>
          13 21 6 3 -1.</_>
        <_>
          16 21 3 3 2.</_></rects>
      <tilted>0</tilted></_>
    <_>
      <rects>
        <_>
          13 22 11 2 -1.</_>
        <_>
          13 23 11 1 2.</_></rects>
      <tilted>0</tilted></_>
    <_>
      <rects>
        <_>
          14 0 6 4 -1.</_>
        <_>
          16 0 2 4 3.</_></rects>
      <tilted>0</tilted></_>
    <_>
      <rects>
        <_>
          14 3 2 5 -1.</_>
        <_>
          15 3 1 5 2.</_></rects>
      <tilted>0</tilted></_>
    <_>
      <rects>
        <_>
          14 8 5 8 -1.</_>
        <_>
          14 12 5 4 2.</_></rects>
      <tilted>0</tilted></_>
    <_>
      <rects>
        <_>
          14 9 5 6 -1.</_>
        <_>
          14 11 5 2 3.</_></rects>
      <tilted>0</tilted></_>
    <_>
      <rects>
        <_>
          14 15 3 1 -1.</_>
        <_>
          15 15 1 1 3.</_></rects>
      <tilted>0</tilted></_>
    <_>
      <rects>
        <_>
          15 0 6 12 -1.</_>
        <_>
          15 0 3 6 2.</_>
        <_>
          18 6 3 6 2.</_></rects>
      <tilted>0</tilted></_>
    <_>
      <rects>
        <_>
          15 1 8 6 -1.</_>
        <_>
          19 1 4 6 2.</_></rects>
      <tilted>0</tilted></_>
    <_>
      <rects>
        <_>
          15 1 8 23 -1.</_>
        <_>
          19 1 4 23 2.</_></rects>
      <tilted>0</tilted></_>
    <_>
      <rects>
        <_>
          15 3 7 21 -1.</_>
        <_>
          15 10 7 7 3.</_></rects>
      <tilted>0</tilted></_>
    <_>
      <rects>
        <_>
          15 3 9 21 -1.</_>
        <_>
          15 10 9 7 3.</_></rects>
      <tilted>0</tilted></_>
    <_>
      <rects>
        <_>
          15 9 4 6 -1.</_>
        <_>
          15 12 4 3 2.</_></rects>
      <tilted>0</tilted></_>
    <_>
      <rects>
        <_>
          15 9 7 9 -1.</_>
        <_>
          15 12 7 3 3.</_></rects>
      <tilted>0</tilted></_>
    <_>
      <rects>
        <_>
          15 10 1 14 -1.</_>
        <_>
          15 17 1 7 2.</_></rects>
      <tilted>0</tilted></_>
    <_>
      <rects>
        <_>
          15 15 8 6 -1.</_>
        <_>
          15 17 8 2 3.</_></rects>
      <tilted>0</tilted></_>
    <_>
      <rects>
        <_>
          16 0 8 4 -1.</_>
        <_>
          16 0 4 2 2.</_>
        <_>
          20 2 4 2 2.</_></rects>
      <tilted>0</tilted></_>
    <_>
      <rects>
        <_>
          16 3 2 4 -1.</_>
        <_>
          17 3 1 4 2.</_></rects>
      <tilted>0</tilted></_>
    <_>
      <rects>
        <_>
          16 14 3 4 -1.</_>
        <_>
          16 16 3 2 2.</_></rects>
      <tilted>0</tilted></_>
    <_>
      <rects>
        <_>
          16 16 1 2 -1.</_>
        <_>
          16 17 1 1 2.</_></rects>
      <tilted>0</tilted></_>
    <_>
      <rects>
        <_>
          16 21 4 2 -1.</_>
        <_>
          18 21 2 2 2.</_></rects>
      <tilted>0</tilted></_>
    <_>
      <rects>
        <_>
          17 0 6 1 -1.</_>
        <_>
          19 0 2 1 3.</_></rects>
      <tilted>0</tilted></_>
    <_>
      <rects>
        <_>
          17 0 6 2 -1.</_>
        <_>
          17 0 3 1 2.</_>
        <_>
          20 1 3 1 2.</_></rects>
      <tilted>0</tilted></_>
    <_>
      <rects>
        <_>
          17 2 6 11 -1.</_>
        <_>
          20 2 3 11 2.</_></rects>
      <tilted>0</tilted></_>
    <_>
      <rects>
        <_>
          17 6 6 13 -1.</_>
        <_>
          20 6 3 13 2.</_></rects>
      <tilted>0</tilted></_>
    <_>
      <rects>
        <_>
          17 7 2 8 -1.</_>
        <_>
          17 11 2 4 2.</_></rects>
      <tilted>0</tilted></_>
    <_>
      <rects>
        <_>
          17 12 1 3 -1.</_>
        <_>
          17 13 1 1 3.</_></rects>
      <tilted>0</tilted></_>
    <_>
      <rects>
        <_>
          17 16 5 3 -1.</_>
        <_>
          17 17 5 1 3.</_></rects>
      <tilted>0</tilted></_>
    <_>
      <rects>
        <_>
          17 18 2 3 -1.</_>
        <_>
          17 19 2 1 3.</_></rects>
      <tilted>0</tilted></_>
    <_>
      <rects>
        <_>
          18 0 2 2 -1.</_>
        <_>
          18 1 2 1 2.</_></rects>
      <tilted>0</tilted></_>
    <_>
      <rects>
        <_>
          18 0 6 19 -1.</_>
        <_>
          20 0 2 19 3.</_></rects>
      <tilted>0</tilted></_>
    <_>
      <rects>
        <_>
          18 0 6 6 -1.</_>
        <_>
          18 0 3 3 2.</_>
        <_>
          21 3 3 3 2.</_></rects>
      <tilted>0</tilted></_>
    <_>
      <rects>
        <_>
          18 1 2 10 -1.</_>
        <_>
          18 1 1 5 2.</_>
        <_>
          19 6 1 5 2.</_></rects>
      <tilted>0</tilted></_>
    <_>
      <rects>
        <_>
          18 1 6 22 -1.</_>
        <_>
          20 1 2 22 3.</_></rects>
      <tilted>0</tilted></_>
    <_>
      <rects>
        <_>
          18 2 4 19 -1.</_>
        <_>
          20 2 2 19 2.</_></rects>
      <tilted>0</tilted></_>
    <_>
      <rects>
        <_>
          18 4 4 3 -1.</_>
        <_>
          20 4 2 3 2.</_></rects>
      <tilted>0</tilted></_>
    <_>
      <rects>
        <_>
          18 6 6 13 -1.</_>
        <_>
          21 6 3 13 2.</_></rects>
      <tilted>0</tilted></_>
    <_>
      <rects>
        <_>
          18 8 1 6 -1.</_>
        <_>
          18 11 1 3 2.</_></rects>
      <tilted>0</tilted></_>
    <_>
      <rects>
        <_>
          18 8 3 6 -1.</_>
        <_>
          18 11 3 3 2.</_></rects>
      <tilted>0</tilted></_>
    <_>
      <rects>
        <_>
          18 9 5 4 -1.</_>
        <_>
          18 11 5 2 2.</_></rects>
      <tilted>0</tilted></_>
    <_>
      <rects>
        <_>
          18 11 3 6 -1.</_>
        <_>
          18 13 3 2 3.</_></rects>
      <tilted>0</tilted></_>
    <_>
      <rects>
        <_>
          18 14 1 2 -1.</_>
        <_>
          18 15 1 1 2.</_></rects>
      <tilted>0</tilted></_>
    <_>
      <rects>
        <_>
          18 16 5 6 -1.</_>
        <_>
          18 19 5 3 2.</_></rects>
      <tilted>0</tilted></_>
    <_>
      <rects>
        <_>
          18 17 2 3 -1.</_>
        <_>
          18 18 2 1 3.</_></rects>
      <tilted>0</tilted></_>
    <_>
      <rects>
        <_>
          18 18 1 6 -1.</_>
        <_>
          18 21 1 3 2.</_></rects>
      <tilted>0</tilted></_>
    <_>
      <rects>
        <_>
          19 0 2 18 -1.</_>
        <_>
          20 0 1 18 2.</_></rects>
      <tilted>0</tilted></_>
    <_>
      <rects>
        <_>
          19 12 1 2 -1.</_>
        <_>
          19 13 1 1 2.</_></rects>
      <tilted>0</tilted></_>
    <_>
      <rects>
        <_>
          19 13 1 2 -1.</_>
        <_>
          19 14 1 1 2.</_></rects>
      <tilted>0</tilted></_>
    <_>
      <rects>
        <_>
          19 16 1 3 -1.</_>
        <_>
          19 17 1 1 3.</_></rects>
      <tilted>0</tilted></_>
    <_>
      <rects>
        <_>
          20 2 3 3 -1.</_>
        <_>
          20 3 3 1 3.</_></rects>
      <tilted>0</tilted></_>
    <_>
      <rects>
        <_>
          20 4 2 9 -1.</_>
        <_>
          21 4 1 9 2.</_></rects>
      <tilted>0</tilted></_>
    <_>
      <rects>
        <_>
          20 4 3 15 -1.</_>
        <_>
          21 4 1 15 3.</_></rects>
      <tilted>0</tilted></_>
    <_>
      <rects>
        <_>
          21 0 2 10 -1.</_>
        <_>
          21 0 1 5 2.</_>
        <_>
          22 5 1 5 2.</_></rects>
      <tilted>0</tilted></_>
    <_>
      <rects>
        <_>
          21 2 3 13 -1.</_>
        <_>
          22 2 1 13 3.</_></rects>
      <tilted>0</tilted></_>
    <_>
      <rects>
        <_>
          21 4 3 11 -1.</_>
        <_>
          22 4 1 11 3.</_></rects>
      <tilted>0</tilted></_>
    <_>
      <rects>
        <_>
          22 20 2 4 -1.</_>
        <_>
          23 20 1 4 2.</_></rects>
      <tilted>0</tilted></_></features></cascade>
</opencv_storage>
