<?xml version="1.0"?>
<opencv_storage>
<cascade>
  <stageType>BOOST</stageType>
  <featureType>HAAR</featureType>
  <height>24</height>
  <width>24</width>
  <stageParams>
    <boostType>GAB</boostType>
    <minHitRate>9.9500000476837158e-01</minHitRate>
    <maxFalseAlarm>5.0000000000000000e-01</maxFalseAlarm>
    <weightTrimRate>9.4999998807907104e-01</weightTrimRate>
    <maxDepth>1</maxDepth>
    <maxWeakCount>100</maxWeakCount></stageParams>
  <featureParams>
    <maxCatCount>0</maxCatCount>
    <featSize>1</featSize>
    <mode>BASIC</mode></featureParams>
  <stageNum>20</stageNum>
  <stages>
    <!-- stage 0 -->
    <_>
      <maxWeakCount>6</maxWeakCount>
      <stageThreshold>-1.9167929887771606e+00</stageThreshold>
      <weakClassifiers>
        <_>
          <internalNodes>
            0 -1 7 1.0261186212301254e-01</internalNodes>
          <leafValues>
            -8.7826085090637207e-01 6.6060608625411987e-01</leafValues></_>
        <_>
          <internalNodes>
            0 -1 57 -1.8327910453081131e-02</internalNodes>
          <leafValues>
            2.3424674570560455e-01 -8.2797783613204956e-01</leafValues></_>
        <_>
          <internalNodes>
            0 -1 174 4.6202261000871658e-03</internalNodes>
          <leafValues>
            -6.8773764371871948e-01 4.1715431213378906e-01</leafValues></_>
        <_>
          <internalNodes>
            0 -1 22 1.0352064855396748e-02</internalNodes>
          <leafValues>
            -4.7158154845237732e-01 5.7265353202819824e-01</leafValues></_>
        <_>
          <internalNodes>
            0 -1 163 -7.6176202856004238e-04</internalNodes>
          <leafValues>
            4.4653180241584778e-01 -5.3511583805084229e-01</leafValues></_>
        <_>
          <internalNodes>
            0 -1 168 -9.2370687052607536e-03</internalNodes>
          <leafValues>
            4.2165616154670715e-01 -5.1848566532135010e-01</leafValues></_></weakClassifiers></_>
    <!-- stage 1 -->
    <_>
      <maxWeakCount>6</maxWeakCount>
      <stageThreshold>-1.8436810970306396e+00</stageThreshold>
      <weakClassifiers>
        <_>
          <internalNodes>
            0 -1 7 1.2054333090782166e-01</internalNodes>
          <leafValues>
            -8.3650189638137817e-01 5.4054051637649536e-01</leafValues></_>
        <_>
          <internalNodes>
            0 -1 103 2.3562708869576454e-02</internalNodes>
          <leafValues>
            -6.0672241449356079e-01 4.1386753320693970e-01</leafValues></_>
        <_>
          <internalNodes>
            0 -1 19 4.8188589513301849e-02</internalNodes>
          <leafValues>
            -5.4393374919891357e-01 4.6111166477203369e-01</leafValues></_>
        <_>
          <internalNodes>
            0 -1 59 -3.7406054325401783e-03</internalNodes>
          <leafValues>
            2.9004824161529541e-01 -8.4215551614761353e-01</leafValues></_>
        <_>
          <internalNodes>
            0 -1 181 6.2178755179047585e-03</internalNodes>
          <leafValues>
            -5.7252937555313110e-01 4.0378963947296143e-01</leafValues></_>
        <_>
          <internalNodes>
            0 -1 194 -6.1680753715336323e-03</internalNodes>
          <leafValues>
            5.6624388694763184e-01 -4.2320251464843750e-01</leafValues></_></weakClassifiers></_>
    <!-- stage 2 -->
    <_>
      <maxWeakCount>9</maxWeakCount>
      <stageThreshold>-1.6402063369750977e+00</stageThreshold>
      <weakClassifiers>
        <_>
          <internalNodes>
            0 -1 170 -9.8538421094417572e-02</internalNodes>
          <leafValues>
            2.2466960549354553e-01 -8.7461459636688232e-01</leafValues></_>
        <_>
          <internalNodes>
            0 -1 2 1.8304297327995300e-01</internalNodes>
          <leafValues>
            -6.0970175266265869e-01 5.0954228639602661e-01</leafValues></_>
        <_>
          <internalNodes>
            0 -1 35 1.5540968626737595e-02</internalNodes>
          <leafValues>
            -4.2240506410598755e-01 4.3622869253158569e-01</leafValues></_>
        <_>
          <internalNodes>
            0 -1 38 1.9808681681752205e-03</internalNodes>
          <leafValues>
            -4.4113206863403320e-01 3.9486625790596008e-01</leafValues></_>
        <_>
          <internalNodes>
            0 -1 92 2.8777711093425751e-02</internalNodes>
          <leafValues>
            -4.7970646619796753e-01 4.0142053365707397e-01</leafValues></_>
        <_>
          <internalNodes>
            0 -1 191 -1.8919128924608231e-03</internalNodes>
          <leafValues>
            -9.4343727827072144e-01 2.0561689138412476e-01</leafValues></_>
        <_>
          <internalNodes>
            0 -1 9 1.2868114572484046e-04</internalNodes>
          <leafValues>
            2.0166790485382080e-01 -6.3566726446151733e-01</leafValues></_>
        <_>
          <internalNodes>
            0 -1 8 9.9211453925818205e-04</internalNodes>
          <leafValues>
            1.9135697185993195e-01 -8.1853073835372925e-01</leafValues></_>
        <_>
          <internalNodes>
            0 -1 15 -3.2515145838260651e-02</internalNodes>
          <leafValues>
            7.0225852727890015e-01 -2.4728651344776154e-01</leafValues></_></weakClassifiers></_>
    <!-- stage 3 -->
    <_>
      <maxWeakCount>8</maxWeakCount>
      <stageThreshold>-2.1438133716583252e+00</stageThreshold>
      <weakClassifiers>
        <_>
          <internalNodes>
            0 -1 0 5.8053231239318848e-01</internalNodes>
          <leafValues>
            -8.2514733076095581e-01 2.1978022158145905e-01</leafValues></_>
        <_>
          <internalNodes>
            0 -1 179 -1.6504555940628052e-02</internalNodes>
          <leafValues>
            3.8296496868133545e-01 -5.8642023801803589e-01</leafValues></_>
        <_>
          <internalNodes>
            0 -1 150 6.2781455926597118e-03</internalNodes>
          <leafValues>
            -5.2248603105545044e-01 3.1780102849006653e-01</leafValues></_>
        <_>
          <internalNodes>
            0 -1 41 4.0143090300261974e-03</internalNodes>
          <leafValues>
            -3.3454018831253052e-01 4.4315063953399658e-01</leafValues></_>
        <_>
          <internalNodes>
            0 -1 26 1.1130318976938725e-02</internalNodes>
          <leafValues>
            -3.3028396964073181e-01 5.2585262060165405e-01</leafValues></_>
        <_>
          <internalNodes>
            0 -1 97 4.1246093809604645e-02</internalNodes>
          <leafValues>
            -2.1159175038337708e-01 7.3135167360305786e-01</leafValues></_>
        <_>
          <internalNodes>
            0 -1 197 1.6756120603531599e-03</internalNodes>
          <leafValues>
            2.4529080092906952e-01 -7.2200918197631836e-01</leafValues></_>
        <_>
          <internalNodes>
            0 -1 60 1.2725977227091789e-02</internalNodes>
          <leafValues>
            -4.3477120995521545e-01 3.1836032867431641e-01</leafValues></_></weakClassifiers></_>
    <!-- stage 4 -->
    <_>
      <maxWeakCount>6</maxWeakCount>
      <stageThreshold>-1.3756262063980103e+00</stageThreshold>
      <weakClassifiers>
        <_>
          <internalNodes>
            0 -1 4 2.0114707946777344e-01</internalNodes>
          <leafValues>
            -8.1477832794189453e-01 1.4594595134258270e-01</leafValues></_>
        <_>
          <internalNodes>
            0 -1 53 -1.1061548441648483e-01</internalNodes>
          <leafValues>
            6.6332429647445679e-01 -4.2750856280326843e-01</leafValues></_>
        <_>
          <internalNodes>
            0 -1 162 -1.2919765431433916e-03</internalNodes>
          <leafValues>
            3.3063271641731262e-01 -6.0622543096542358e-01</leafValues></_>
        <_>
          <internalNodes>
            0 -1 107 1.1826502159237862e-03</internalNodes>
          <leafValues>
            1.6905473172664642e-01 -9.8771387338638306e-01</leafValues></_>
        <_>
          <internalNodes>
            0 -1 106 -1.1768847471103072e-03</internalNodes>
          <leafValues>
            -7.6431858539581299e-01 1.9525766372680664e-01</leafValues></_>
        <_>
          <internalNodes>
            0 -1 63 1.4602919691242278e-04</internalNodes>
          <leafValues>
            1.3129183650016785e-01 -7.6993536949157715e-01</leafValues></_></weakClassifiers></_>
    <!-- stage 5 -->
    <_>
      <maxWeakCount>7</maxWeakCount>
      <stageThreshold>-1.3917517662048340e+00</stageThreshold>
      <weakClassifiers>
        <_>
          <internalNodes>
            0 -1 160 1.6221472993493080e-02</internalNodes>
          <leafValues>
            -8.4187084436416626e-01 -1.4569535851478577e-01</leafValues></_>
        <_>
          <internalNodes>
            0 -1 178 -5.5683538317680359e-02</internalNodes>
          <leafValues>
            2.1675857901573181e-01 -6.5147811174392700e-01</leafValues></_>
        <_>
          <internalNodes>
            0 -1 67 1.8958635628223419e-02</internalNodes>
          <leafValues>
            -6.0865849256515503e-01 2.1071557700634003e-01</leafValues></_>
        <_>
          <internalNodes>
            0 -1 104 1.6499686986207962e-02</internalNodes>
          <leafValues>
            -4.4675576686859131e-01 3.5718983411788940e-01</leafValues></_>
        <_>
          <internalNodes>
            0 -1 49 -5.0250655040144920e-03</internalNodes>
          <leafValues>
            4.4015911221504211e-01 -3.7488982081413269e-01</leafValues></_>
        <_>
          <internalNodes>
            0 -1 37 5.5720083415508270e-02</internalNodes>
          <leafValues>
            -4.7286298871040344e-01 3.0364051461219788e-01</leafValues></_>
        <_>
          <internalNodes>
            0 -1 124 3.1157105695456266e-03</internalNodes>
          <leafValues>
            -2.8296357393264771e-01 4.5946088433265686e-01</leafValues></_></weakClassifiers></_>
    <!-- stage 6 -->
    <_>
      <maxWeakCount>8</maxWeakCount>
      <stageThreshold>-1.4740720987319946e+00</stageThreshold>
      <weakClassifiers>
        <_>
          <internalNodes>
            0 -1 147 -1.0855704545974731e-02</internalNodes>
          <leafValues>
            -1.8571428954601288e-01 -8.1304347515106201e-01</leafValues></_>
        <_>
          <internalNodes>
            0 -1 14 -1.7357150092720985e-02</internalNodes>
          <leafValues>
            3.6821761727333069e-01 -4.8403447866439819e-01</leafValues></_>
        <_>
          <internalNodes>
            0 -1 138 4.0593918412923813e-02</internalNodes>
          <leafValues>
            -3.8011810183525085e-01 5.0158995389938354e-01</leafValues></_>
        <_>
          <internalNodes>
            0 -1 16 5.8428891003131866e-02</internalNodes>
          <leafValues>
            -4.6715530753135681e-01 3.3752730488777161e-01</leafValues></_>
        <_>
          <internalNodes>
            0 -1 58 3.8307264912873507e-03</internalNodes>
          <leafValues>
            -3.2041189074516296e-01 4.6856221556663513e-01</leafValues></_>
        <_>
          <internalNodes>
            0 -1 189 -1.0889873374253511e-03</internalNodes>
          <leafValues>
            4.2487886548042297e-01 -3.5371798276901245e-01</leafValues></_>
        <_>
          <internalNodes>
            0 -1 187 -3.0541508458554745e-03</internalNodes>
          <leafValues>
            3.1340256333351135e-01 -5.0220656394958496e-01</leafValues></_>
        <_>
          <internalNodes>
            0 -1 167 -5.1410007290542126e-04</internalNodes>
          <leafValues>
            2.7904477715492249e-01 -4.8685523867607117e-01</leafValues></_></weakClassifiers></_>
    <!-- stage 7 -->
    <_>
      <maxWeakCount>10</maxWeakCount>
      <stageThreshold>-1.6161382198333740e+00</stageThreshold>
      <weakClassifiers>
        <_>
          <internalNodes>
            0 -1 147 -8.9326780289411545e-03</internalNodes>
          <leafValues>
            -2.2435897588729858e-01 -8.2207208871841431e-01</leafValues></_>
        <_>
          <internalNodes>
            0 -1 36 4.0104527026414871e-02</internalNodes>
          <leafValues>
            -4.9719122052192688e-01 2.6928102970123291e-01</leafValues></_>
        <_>
          <internalNodes>
            0 -1 46 5.1459461450576782e-02</internalNodes>
          <leafValues>
            -3.3403483033180237e-01 4.2003899812698364e-01</leafValues></_>
        <_>
          <internalNodes>
            0 -1 48 -8.5389692685566843e-05</internalNodes>
          <leafValues>
            2.4250294268131256e-01 -4.7375756502151489e-01</leafValues></_>
        <_>
          <internalNodes>
            0 -1 80 6.5011596307158470e-03</internalNodes>
          <leafValues>
            -2.4225893616676331e-01 4.9679529666900635e-01</leafValues></_>
        <_>
          <internalNodes>
            0 -1 196 -9.6923522651195526e-03</internalNodes>
          <leafValues>
            5.3780698776245117e-01 -2.1108888089656830e-01</leafValues></_>
        <_>
          <internalNodes>
            0 -1 84 1.7525548173580319e-05</internalNodes>
          <leafValues>
            -4.8384413123130798e-01 2.4277654290199280e-01</leafValues></_>
        <_>
          <internalNodes>
            0 -1 54 5.5312566459178925e-02</internalNodes>
          <leafValues>
            -1.3106943666934967e-01 8.0992931127548218e-01</leafValues></_>
        <_>
          <internalNodes>
            0 -1 29 -7.5071665924042463e-04</internalNodes>
          <leafValues>
            -7.1876645088195801e-01 1.7874726653099060e-01</leafValues></_>
        <_>
          <internalNodes>
            0 -1 149 1.3272124342620373e-03</internalNodes>
          <leafValues>
            1.0099025815725327e-01 -8.3401602506637573e-01</leafValues></_></weakClassifiers></_>
    <!-- stage 8 -->
    <_>
      <maxWeakCount>12</maxWeakCount>
      <stageThreshold>-1.4612151384353638e+00</stageThreshold>
      <weakClassifiers>
        <_>
          <internalNodes>
            0 -1 116 -1.0807631537318230e-02</internalNodes>
          <leafValues>
            5.3571426868438721e-01 -7.2552448511123657e-01</leafValues></_>
        <_>
          <internalNodes>
            0 -1 93 2.8551882132887840e-03</internalNodes>
          <leafValues>
            -4.8761412501335144e-01 2.3785835504531860e-01</leafValues></_>
        <_>
          <internalNodes>
            0 -1 161 -1.9988934509456158e-03</internalNodes>
          <leafValues>
            3.5636615753173828e-01 -4.4782266020774841e-01</leafValues></_>
        <_>
          <internalNodes>
            0 -1 75 1.9141880329698324e-03</internalNodes>
          <leafValues>
            -3.0328154563903809e-01 4.2080903053283691e-01</leafValues></_>
        <_>
          <internalNodes>
            0 -1 164 1.5197016298770905e-02</internalNodes>
          <leafValues>
            -3.5654342174530029e-01 3.5075515508651733e-01</leafValues></_>
        <_>
          <internalNodes>
            0 -1 142 -5.7378886267542839e-03</internalNodes>
          <leafValues>
            4.5037320256233215e-01 -2.4704273045063019e-01</leafValues></_>
        <_>
          <internalNodes>
            0 -1 132 -1.1169703211635351e-03</internalNodes>
          <leafValues>
            4.7877374291419983e-01 -2.3034885525703430e-01</leafValues></_>
        <_>
          <internalNodes>
            0 -1 18 8.7976373732089996e-02</internalNodes>
          <leafValues>
            -2.2235576808452606e-01 5.6605917215347290e-01</leafValues></_>
        <_>
          <internalNodes>
            0 -1 113 1.7650001682341099e-03</internalNodes>
          <leafValues>
            -3.0549034476280212e-01 3.8339093327522278e-01</leafValues></_>
        <_>
          <internalNodes>
            0 -1 65 3.6441814154386520e-04</internalNodes>
          <leafValues>
            -4.5856326818466187e-01 2.8465098142623901e-01</leafValues></_>
        <_>
          <internalNodes>
            0 -1 73 3.2940162345767021e-03</internalNodes>
          <leafValues>
            -2.6231807470321655e-01 4.5422127842903137e-01</leafValues></_>
        <_>
          <internalNodes>
            0 -1 56 3.4465207718312740e-03</internalNodes>
          <leafValues>
            -2.5111961364746094e-01 4.3985033035278320e-01</leafValues></_></weakClassifiers></_>
    <!-- stage 9 -->
    <_>
      <maxWeakCount>8</maxWeakCount>
      <stageThreshold>-1.3179731369018555e+00</stageThreshold>
      <weakClassifiers>
        <_>
          <internalNodes>
            0 -1 158 -6.2967382371425629e-02</internalNodes>
          <leafValues>
            -2.5691699981689453e-01 -7.7613514661788940e-01</leafValues></_>
        <_>
          <internalNodes>
            0 -1 96 2.4398235604166985e-02</internalNodes>
          <leafValues>
            -5.2877670526504517e-01 1.2469267845153809e-01</leafValues></_>
        <_>
          <internalNodes>
            0 -1 61 1.3660754775628448e-03</internalNodes>
          <leafValues>
            1.5222130715847015e-01 -6.0352724790573120e-01</leafValues></_>
        <_>
          <internalNodes>
            0 -1 148 -1.7125974409282207e-03</internalNodes>
          <leafValues>
            -7.3313295841217041e-01 1.5891072154045105e-01</leafValues></_>
        <_>
          <internalNodes>
            0 -1 12 -1.8505576997995377e-02</internalNodes>
          <leafValues>
            3.9151039719581604e-01 -2.7891802787780762e-01</leafValues></_>
        <_>
          <internalNodes>
            0 -1 99 1.8692478537559509e-02</internalNodes>
          <leafValues>
            1.7600646615028381e-01 -6.3359302282333374e-01</leafValues></_>
        <_>
          <internalNodes>
            0 -1 82 -6.1300516128540039e-02</internalNodes>
          <leafValues>
            -7.5983542203903198e-01 1.0958565771579742e-01</leafValues></_>
        <_>
          <internalNodes>
            0 -1 185 -7.5068837031722069e-04</internalNodes>
          <leafValues>
            -8.4719973802566528e-01 1.0465567559003830e-01</leafValues></_></weakClassifiers></_>
    <!-- stage 10 -->
    <_>
      <maxWeakCount>9</maxWeakCount>
      <stageThreshold>-1.4034289121627808e+00</stageThreshold>
      <weakClassifiers>
        <_>
          <internalNodes>
            0 -1 17 1.5053778886795044e-01</internalNodes>
          <leafValues>
            -7.5296443700790405e-01 -2.0212766528129578e-01</leafValues></_>
        <_>
          <internalNodes>
            0 -1 159 6.1584949493408203e-02</internalNodes>
          <leafValues>
            -4.1215524077415466e-01 2.4545581638813019e-01</leafValues></_>
        <_>
          <internalNodes>
            0 -1 173 1.4488844200968742e-02</internalNodes>
          <leafValues>
            -5.2188116312026978e-01 1.8352843821048737e-01</leafValues></_>
        <_>
          <internalNodes>
            0 -1 129 2.2126070689409971e-03</internalNodes>
          <leafValues>
            1.4054091274738312e-01 -7.1072798967361450e-01</leafValues></_>
        <_>
          <internalNodes>
            0 -1 140 -1.9444786012172699e-03</internalNodes>
          <leafValues>
            4.1456323862075806e-01 -2.4016319215297699e-01</leafValues></_>
        <_>
          <internalNodes>
            0 -1 62 5.2711819298565388e-03</internalNodes>
          <leafValues>
            -4.3754610419273376e-01 2.3753266036510468e-01</leafValues></_>
        <_>
          <internalNodes>
            0 -1 91 2.7698441408574581e-03</internalNodes>
          <leafValues>
            -2.2581627964973450e-01 4.9618434906005859e-01</leafValues></_>
        <_>
          <internalNodes>
            0 -1 94 -6.9201570004224777e-03</internalNodes>
          <leafValues>
            2.6003935933113098e-01 -4.2056873440742493e-01</leafValues></_>
        <_>
          <internalNodes>
            0 -1 183 -8.4545053541660309e-03</internalNodes>
          <leafValues>
            -9.0853977203369141e-01 1.1143846809864044e-01</leafValues></_></weakClassifiers></_>
    <!-- stage 11 -->
    <_>
      <maxWeakCount>13</maxWeakCount>
      <stageThreshold>-1.6482118368148804e+00</stageThreshold>
      <weakClassifiers>
        <_>
          <internalNodes>
            0 -1 70 -1.2662198394536972e-02</internalNodes>
          <leafValues>
            -1.4285714924335480e-01 -7.5193798542022705e-01</leafValues></_>
        <_>
          <internalNodes>
            0 -1 28 1.7393386224284768e-03</internalNodes>
          <leafValues>
            -4.4318270683288574e-01 1.7679481208324432e-01</leafValues></_>
        <_>
          <internalNodes>
            0 -1 151 1.7365258187055588e-02</internalNodes>
          <leafValues>
            -3.5262539982795715e-01 3.0640363693237305e-01</leafValues></_>
        <_>
          <internalNodes>
            0 -1 156 4.1700783185660839e-03</internalNodes>
          <leafValues>
            1.1901658028364182e-01 -8.4972959756851196e-01</leafValues></_>
        <_>
          <internalNodes>
            0 -1 201 2.8026959626004100e-04</internalNodes>
          <leafValues>
            1.8447299301624298e-01 -5.5429613590240479e-01</leafValues></_>
        <_>
          <internalNodes>
            0 -1 139 -1.5557762980461121e-01</internalNodes>
          <leafValues>
            2.5172311067581177e-01 -3.7568578124046326e-01</leafValues></_>
        <_>
          <internalNodes>
            0 -1 143 -3.5931081511080265e-03</internalNodes>
          <leafValues>
            4.6680068969726563e-01 -1.9986586272716522e-01</leafValues></_>
        <_>
          <internalNodes>
            0 -1 123 -2.9487835709005594e-03</internalNodes>
          <leafValues>
            5.0188159942626953e-01 -1.8139562010765076e-01</leafValues></_>
        <_>
          <internalNodes>
            0 -1 32 -3.0811387114226818e-03</internalNodes>
          <leafValues>
            -7.5882875919342041e-01 1.3381861150264740e-01</leafValues></_>
        <_>
          <internalNodes>
            0 -1 136 2.6993970386683941e-03</internalNodes>
          <leafValues>
            -1.8881873786449432e-01 5.1738333702087402e-01</leafValues></_>
        <_>
          <internalNodes>
            0 -1 87 3.4828277421183884e-05</internalNodes>
          <leafValues>
            -3.9375787973403931e-01 2.5158354640007019e-01</leafValues></_>
        <_>
          <internalNodes>
            0 -1 45 -5.0351405516266823e-03</internalNodes>
          <leafValues>
            3.1659659743309021e-01 -3.1602895259857178e-01</leafValues></_>
        <_>
          <internalNodes>
            0 -1 3 3.7698417901992798e-02</internalNodes>
          <leafValues>
            -1.3482418656349182e-01 7.7319800853729248e-01</leafValues></_></weakClassifiers></_>
    <!-- stage 12 -->
    <_>
      <maxWeakCount>12</maxWeakCount>
      <stageThreshold>-1.6818635463714600e+00</stageThreshold>
      <weakClassifiers>
        <_>
          <internalNodes>
            0 -1 182 2.6703001931309700e-03</internalNodes>
          <leafValues>
            -7.8073090314865112e-01 -3.1986531615257263e-01</leafValues></_>
        <_>
          <internalNodes>
            0 -1 169 -8.2086538895964622e-03</internalNodes>
          <leafValues>
            2.2622838616371155e-01 -3.9407283067703247e-01</leafValues></_>
        <_>
          <internalNodes>
            0 -1 5 6.3247955404222012e-04</internalNodes>
          <leafValues>
            1.5140166878700256e-01 -5.8548003435134888e-01</leafValues></_>
        <_>
          <internalNodes>
            0 -1 130 -1.3390693347901106e-03</internalNodes>
          <leafValues>
            -7.8415244817733765e-01 1.4424534142017365e-01</leafValues></_>
        <_>
          <internalNodes>
            0 -1 23 5.3025493398308754e-03</internalNodes>
          <leafValues>
            -3.2442426681518555e-01 2.9743915796279907e-01</leafValues></_>
        <_>
          <internalNodes>
            0 -1 33 -1.2034690007567406e-02</internalNodes>
          <leafValues>
            4.4536930322647095e-01 -1.9135044515132904e-01</leafValues></_>
        <_>
          <internalNodes>
            0 -1 200 2.8503958601504564e-03</internalNodes>
          <leafValues>
            1.0422886908054352e-01 -9.0795838832855225e-01</leafValues></_>
        <_>
          <internalNodes>
            0 -1 135 3.3158641308546066e-03</internalNodes>
          <leafValues>
            -1.9404570758342743e-01 5.6844830513000488e-01</leafValues></_>
        <_>
          <internalNodes>
            0 -1 83 -4.8303473740816116e-03</internalNodes>
          <leafValues>
            5.9476059675216675e-01 -1.6962313652038574e-01</leafValues></_>
        <_>
          <internalNodes>
            0 -1 52 6.0566097497940063e-02</internalNodes>
          <leafValues>
            -1.5789584815502167e-01 5.8163380622863770e-01</leafValues></_>
        <_>
          <internalNodes>
            0 -1 25 -6.1826050281524658e-02</internalNodes>
          <leafValues>
            4.4248887896537781e-01 -2.0235756039619446e-01</leafValues></_>
        <_>
          <internalNodes>
            0 -1 110 4.2660370469093323e-02</internalNodes>
          <leafValues>
            1.7999225854873657e-01 -6.6910707950592041e-01</leafValues></_></weakClassifiers></_>
    <!-- stage 13 -->
    <_>
      <maxWeakCount>13</maxWeakCount>
      <stageThreshold>-1.6032242774963379e+00</stageThreshold>
      <weakClassifiers>
        <_>
          <internalNodes>
            0 -1 128 -6.9289850071072578e-03</internalNodes>
          <leafValues>
            -6.4220182597637177e-02 -7.2685611248016357e-01</leafValues></_>
        <_>
          <internalNodes>
            0 -1 76 -1.1512168566696346e-04</internalNodes>
          <leafValues>
            7.1589969098567963e-02 -5.8759588003158569e-01</leafValues></_>
        <_>
          <internalNodes>
            0 -1 85 2.8025046922266483e-03</internalNodes>
          <leafValues>
            1.0458934307098389e-01 -7.2917366027832031e-01</leafValues></_>
        <_>
          <internalNodes>
            0 -1 172 4.8732217401266098e-03</internalNodes>
          <leafValues>
            -4.2430892586708069e-01 2.2399149835109711e-01</leafValues></_>
        <_>
          <internalNodes>
            0 -1 199 1.8629810074344277e-04</internalNodes>
          <leafValues>
            2.0738369226455688e-01 -4.3735095858573914e-01</leafValues></_>
        <_>
          <internalNodes>
            0 -1 20 7.1791246533393860e-02</internalNodes>
          <leafValues>
            -1.9750709831714630e-01 4.7760283946990967e-01</leafValues></_>
        <_>
          <internalNodes>
            0 -1 43 -3.0654526781290770e-03</internalNodes>
          <leafValues>
            1.9363957643508911e-01 -4.7958472371101379e-01</leafValues></_>
        <_>
          <internalNodes>
            0 -1 40 7.6794326305389404e-02</internalNodes>
          <leafValues>
            9.8970256745815277e-02 -8.7477016448974609e-01</leafValues></_>
        <_>
          <internalNodes>
            0 -1 102 2.4945294484496117e-02</internalNodes>
          <leafValues>
            -1.9460062682628632e-01 4.7323921322822571e-01</leafValues></_>
        <_>
          <internalNodes>
            0 -1 127 3.6485891323536634e-03</internalNodes>
          <leafValues>
            1.1559996753931046e-01 -8.8081789016723633e-01</leafValues></_>
        <_>
          <internalNodes>
            0 -1 186 1.4651525998488069e-03</internalNodes>
          <leafValues>
            -3.1732168793678284e-01 2.7898412942886353e-01</leafValues></_>
        <_>
          <internalNodes>
            0 -1 89 4.5620530843734741e-02</internalNodes>
          <leafValues>
            -1.3036784529685974e-01 7.3436295986175537e-01</leafValues></_>
        <_>
          <internalNodes>
            0 -1 112 -8.8752986630424857e-04</internalNodes>
          <leafValues>
            4.4398540258407593e-01 -2.1857219934463501e-01</leafValues></_></weakClassifiers></_>
    <!-- stage 14 -->
    <_>
      <maxWeakCount>13</maxWeakCount>
      <stageThreshold>-1.5692374706268311e+00</stageThreshold>
      <weakClassifiers>
        <_>
          <internalNodes>
            0 -1 31 -8.8448245078325272e-03</internalNodes>
          <leafValues>
            2.5581395626068115e-01 -7.0095074176788330e-01</leafValues></_>
        <_>
          <internalNodes>
            0 -1 6 -2.3461589589715004e-03</internalNodes>
          <leafValues>
            -7.7447026968002319e-01 -3.1782794743776321e-02</leafValues></_>
        <_>
          <internalNodes>
            0 -1 47 -5.3315859287977219e-02</internalNodes>
          <leafValues>
            -9.5542168617248535e-01 5.8170836418867111e-02</leafValues></_>
        <_>
          <internalNodes>
            0 -1 69 -2.6549110189080238e-03</internalNodes>
          <leafValues>
            3.8171622157096863e-01 -2.2455359995365143e-01</leafValues></_>
        <_>
          <internalNodes>
            0 -1 171 -3.1079041946213692e-05</internalNodes>
          <leafValues>
            1.6802330315113068e-01 -4.6775799989700317e-01</leafValues></_>
        <_>
          <internalNodes>
            0 -1 153 8.4755494026467204e-04</internalNodes>
          <leafValues>
            -2.8168940544128418e-01 2.8274706006050110e-01</leafValues></_>
        <_>
          <internalNodes>
            0 -1 105 -1.3261088728904724e-01</internalNodes>
          <leafValues>
            -8.3407884836196899e-01 8.9512825012207031e-02</leafValues></_>
        <_>
          <internalNodes>
            0 -1 88 -1.2514834105968475e-01</internalNodes>
          <leafValues>
            -8.3221560716629028e-01 8.0606639385223389e-02</leafValues></_>
        <_>
          <internalNodes>
            0 -1 188 -2.8716302476823330e-03</internalNodes>
          <leafValues>
            -8.4915179014205933e-01 7.4210479855537415e-02</leafValues></_>
        <_>
          <internalNodes>
            0 -1 146 2.8566666878759861e-03</internalNodes>
          <leafValues>
            7.3605090379714966e-02 -8.1919717788696289e-01</leafValues></_>
        <_>
          <internalNodes>
            0 -1 117 2.2951476275920868e-03</internalNodes>
          <leafValues>
            -3.0403551459312439e-01 2.4162817001342773e-01</leafValues></_>
        <_>
          <internalNodes>
            0 -1 1 1.0510040447115898e-03</internalNodes>
          <leafValues>
            1.7824985086917877e-01 -4.4811305403709412e-01</leafValues></_>
        <_>
          <internalNodes>
            0 -1 27 -5.6574154645204544e-02</internalNodes>
          <leafValues>
            -9.4096207618713379e-01 7.4782244861125946e-02</leafValues></_></weakClassifiers></_>
    <!-- stage 15 -->
    <_>
      <maxWeakCount>12</maxWeakCount>
      <stageThreshold>-1.4451944828033447e+00</stageThreshold>
      <weakClassifiers>
        <_>
          <internalNodes>
            0 -1 98 2.5065466761589050e-02</internalNodes>
          <leafValues>
            -7.0909088850021362e-01 4.2222222685813904e-01</leafValues></_>
        <_>
          <internalNodes>
            0 -1 81 -5.9297423809766769e-02</internalNodes>
          <leafValues>
            2.4047878384590149e-01 -3.7028801441192627e-01</leafValues></_>
        <_>
          <internalNodes>
            0 -1 203 3.1230994500219822e-04</internalNodes>
          <leafValues>
            1.6284312307834625e-01 -5.1264643669128418e-01</leafValues></_>
        <_>
          <internalNodes>
            0 -1 11 -1.7998656257987022e-03</internalNodes>
          <leafValues>
            -9.4647592306137085e-01 7.6637022197246552e-02</leafValues></_>
        <_>
          <internalNodes>
            0 -1 30 1.1036868090741336e-04</internalNodes>
          <leafValues>
            1.9179150462150574e-01 -4.2392501235008240e-01</leafValues></_>
        <_>
          <internalNodes>
            0 -1 131 -3.5910061560571194e-03</internalNodes>
          <leafValues>
            3.4003874659538269e-01 -2.1256230771541595e-01</leafValues></_>
        <_>
          <internalNodes>
            0 -1 109 2.4032831192016602e-02</internalNodes>
          <leafValues>
            -1.9265218079090118e-01 4.6710920333862305e-01</leafValues></_>
        <_>
          <internalNodes>
            0 -1 51 2.2868491709232330e-02</internalNodes>
          <leafValues>
            -1.9098278880119324e-01 4.6016436815261841e-01</leafValues></_>
        <_>
          <internalNodes>
            0 -1 64 6.4546018838882446e-03</internalNodes>
          <leafValues>
            -4.4776359200477600e-01 2.2334292531013489e-01</leafValues></_>
        <_>
          <internalNodes>
            0 -1 115 -6.3889857847243547e-04</internalNodes>
          <leafValues>
            4.2761734127998352e-01 -2.0384562015533447e-01</leafValues></_>
        <_>
          <internalNodes>
            0 -1 100 2.3502074182033539e-03</internalNodes>
          <leafValues>
            -2.1030005812644958e-01 4.2516994476318359e-01</leafValues></_>
        <_>
          <internalNodes>
            0 -1 13 -2.0804297178983688e-02</internalNodes>
          <leafValues>
            -6.0950887203216553e-01 1.5819184482097626e-01</leafValues></_></weakClassifiers></_>
    <!-- stage 16 -->
    <_>
      <maxWeakCount>13</maxWeakCount>
      <stageThreshold>-1.6431494951248169e+00</stageThreshold>
      <weakClassifiers>
        <_>
          <internalNodes>
            0 -1 137 -1.1850227601826191e-02</internalNodes>
          <leafValues>
            2.8571429848670959e-01 -7.0120900869369507e-01</leafValues></_>
        <_>
          <internalNodes>
            0 -1 86 2.2130163386464119e-02</internalNodes>
          <leafValues>
            -4.7689750790596008e-01 1.2030296027660370e-01</leafValues></_>
        <_>
          <internalNodes>
            0 -1 175 -1.9078508557868190e-05</internalNodes>
          <leafValues>
            1.8549761176109314e-01 -4.4244500994682312e-01</leafValues></_>
        <_>
          <internalNodes>
            0 -1 155 -1.7906206194311380e-03</internalNodes>
          <leafValues>
            2.4514929950237274e-01 -3.1494840979576111e-01</leafValues></_>
        <_>
          <internalNodes>
            0 -1 190 -2.2058570757508278e-03</internalNodes>
          <leafValues>
            -6.7217910289764404e-01 1.4948315918445587e-01</leafValues></_>
        <_>
          <internalNodes>
            0 -1 118 -2.8100116178393364e-03</internalNodes>
          <leafValues>
            -9.4314318895339966e-01 8.5708901286125183e-02</leafValues></_>
        <_>
          <internalNodes>
            0 -1 114 3.3981781452894211e-03</internalNodes>
          <leafValues>
            -1.9474118947982788e-01 4.4483309984207153e-01</leafValues></_>
        <_>
          <internalNodes>
            0 -1 144 -2.2368957288563251e-03</internalNodes>
          <leafValues>
            5.3869450092315674e-01 -1.5410837531089783e-01</leafValues></_>
        <_>
          <internalNodes>
            0 -1 44 -1.7858188366517425e-03</internalNodes>
          <leafValues>
            -7.1850585937500000e-01 1.1663028597831726e-01</leafValues></_>
        <_>
          <internalNodes>
            0 -1 133 4.9441456212662160e-05</internalNodes>
          <leafValues>
            -3.2788568735122681e-01 2.5397789478302002e-01</leafValues></_>
        <_>
          <internalNodes>
            0 -1 68 2.0487061701714993e-03</internalNodes>
          <leafValues>
            -2.2594727575778961e-01 3.6532050371170044e-01</leafValues></_>
        <_>
          <internalNodes>
            0 -1 48 -8.1980295362882316e-05</internalNodes>
          <leafValues>
            1.7734116315841675e-01 -4.9388509988784790e-01</leafValues></_>
        <_>
          <internalNodes>
            0 -1 176 -2.6236637495458126e-03</internalNodes>
          <leafValues>
            -8.1285387277603149e-01 8.4005862474441528e-02</leafValues></_></weakClassifiers></_>
    <!-- stage 17 -->
    <_>
      <maxWeakCount>14</maxWeakCount>
      <stageThreshold>-1.4932622909545898e+00</stageThreshold>
      <weakClassifiers>
        <_>
          <internalNodes>
            0 -1 116 -1.4415640383958817e-02</internalNodes>
          <leafValues>
            3.0612245202064514e-01 -7.0807993412017822e-01</leafValues></_>
        <_>
          <internalNodes>
            0 -1 193 -8.1794587895274162e-03</internalNodes>
          <leafValues>
            1.0390507429838181e-01 -4.6337196230888367e-01</leafValues></_>
        <_>
          <internalNodes>
            0 -1 165 2.1857993677258492e-02</internalNodes>
          <leafValues>
            -3.9530345797538757e-01 1.6986781358718872e-01</leafValues></_>
        <_>
          <internalNodes>
            0 -1 134 2.4565458297729492e-03</internalNodes>
          <leafValues>
            -2.0434254407882690e-01 3.3977189660072327e-01</leafValues></_>
        <_>
          <internalNodes>
            0 -1 125 -1.7363272607326508e-02</internalNodes>
          <leafValues>
            6.9110375642776489e-01 -8.6966887116432190e-02</leafValues></_>
        <_>
          <internalNodes>
            0 -1 78 4.0102358907461166e-03</internalNodes>
          <leafValues>
            1.1531266570091248e-01 -6.5248370170593262e-01</leafValues></_>
        <_>
          <internalNodes>
            0 -1 79 -3.5730013623833656e-03</internalNodes>
          <leafValues>
            -7.5571548938751221e-01 1.0370096564292908e-01</leafValues></_>
        <_>
          <internalNodes>
            0 -1 55 2.1617431193590164e-03</internalNodes>
          <leafValues>
            -2.6337629556655884e-01 2.6101431250572205e-01</leafValues></_>
        <_>
          <internalNodes>
            0 -1 121 3.6252316087484360e-02</internalNodes>
          <leafValues>
            1.1564467102289200e-01 -6.6924613714218140e-01</leafValues></_>
        <_>
          <internalNodes>
            0 -1 119 1.8626134842634201e-03</internalNodes>
          <leafValues>
            7.8510321676731110e-02 -6.9662165641784668e-01</leafValues></_>
        <_>
          <internalNodes>
            0 -1 90 1.3977481052279472e-02</internalNodes>
          <leafValues>
            -1.3523110747337341e-01 5.8443695306777954e-01</leafValues></_>
        <_>
          <internalNodes>
            0 -1 202 -8.9524532086215913e-05</internalNodes>
          <leafValues>
            -3.3642923831939697e-01 2.3641686141490936e-01</leafValues></_>
        <_>
          <internalNodes>
            0 -1 42 -9.6567198634147644e-03</internalNodes>
          <leafValues>
            -7.4915939569473267e-01 9.8780147731304169e-02</leafValues></_>
        <_>
          <internalNodes>
            0 -1 50 -8.3963274955749512e-03</internalNodes>
          <leafValues>
            2.5773230195045471e-01 -2.8962689638137817e-01</leafValues></_></weakClassifiers></_>
    <!-- stage 18 -->
    <_>
      <maxWeakCount>16</maxWeakCount>
      <stageThreshold>-1.5390566587448120e+00</stageThreshold>
      <weakClassifiers>
        <_>
          <internalNodes>
            0 -1 111 1.5788648277521133e-02</internalNodes>
          <leafValues>
            -7.3699146509170532e-01 -1.4685314893722534e-01</leafValues></_>
        <_>
          <internalNodes>
            0 -1 120 -1.5955045819282532e-03</internalNodes>
          <leafValues>
            2.0822671055793762e-01 -3.6879450082778931e-01</leafValues></_>
        <_>
          <internalNodes>
            0 -1 141 1.0811612010002136e-02</internalNodes>
          <leafValues>
            -5.2467703819274902e-01 1.4162091910839081e-01</leafValues></_>
        <_>
          <internalNodes>
            0 -1 177 -8.4901193622499704e-04</internalNodes>
          <leafValues>
            1.7569626867771149e-01 -5.1462697982788086e-01</leafValues></_>
        <_>
          <internalNodes>
            0 -1 95 2.3640631698071957e-03</internalNodes>
          <leafValues>
            -1.8867607414722443e-01 4.0111869573593140e-01</leafValues></_>
        <_>
          <internalNodes>
            0 -1 10 -6.6839996725320816e-03</internalNodes>
          <leafValues>
            6.1366730928421021e-01 -1.1441645026206970e-01</leafValues></_>
        <_>
          <internalNodes>
            0 -1 145 -3.6971021909266710e-03</internalNodes>
          <leafValues>
            -8.8583588600158691e-01 1.2174673378467560e-01</leafValues></_>
        <_>
          <internalNodes>
            0 -1 71 5.6494576856493950e-03</internalNodes>
          <leafValues>
            -1.8122869729995728e-01 4.3630787730216980e-01</leafValues></_>
        <_>
          <internalNodes>
            0 -1 39 -1.6806036233901978e-02</internalNodes>
          <leafValues>
            2.9659590125083923e-01 -2.9365301132202148e-01</leafValues></_>
        <_>
          <internalNodes>
            0 -1 152 1.2550988467410207e-03</internalNodes>
          <leafValues>
            -2.0398332178592682e-01 3.9207738637924194e-01</leafValues></_>
        <_>
          <internalNodes>
            0 -1 192 1.6604386037215590e-03</internalNodes>
          <leafValues>
            1.0870748013257980e-01 -7.0110124349594116e-01</leafValues></_>
        <_>
          <internalNodes>
            0 -1 77 4.8495824448764324e-03</internalNodes>
          <leafValues>
            -2.8650897741317749e-01 2.6466825604438782e-01</leafValues></_>
        <_>
          <internalNodes>
            0 -1 108 -1.3228028547018766e-03</internalNodes>
          <leafValues>
            3.3213856816291809e-01 -2.1305990219116211e-01</leafValues></_>
        <_>
          <internalNodes>
            0 -1 122 -2.5690193288028240e-03</internalNodes>
          <leafValues>
            4.4960540533065796e-01 -1.7218972742557526e-01</leafValues></_>
        <_>
          <internalNodes>
            0 -1 72 7.6457089744508266e-04</internalNodes>
          <leafValues>
            1.5653611719608307e-01 -5.0255119800567627e-01</leafValues></_>
        <_>
          <internalNodes>
            0 -1 24 -1.0805349797010422e-02</internalNodes>
          <leafValues>
            -5.8260399103164673e-01 1.1838859319686890e-01</leafValues></_></weakClassifiers></_>
    <!-- stage 19 -->
    <_>
      <maxWeakCount>13</maxWeakCount>
      <stageThreshold>-1.6871259212493896e+00</stageThreshold>
      <weakClassifiers>
        <_>
          <internalNodes>
            0 -1 195 3.3423744607716799e-03</internalNodes>
          <leafValues>
            -7.5442248582839966e-01 -3.1380751729011536e-01</leafValues></_>
        <_>
          <internalNodes>
            0 -1 154 1.1887098662555218e-03</internalNodes>
          <leafValues>
            -3.0890810489654541e-01 3.5789126157760620e-01</leafValues></_>
        <_>
          <internalNodes>
            0 -1 101 3.9102714508771896e-03</internalNodes>
          <leafValues>
            -1.6694508492946625e-01 4.9411287903785706e-01</leafValues></_>
        <_>
          <internalNodes>
            0 -1 21 3.7237234413623810e-02</internalNodes>
          <leafValues>
            -2.2362728416919708e-01 3.5143351554870605e-01</leafValues></_>
        <_>
          <internalNodes>
            0 -1 180 7.9918131232261658e-03</internalNodes>
          <leafValues>
            -3.9725154638290405e-01 1.7841938138008118e-01</leafValues></_>
        <_>
          <internalNodes>
            0 -1 126 -8.0407562199980021e-04</internalNodes>
          <leafValues>
            3.5190621018409729e-01 -1.7610891163349152e-01</leafValues></_>
        <_>
          <internalNodes>
            0 -1 198 9.7427694126963615e-03</internalNodes>
          <leafValues>
            1.1617608368396759e-01 -6.2817090749740601e-01</leafValues></_>
        <_>
          <internalNodes>
            0 -1 74 -2.8389040380716324e-04</internalNodes>
          <leafValues>
            -4.6980848908424377e-01 1.3807177543640137e-01</leafValues></_>
        <_>
          <internalNodes>
            0 -1 166 -3.3619537134654820e-05</internalNodes>
          <leafValues>
            1.9929699599742889e-01 -3.8389879465103149e-01</leafValues></_>
        <_>
          <internalNodes>
            0 -1 157 -1.2183475773781538e-03</internalNodes>
          <leafValues>
            -7.5210672616958618e-01 9.7589224576950073e-02</leafValues></_>
        <_>
          <internalNodes>
            0 -1 34 1.8890119099523872e-04</internalNodes>
          <leafValues>
            1.2952816486358643e-01 -4.9414679408073425e-01</leafValues></_>
        <_>
          <internalNodes>
            0 -1 66 1.8792523443698883e-01</internalNodes>
          <leafValues>
            8.6552068591117859e-02 -7.6323676109313965e-01</leafValues></_>
        <_>
          <internalNodes>
            0 -1 184 -2.7959733270108700e-03</internalNodes>
          <leafValues>
            1.5611895918846130e-01 -4.2759934067726135e-01</leafValues></_></weakClassifiers></_></stages>
  <features>
    <_>
      <rects>
        <_>
          0 0 24 24 -1.</_>
        <_>
          8 0 8 24 3.</_></rects>
      <tilted>0</tilted></_>
    <_>
      <rects>
        <_>
          0 1 1 12 -1.</_>
        <_>
          0 5 1 4 3.</_></rects>
      <tilted>0</tilted></_>
    <_>
      <rects>
        <_>
          0 1 24 6 -1.</_>
        <_>
          8 1 8 6 3.</_></rects>
      <tilted>0</tilted></_>
    <_>
      <rects>
        <_>
          0 2 12 8 -1.</_>
        <_>
          0 2 6 4 2.</_>
        <_>
          6 6 6 4 2.</_></rects>
      <tilted>0</tilted></_>
    <_>
      <rects>
        <_>
          0 2 24 5 -1.</_>
        <_>
          8 2 8 5 3.</_></rects>
      <tilted>0</tilted></_>
    <_>
      <rects>
        <_>
          0 3 2 3 -1.</_>
        <_>
          0 4 2 1 3.</_></rects>
      <tilted>0</tilted></_>
    <_>
      <rects>
        <_>
          0 3 5 3 -1.</_>
        <_>
          0 4 5 1 3.</_></rects>
      <tilted>0</tilted></_>
    <_>
      <rects>
        <_>
          0 3 24 3 -1.</_>
        <_>
          8 3 8 3 3.</_></rects>
      <tilted>0</tilted></_>
    <_>
      <rects>
        <_>
          0 4 2 3 -1.</_>
        <_>
          0 5 2 1 3.</_></rects>
      <tilted>0</tilted></_>
    <_>
      <rects>
        <_>
          0 5 1 3 -1.</_>
        <_>
          0 6 1 1 3.</_></rects>
      <tilted>0</tilted></_>
    <_>
      <rects>
        <_>
          0 8 3 4 -1.</_>
        <_>
          1 8 1 4 3.</_></rects>
      <tilted>0</tilted></_>
    <_>
      <rects>
        <_>
          0 8 3 2 -1.</_>
        <_>
          0 9 3 1 2.</_></rects>
      <tilted>0</tilted></_>
    <_>
      <rects>
        <_>
          0 11 6 10 -1.</_>
        <_>
          2 11 2 10 3.</_></rects>
      <tilted>0</tilted></_>
    <_>
      <rects>
        <_>
          0 13 22 6 -1.</_>
        <_>
          0 13 11 3 2.</_>
        <_>
          11 16 11 3 2.</_></rects>
      <tilted>0</tilted></_>
    <_>
      <rects>
        <_>
          0 20 9 4 -1.</_>
        <_>
          3 20 3 4 3.</_></rects>
      <tilted>0</tilted></_>
    <_>
      <rects>
        <_>
          1 0 6 12 -1.</_>
        <_>
          1 0 3 6 2.</_>
        <_>
          4 6 3 6 2.</_></rects>
      <tilted>0</tilted></_>
    <_>
      <rects>
        <_>
          1 0 8 18 -1.</_>
        <_>
          5 0 4 18 2.</_></rects>
      <tilted>0</tilted></_>
    <_>
      <rects>
        <_>
          1 0 21 4 -1.</_>
        <_>
          8 0 7 4 3.</_></rects>
      <tilted>0</tilted></_>
    <_>
      <rects>
        <_>
          1 1 6 14 -1.</_>
        <_>
          4 1 3 14 2.</_></rects>
      <tilted>0</tilted></_>
    <_>
      <rects>
        <_>
          1 1 8 15 -1.</_>
        <_>
          5 1 4 15 2.</_></rects>
      <tilted>0</tilted></_>
    <_>
      <rects>
        <_>
          1 1 12 4 -1.</_>
        <_>
          7 1 6 4 2.</_></rects>
      <tilted>0</tilted></_>
    <_>
      <rects>
        <_>
          1 2 4 13 -1.</_>
        <_>
          3 2 2 13 2.</_></rects>
      <tilted>0</tilted></_>
    <_>
      <rects>
        <_>
          1 3 4 7 -1.</_>
        <_>
          3 3 2 7 2.</_></rects>
      <tilted>0</tilted></_>
    <_>
      <rects>
        <_>
          1 4 6 4 -1.</_>
        <_>
          3 4 2 4 3.</_></rects>
      <tilted>0</tilted></_>
    <_>
      <rects>
        <_>
          1 4 3 12 -1.</_>
        <_>
          1 8 3 4 3.</_></rects>
      <tilted>0</tilted></_>
    <_>
      <rects>
        <_>
          1 4 15 9 -1.</_>
        <_>
          1 7 15 3 3.</_></rects>
      <tilted>0</tilted></_>
    <_>
      <rects>
        <_>
          1 5 4 5 -1.</_>
        <_>
          3 5 2 5 2.</_></rects>
      <tilted>0</tilted></_>
    <_>
      <rects>
        <_>
          1 5 10 12 -1.</_>
        <_>
          1 5 5 6 2.</_>
        <_>
          6 11 5 6 2.</_></rects>
      <tilted>0</tilted></_>
    <_>
      <rects>
        <_>
          1 6 6 1 -1.</_>
        <_>
          3 6 2 1 3.</_></rects>
      <tilted>0</tilted></_>
    <_>
      <rects>
        <_>
          1 7 2 2 -1.</_>
        <_>
          1 8 2 1 2.</_></rects>
      <tilted>0</tilted></_>
    <_>
      <rects>
        <_>
          1 8 1 3 -1.</_>
        <_>
          1 9 1 1 3.</_></rects>
      <tilted>0</tilted></_>
    <_>
      <rects>
        <_>
          1 8 2 8 -1.</_>
        <_>
          1 8 1 4 2.</_>
        <_>
          2 12 1 4 2.</_></rects>
      <tilted>0</tilted></_>
    <_>
      <rects>
        <_>
          1 16 6 3 -1.</_>
        <_>
          1 17 6 1 3.</_></rects>
      <tilted>0</tilted></_>
    <_>
      <rects>
        <_>
          1 18 6 5 -1.</_>
        <_>
          3 18 2 5 3.</_></rects>
      <tilted>0</tilted></_>
    <_>
      <rects>
        <_>
          1 21 1 3 -1.</_>
        <_>
          1 22 1 1 3.</_></rects>
      <tilted>0</tilted></_>
    <_>
      <rects>
        <_>
          1 21 12 2 -1.</_>
        <_>
          7 21 6 2 2.</_></rects>
      <tilted>0</tilted></_>
    <_>
      <rects>
        <_>
          2 0 4 21 -1.</_>
        <_>
          4 0 2 21 2.</_></rects>
      <tilted>0</tilted></_>
    <_>
      <rects>
        <_>
          2 3 18 12 -1.</_>
        <_>
          8 3 6 12 3.</_></rects>
      <tilted>0</tilted></_>
    <_>
      <rects>
        <_>
          2 4 6 2 -1.</_>
        <_>
          4 4 2 2 3.</_></rects>
      <tilted>0</tilted></_>
    <_>
      <rects>
        <_>
          2 6 9 9 -1.</_>
        <_>
          2 9 9 3 3.</_></rects>
      <tilted>0</tilted></_>
    <_>
      <rects>
        <_>
          2 8 20 12 -1.</_>
        <_>
          2 8 10 6 2.</_>
        <_>
          12 14 10 6 2.</_></rects>
      <tilted>0</tilted></_>
    <_>
      <rects>
        <_>
          2 10 6 4 -1.</_>
        <_>
          2 10 3 2 2.</_>
        <_>
          5 12 3 2 2.</_></rects>
      <tilted>0</tilted></_>
    <_>
      <rects>
        <_>
          2 13 18 1 -1.</_>
        <_>
          8 13 6 1 3.</_></rects>
      <tilted>0</tilted></_>
    <_>
      <rects>
        <_>
          2 14 7 6 -1.</_>
        <_>
          2 17 7 3 2.</_></rects>
      <tilted>0</tilted></_>
    <_>
      <rects>
        <_>
          2 18 3 3 -1.</_>
        <_>
          2 19 3 1 3.</_></rects>
      <tilted>0</tilted></_>
    <_>
      <rects>
        <_>
          3 2 4 10 -1.</_>
        <_>
          3 2 2 5 2.</_>
        <_>
          5 7 2 5 2.</_></rects>
      <tilted>0</tilted></_>
    <_>
      <rects>
        <_>
          3 2 16 9 -1.</_>
        <_>
          3 5 16 3 3.</_></rects>
      <tilted>0</tilted></_>
    <_>
      <rects>
        <_>
          3 10 14 10 -1.</_>
        <_>
          3 10 7 5 2.</_>
        <_>
          10 15 7 5 2.</_></rects>
      <tilted>0</tilted></_>
    <_>
      <rects>
        <_>
          3 18 3 2 -1.</_>
        <_>
          3 19 3 1 2.</_></rects>
      <tilted>0</tilted></_>
    <_>
      <rects>
        <_>
          4 0 6 8 -1.</_>
        <_>
          4 0 3 4 2.</_>
        <_>
          7 4 3 4 2.</_></rects>
      <tilted>0</tilted></_>
    <_>
      <rects>
        <_>
          4 0 6 10 -1.</_>
        <_>
          4 0 3 5 2.</_>
        <_>
          7 5 3 5 2.</_></rects>
      <tilted>0</tilted></_>
    <_>
      <rects>
        <_>
          4 0 12 6 -1.</_>
        <_>
          4 2 12 2 3.</_></rects>
      <tilted>0</tilted></_>
    <_>
      <rects>
        <_>
          4 3 17 9 -1.</_>
        <_>
          4 6 17 3 3.</_></rects>
      <tilted>0</tilted></_>
    <_>
      <rects>
        <_>
          4 5 14 9 -1.</_>
        <_>
          4 8 14 3 3.</_></rects>
      <tilted>0</tilted></_>
    <_>
      <rects>
        <_>
          4 6 13 9 -1.</_>
        <_>
          4 9 13 3 3.</_></rects>
      <tilted>0</tilted></_>
    <_>
      <rects>
        <_>
          4 8 2 10 -1.</_>
        <_>
          4 8 1 5 2.</_>
        <_>
          5 13 1 5 2.</_></rects>
      <tilted>0</tilted></_>
    <_>
      <rects>
        <_>
          4 10 14 3 -1.</_>
        <_>
          4 11 14 1 3.</_></rects>
      <tilted>0</tilted></_>
    <_>
      <rects>
        <_>
          4 12 5 12 -1.</_>
        <_>
          4 18 5 6 2.</_></rects>
      <tilted>0</tilted></_>
    <_>
      <rects>
        <_>
          4 13 15 3 -1.</_>
        <_>
          4 14 15 1 3.</_></rects>
      <tilted>0</tilted></_>
    <_>
      <rects>
        <_>
          4 14 4 10 -1.</_>
        <_>
          4 19 4 5 2.</_></rects>
      <tilted>0</tilted></_>
    <_>
      <rects>
        <_>
          4 14 10 10 -1.</_>
        <_>
          4 14 5 5 2.</_>
        <_>
          9 19 5 5 2.</_></rects>
      <tilted>0</tilted></_>
    <_>
      <rects>
        <_>
          4 16 3 3 -1.</_>
        <_>
          4 17 3 1 3.</_></rects>
      <tilted>0</tilted></_>
    <_>
      <rects>
        <_>
          4 16 8 8 -1.</_>
        <_>
          4 16 4 4 2.</_>
        <_>
          8 20 4 4 2.</_></rects>
      <tilted>0</tilted></_>
    <_>
      <rects>
        <_>
          4 17 1 2 -1.</_>
        <_>
          4 18 1 1 2.</_></rects>
      <tilted>0</tilted></_>
    <_>
      <rects>
        <_>
          5 0 4 15 -1.</_>
        <_>
          7 0 2 15 2.</_></rects>
      <tilted>0</tilted></_>
    <_>
      <rects>
        <_>
          5 2 6 2 -1.</_>
        <_>
          7 2 2 2 3.</_></rects>
      <tilted>0</tilted></_>
    <_>
      <rects>
        <_>
          5 3 11 21 -1.</_>
        <_>
          5 10 11 7 3.</_></rects>
      <tilted>0</tilted></_>
    <_>
      <rects>
        <_>
          5 6 5 18 -1.</_>
        <_>
          5 12 5 6 3.</_></rects>
      <tilted>0</tilted></_>
    <_>
      <rects>
        <_>
          5 7 8 3 -1.</_>
        <_>
          5 8 8 1 3.</_></rects>
      <tilted>0</tilted></_>
    <_>
      <rects>
        <_>
          5 8 5 2 -1.</_>
        <_>
          5 9 5 1 2.</_></rects>
      <tilted>0</tilted></_>
    <_>
      <rects>
        <_>
          5 8 12 3 -1.</_>
        <_>
          5 9 12 1 3.</_></rects>
      <tilted>0</tilted></_>
    <_>
      <rects>
        <_>
          5 9 18 3 -1.</_>
        <_>
          5 10 18 1 3.</_></rects>
      <tilted>0</tilted></_>
    <_>
      <rects>
        <_>
          5 15 2 3 -1.</_>
        <_>
          5 16 2 1 3.</_></rects>
      <tilted>0</tilted></_>
    <_>
      <rects>
        <_>
          5 16 12 3 -1.</_>
        <_>
          5 17 12 1 3.</_></rects>
      <tilted>0</tilted></_>
    <_>
      <rects>
        <_>
          5 18 1 3 -1.</_>
        <_>
          5 19 1 1 3.</_></rects>
      <tilted>0</tilted></_>
    <_>
      <rects>
        <_>
          5 18 8 3 -1.</_>
        <_>
          5 19 8 1 3.</_></rects>
      <tilted>0</tilted></_>
    <_>
      <rects>
        <_>
          5 20 2 2 -1.</_>
        <_>
          5 21 2 1 2.</_></rects>
      <tilted>0</tilted></_>
    <_>
      <rects>
        <_>
          5 23 10 1 -1.</_>
        <_>
          10 23 5 1 2.</_></rects>
      <tilted>0</tilted></_>
    <_>
      <rects>
        <_>
          6 0 3 8 -1.</_>
        <_>
          7 0 1 8 3.</_></rects>
      <tilted>0</tilted></_>
    <_>
      <rects>
        <_>
          6 0 3 10 -1.</_>
        <_>
          7 0 1 10 3.</_></rects>
      <tilted>0</tilted></_>
    <_>
      <rects>
        <_>
          6 0 14 2 -1.</_>
        <_>
          6 1 14 1 2.</_></rects>
      <tilted>0</tilted></_>
    <_>
      <rects>
        <_>
          6 3 14 8 -1.</_>
        <_>
          6 7 14 4 2.</_></rects>
      <tilted>0</tilted></_>
    <_>
      <rects>
        <_>
          6 6 6 16 -1.</_>
        <_>
          6 14 6 8 2.</_></rects>
      <tilted>0</tilted></_>
    <_>
      <rects>
        <_>
          6 16 8 3 -1.</_>
        <_>
          6 17 8 1 3.</_></rects>
      <tilted>0</tilted></_>
    <_>
      <rects>
        <_>
          6 21 2 2 -1.</_>
        <_>
          7 21 1 2 2.</_></rects>
      <tilted>0</tilted></_>
    <_>
      <rects>
        <_>
          7 2 3 5 -1.</_>
        <_>
          8 2 1 5 3.</_></rects>
      <tilted>0</tilted></_>
    <_>
      <rects>
        <_>
          7 2 14 9 -1.</_>
        <_>
          7 5 14 3 3.</_></rects>
      <tilted>0</tilted></_>
    <_>
      <rects>
        <_>
          7 4 2 1 -1.</_>
        <_>
          8 4 1 1 2.</_></rects>
      <tilted>0</tilted></_>
    <_>
      <rects>
        <_>
          7 6 9 18 -1.</_>
        <_>
          7 15 9 9 2.</_></rects>
      <tilted>0</tilted></_>
    <_>
      <rects>
        <_>
          7 6 13 9 -1.</_>
        <_>
          7 9 13 3 3.</_></rects>
      <tilted>0</tilted></_>
    <_>
      <rects>
        <_>
          7 7 6 5 -1.</_>
        <_>
          9 7 2 5 3.</_></rects>
      <tilted>0</tilted></_>
    <_>
      <rects>
        <_>
          7 8 12 3 -1.</_>
        <_>
          7 9 12 1 3.</_></rects>
      <tilted>0</tilted></_>
    <_>
      <rects>
        <_>
          7 8 17 8 -1.</_>
        <_>
          7 12 17 4 2.</_></rects>
      <tilted>0</tilted></_>
    <_>
      <rects>
        <_>
          7 10 2 4 -1.</_>
        <_>
          7 12 2 2 2.</_></rects>
      <tilted>0</tilted></_>
    <_>
      <rects>
        <_>
          7 12 10 6 -1.</_>
        <_>
          7 15 10 3 2.</_></rects>
      <tilted>0</tilted></_>
    <_>
      <rects>
        <_>
          7 16 6 3 -1.</_>
        <_>
          7 17 6 1 3.</_></rects>
      <tilted>0</tilted></_>
    <_>
      <rects>
        <_>
          8 1 7 9 -1.</_>
        <_>
          8 4 7 3 3.</_></rects>
      <tilted>0</tilted></_>
    <_>
      <rects>
        <_>
          8 1 7 8 -1.</_>
        <_>
          8 5 7 4 2.</_></rects>
      <tilted>0</tilted></_>
    <_>
      <rects>
        <_>
          8 8 6 5 -1.</_>
        <_>
          10 8 2 5 3.</_></rects>
      <tilted>0</tilted></_>
    <_>
      <rects>
        <_>
          8 8 5 14 -1.</_>
        <_>
          8 15 5 7 2.</_></rects>
      <tilted>0</tilted></_>
    <_>
      <rects>
        <_>
          8 15 8 3 -1.</_>
        <_>
          8 16 8 1 3.</_></rects>
      <tilted>0</tilted></_>
    <_>
      <rects>
        <_>
          8 18 6 3 -1.</_>
        <_>
          8 19 6 1 3.</_></rects>
      <tilted>0</tilted></_>
    <_>
      <rects>
        <_>
          9 0 3 8 -1.</_>
        <_>
          9 4 3 4 2.</_></rects>
      <tilted>0</tilted></_>
    <_>
      <rects>
        <_>
          9 1 6 9 -1.</_>
        <_>
          9 4 6 3 3.</_></rects>
      <tilted>0</tilted></_>
    <_>
      <rects>
        <_>
          9 1 7 9 -1.</_>
        <_>
          9 4 7 3 3.</_></rects>
      <tilted>0</tilted></_>
    <_>
      <rects>
        <_>
          9 1 12 21 -1.</_>
        <_>
          9 8 12 7 3.</_></rects>
      <tilted>0</tilted></_>
    <_>
      <rects>
        <_>
          9 3 3 2 -1.</_>
        <_>
          10 3 1 2 3.</_></rects>
      <tilted>0</tilted></_>
    <_>
      <rects>
        <_>
          9 4 3 2 -1.</_>
        <_>
          10 4 1 2 3.</_></rects>
      <tilted>0</tilted></_>
    <_>
      <rects>
        <_>
          9 6 3 7 -1.</_>
        <_>
          10 6 1 7 3.</_></rects>
      <tilted>0</tilted></_>
    <_>
      <rects>
        <_>
          9 6 9 5 -1.</_>
        <_>
          12 6 3 5 3.</_></rects>
      <tilted>0</tilted></_>
    <_>
      <rects>
        <_>
          9 7 7 10 -1.</_>
        <_>
          9 12 7 5 2.</_></rects>
      <tilted>0</tilted></_>
    <_>
      <rects>
        <_>
          9 8 6 4 -1.</_>
        <_>
          11 8 2 4 3.</_></rects>
      <tilted>0</tilted></_>
    <_>
      <rects>
        <_>
          9 10 3 3 -1.</_>
        <_>
          10 10 1 3 3.</_></rects>
      <tilted>0</tilted></_>
    <_>
      <rects>
        <_>
          9 12 9 3 -1.</_>
        <_>
          9 13 9 1 3.</_></rects>
      <tilted>0</tilted></_>
    <_>
      <rects>
        <_>
          9 14 6 3 -1.</_>
        <_>
          9 15 6 1 3.</_></rects>
      <tilted>0</tilted></_>
    <_>
      <rects>
        <_>
          9 16 3 1 -1.</_>
        <_>
          10 16 1 1 3.</_></rects>
      <tilted>0</tilted></_>
    <_>
      <rects>
        <_>
          9 18 5 3 -1.</_>
        <_>
          9 19 5 1 3.</_></rects>
      <tilted>0</tilted></_>
    <_>
      <rects>
        <_>
          9 23 9 1 -1.</_>
        <_>
          12 23 3 1 3.</_></rects>
      <tilted>0</tilted></_>
    <_>
      <rects>
        <_>
          10 0 3 6 -1.</_>
        <_>
          11 0 1 6 3.</_></rects>
      <tilted>0</tilted></_>
    <_>
      <rects>
        <_>
          10 4 3 3 -1.</_>
        <_>
          11 4 1 3 3.</_></rects>
      <tilted>0</tilted></_>
    <_>
      <rects>
        <_>
          10 5 2 8 -1.</_>
        <_>
          10 5 1 4 2.</_>
        <_>
          11 9 1 4 2.</_></rects>
      <tilted>0</tilted></_>
    <_>
      <rects>
        <_>
          10 5 6 12 -1.</_>
        <_>
          10 11 6 6 2.</_></rects>
      <tilted>0</tilted></_>
    <_>
      <rects>
        <_>
          10 7 2 7 -1.</_>
        <_>
          11 7 1 7 2.</_></rects>
      <tilted>0</tilted></_>
    <_>
      <rects>
        <_>
          10 8 3 7 -1.</_>
        <_>
          11 8 1 7 3.</_></rects>
      <tilted>0</tilted></_>
    <_>
      <rects>
        <_>
          10 11 9 3 -1.</_>
        <_>
          10 12 9 1 3.</_></rects>
      <tilted>0</tilted></_>
    <_>
      <rects>
        <_>
          10 11 11 4 -1.</_>
        <_>
          10 13 11 2 2.</_></rects>
      <tilted>0</tilted></_>
    <_>
      <rects>
        <_>
          10 16 6 2 -1.</_>
        <_>
          10 16 3 1 2.</_>
        <_>
          13 17 3 1 2.</_></rects>
      <tilted>0</tilted></_>
    <_>
      <rects>
        <_>
          10 18 3 6 -1.</_>
        <_>
          11 18 1 6 3.</_></rects>
      <tilted>0</tilted></_>
    <_>
      <rects>
        <_>
          10 18 4 3 -1.</_>
        <_>
          10 19 4 1 3.</_></rects>
      <tilted>0</tilted></_>
    <_>
      <rects>
        <_>
          11 1 3 6 -1.</_>
        <_>
          12 1 1 6 3.</_></rects>
      <tilted>0</tilted></_>
    <_>
      <rects>
        <_>
          11 2 3 3 -1.</_>
        <_>
          12 2 1 3 3.</_></rects>
      <tilted>0</tilted></_>
    <_>
      <rects>
        <_>
          11 8 6 4 -1.</_>
        <_>
          13 8 2 4 3.</_></rects>
      <tilted>0</tilted></_>
    <_>
      <rects>
        <_>
          11 9 4 2 -1.</_>
        <_>
          11 9 2 1 2.</_>
        <_>
          13 10 2 1 2.</_></rects>
      <tilted>0</tilted></_>
    <_>
      <rects>
        <_>
          11 10 2 4 -1.</_>
        <_>
          11 10 1 2 2.</_>
        <_>
          12 12 1 2 2.</_></rects>
      <tilted>0</tilted></_>
    <_>
      <rects>
        <_>
          11 13 5 3 -1.</_>
        <_>
          11 14 5 1 3.</_></rects>
      <tilted>0</tilted></_>
    <_>
      <rects>
        <_>
          11 16 3 3 -1.</_>
        <_>
          11 17 3 1 3.</_></rects>
      <tilted>0</tilted></_>
    <_>
      <rects>
        <_>
          11 17 3 3 -1.</_>
        <_>
          11 18 3 1 3.</_></rects>
      <tilted>0</tilted></_>
    <_>
      <rects>
        <_>
          11 17 5 3 -1.</_>
        <_>
          11 18 5 1 3.</_></rects>
      <tilted>0</tilted></_>
    <_>
      <rects>
        <_>
          12 1 10 12 -1.</_>
        <_>
          12 1 5 6 2.</_>
        <_>
          17 7 5 6 2.</_></rects>
      <tilted>0</tilted></_>
    <_>
      <rects>
        <_>
          12 2 12 22 -1.</_>
        <_>
          18 2 6 22 2.</_></rects>
      <tilted>0</tilted></_>
    <_>
      <rects>
        <_>
          12 3 2 8 -1.</_>
        <_>
          13 3 1 8 2.</_></rects>
      <tilted>0</tilted></_>
    <_>
      <rects>
        <_>
          12 6 8 15 -1.</_>
        <_>
          12 11 8 5 3.</_></rects>
      <tilted>0</tilted></_>
    <_>
      <rects>
        <_>
          12 7 6 2 -1.</_>
        <_>
          15 7 3 2 2.</_></rects>
      <tilted>0</tilted></_>
    <_>
      <rects>
        <_>
          12 8 3 7 -1.</_>
        <_>
          13 8 1 7 3.</_></rects>
      <tilted>0</tilted></_>
    <_>
      <rects>
        <_>
          12 14 2 3 -1.</_>
        <_>
          12 15 2 1 3.</_></rects>
      <tilted>0</tilted></_>
    <_>
      <rects>
        <_>
          12 17 3 6 -1.</_>
        <_>
          13 17 1 6 3.</_></rects>
      <tilted>0</tilted></_>
    <_>
      <rects>
        <_>
          12 18 3 5 -1.</_>
        <_>
          13 18 1 5 3.</_></rects>
      <tilted>0</tilted></_>
    <_>
      <rects>
        <_>
          12 18 8 6 -1.</_>
        <_>
          12 18 4 3 2.</_>
        <_>
          16 21 4 3 2.</_></rects>
      <tilted>0</tilted></_>
    <_>
      <rects>
        <_>
          13 2 3 4 -1.</_>
        <_>
          14 2 1 4 3.</_></rects>
      <tilted>0</tilted></_>
    <_>
      <rects>
        <_>
          13 3 3 2 -1.</_>
        <_>
          14 3 1 2 3.</_></rects>
      <tilted>0</tilted></_>
    <_>
      <rects>
        <_>
          13 3 6 12 -1.</_>
        <_>
          13 3 3 6 2.</_>
        <_>
          16 9 3 6 2.</_></rects>
      <tilted>0</tilted></_>
    <_>
      <rects>
        <_>
          13 4 8 8 -1.</_>
        <_>
          13 4 4 4 2.</_>
        <_>
          17 8 4 4 2.</_></rects>
      <tilted>0</tilted></_>
    <_>
      <rects>
        <_>
          13 8 3 3 -1.</_>
        <_>
          13 9 3 1 3.</_></rects>
      <tilted>0</tilted></_>
    <_>
      <rects>
        <_>
          13 14 6 1 -1.</_>
        <_>
          15 14 2 1 3.</_></rects>
      <tilted>0</tilted></_>
    <_>
      <rects>
        <_>
          13 17 1 3 -1.</_>
        <_>
          13 18 1 1 3.</_></rects>
      <tilted>0</tilted></_>
    <_>
      <rects>
        <_>
          13 20 6 4 -1.</_>
        <_>
          13 20 3 2 2.</_>
        <_>
          16 22 3 2 2.</_></rects>
      <tilted>0</tilted></_>
    <_>
      <rects>
        <_>
          14 0 3 8 -1.</_>
        <_>
          15 0 1 8 3.</_></rects>
      <tilted>0</tilted></_>
    <_>
      <rects>
        <_>
          14 2 3 2 -1.</_>
        <_>
          15 2 1 2 3.</_></rects>
      <tilted>0</tilted></_>
    <_>
      <rects>
        <_>
          14 2 10 4 -1.</_>
        <_>
          19 2 5 4 2.</_></rects>
      <tilted>0</tilted></_>
    <_>
      <rects>
        <_>
          14 4 9 17 -1.</_>
        <_>
          17 4 3 17 3.</_></rects>
      <tilted>0</tilted></_>
    <_>
      <rects>
        <_>
          14 9 4 9 -1.</_>
        <_>
          14 12 4 3 3.</_></rects>
      <tilted>0</tilted></_>
    <_>
      <rects>
        <_>
          14 22 6 1 -1.</_>
        <_>
          17 22 3 1 2.</_></rects>
      <tilted>0</tilted></_>
    <_>
      <rects>
        <_>
          14 22 8 1 -1.</_>
        <_>
          18 22 4 1 2.</_></rects>
      <tilted>0</tilted></_>
    <_>
      <rects>
        <_>
          15 5 4 1 -1.</_>
        <_>
          17 5 2 1 2.</_></rects>
      <tilted>0</tilted></_>
    <_>
      <rects>
        <_>
          15 6 6 17 -1.</_>
        <_>
          17 6 2 17 3.</_></rects>
      <tilted>0</tilted></_>
    <_>
      <rects>
        <_>
          15 6 4 18 -1.</_>
        <_>
          15 12 4 6 3.</_></rects>
      <tilted>0</tilted></_>
    <_>
      <rects>
        <_>
          15 15 1 2 -1.</_>
        <_>
          15 16 1 1 2.</_></rects>
      <tilted>0</tilted></_>
    <_>
      <rects>
        <_>
          15 15 2 4 -1.</_>
        <_>
          15 17 2 2 2.</_></rects>
      <tilted>0</tilted></_>
    <_>
      <rects>
        <_>
          15 16 9 8 -1.</_>
        <_>
          15 20 9 4 2.</_></rects>
      <tilted>0</tilted></_>
    <_>
      <rects>
        <_>
          16 0 8 4 -1.</_>
        <_>
          16 0 4 2 2.</_>
        <_>
          20 2 4 2 2.</_></rects>
      <tilted>0</tilted></_>
    <_>
      <rects>
        <_>
          16 2 8 20 -1.</_>
        <_>
          20 2 4 20 2.</_></rects>
      <tilted>0</tilted></_>
    <_>
      <rects>
        <_>
          16 4 2 2 -1.</_>
        <_>
          17 4 1 2 2.</_></rects>
      <tilted>0</tilted></_>
    <_>
      <rects>
        <_>
          16 7 2 10 -1.</_>
        <_>
          16 12 2 5 2.</_></rects>
      <tilted>0</tilted></_>
    <_>
      <rects>
        <_>
          16 7 8 15 -1.</_>
        <_>
          16 12 8 5 3.</_></rects>
      <tilted>0</tilted></_>
    <_>
      <rects>
        <_>
          16 8 3 8 -1.</_>
        <_>
          16 12 3 4 2.</_></rects>
      <tilted>0</tilted></_>
    <_>
      <rects>
        <_>
          16 15 5 2 -1.</_>
        <_>
          16 16 5 1 2.</_></rects>
      <tilted>0</tilted></_>
    <_>
      <rects>
        <_>
          16 18 4 2 -1.</_>
        <_>
          16 19 4 1 2.</_></rects>
      <tilted>0</tilted></_>
    <_>
      <rects>
        <_>
          17 0 2 9 -1.</_>
        <_>
          18 0 1 9 2.</_></rects>
      <tilted>0</tilted></_>
    <_>
      <rects>
        <_>
          17 1 6 23 -1.</_>
        <_>
          20 1 3 23 2.</_></rects>
      <tilted>0</tilted></_>
    <_>
      <rects>
        <_>
          17 3 6 4 -1.</_>
        <_>
          20 3 3 4 2.</_></rects>
      <tilted>0</tilted></_>
    <_>
      <rects>
        <_>
          17 6 4 10 -1.</_>
        <_>
          17 11 4 5 2.</_></rects>
      <tilted>0</tilted></_>
    <_>
      <rects>
        <_>
          17 7 4 8 -1.</_>
        <_>
          17 11 4 4 2.</_></rects>
      <tilted>0</tilted></_>
    <_>
      <rects>
        <_>
          17 9 6 1 -1.</_>
        <_>
          19 9 2 1 3.</_></rects>
      <tilted>0</tilted></_>
    <_>
      <rects>
        <_>
          17 15 3 4 -1.</_>
        <_>
          17 17 3 2 2.</_></rects>
      <tilted>0</tilted></_>
    <_>
      <rects>
        <_>
          17 16 6 8 -1.</_>
        <_>
          17 20 6 4 2.</_></rects>
      <tilted>0</tilted></_>
    <_>
      <rects>
        <_>
          17 18 1 3 -1.</_>
        <_>
          17 19 1 1 3.</_></rects>
      <tilted>0</tilted></_>
    <_>
      <rects>
        <_>
          18 0 2 4 -1.</_>
        <_>
          18 2 2 2 2.</_></rects>
      <tilted>0</tilted></_>
    <_>
      <rects>
        <_>
          18 1 6 5 -1.</_>
        <_>
          20 1 2 5 3.</_></rects>
      <tilted>0</tilted></_>
    <_>
      <rects>
        <_>
          18 1 4 3 -1.</_>
        <_>
          18 2 4 1 3.</_></rects>
      <tilted>0</tilted></_>
    <_>
      <rects>
        <_>
          18 9 6 4 -1.</_>
        <_>
          18 9 3 2 2.</_>
        <_>
          21 11 3 2 2.</_></rects>
      <tilted>0</tilted></_>
    <_>
      <rects>
        <_>
          18 14 1 4 -1.</_>
        <_>
          18 16 1 2 2.</_></rects>
      <tilted>0</tilted></_>
    <_>
      <rects>
        <_>
          18 18 3 3 -1.</_>
        <_>
          18 19 3 1 3.</_></rects>
      <tilted>0</tilted></_>
    <_>
      <rects>
        <_>
          18 21 4 3 -1.</_>
        <_>
          18 22 4 1 3.</_></rects>
      <tilted>0</tilted></_>
    <_>
      <rects>
        <_>
          19 0 2 18 -1.</_>
        <_>
          20 0 1 18 2.</_></rects>
      <tilted>0</tilted></_>
    <_>
      <rects>
        <_>
          19 1 2 16 -1.</_>
        <_>
          20 1 1 16 2.</_></rects>
      <tilted>0</tilted></_>
    <_>
      <rects>
        <_>
          19 7 3 6 -1.</_>
        <_>
          20 7 1 6 3.</_></rects>
      <tilted>0</tilted></_>
    <_>
      <rects>
        <_>
          19 10 4 3 -1.</_>
        <_>
          21 10 2 3 2.</_></rects>
      <tilted>0</tilted></_>
    <_>
      <rects>
        <_>
          19 18 3 3 -1.</_>
        <_>
          19 19 3 1 3.</_></rects>
      <tilted>0</tilted></_>
    <_>
      <rects>
        <_>
          20 9 4 6 -1.</_>
        <_>
          20 11 4 2 3.</_></rects>
      <tilted>0</tilted></_>
    <_>
      <rects>
        <_>
          21 0 2 3 -1.</_>
        <_>
          21 1 2 1 3.</_></rects>
      <tilted>0</tilted></_>
    <_>
      <rects>
        <_>
          21 8 3 3 -1.</_>
        <_>
          21 9 3 1 3.</_></rects>
      <tilted>0</tilted></_>
    <_>
      <rects>
        <_>
          22 4 2 3 -1.</_>
        <_>
          22 5 2 1 3.</_></rects>
      <tilted>0</tilted></_>
    <_>
      <rects>
        <_>
          22 18 2 2 -1.</_>
        <_>
          23 18 1 2 2.</_></rects>
      <tilted>0</tilted></_>
    <_>
      <rects>
        <_>
          23 5 1 2 -1.</_>
        <_>
          23 6 1 1 2.</_></rects>
      <tilted>0</tilted></_></features></cascade>
</opencv_storage>
