<?xml version="1.0"?>
<opencv_storage>
<cascade>
  <stageType>BOOST</stageType>
  <featureType>HAAR</featureType>
  <height>24</height>
  <width>24</width>
  <stageParams>
    <boostType>GAB</boostType>
    <minHitRate>9.9500000476837158e-01</minHitRate>
    <maxFalseAlarm>5.0000000000000000e-01</maxFalseAlarm>
    <weightTrimRate>9.4999998807907104e-01</weightTrimRate>
    <maxDepth>1</maxDepth>
    <maxWeakCount>100</maxWeakCount></stageParams>
  <featureParams>
    <maxCatCount>0</maxCatCount>
    <featSize>1</featSize>
    <mode>BASIC</mode></featureParams>
  <stageNum>6</stageNum>
  <stages>
    <!-- stage 0 -->
    <_>
      <maxWeakCount>3</maxWeakCount>
      <stageThreshold>-1.3894757032394409e+00</stageThreshold>
      <weakClassifiers>
        <_>
          <internalNodes>
            0 -1 3 -5.3996837139129639e-01</internalNodes>
          <leafValues>
            5.0000000000000000e-01 -9.9201595783233643e-01</leafValues></_>
        <_>
          <internalNodes>
            0 -1 5 -1.0341903567314148e-01</internalNodes>
          <leafValues>
            5.5993729829788208e-01 -9.7911065816879272e-01</leafValues></_>
        <_>
          <internalNodes>
            0 -1 10 1.5062220394611359e-02</internalNodes>
          <leafValues>
            -9.5739704370498657e-01 6.5435141324996948e-01</leafValues></_></weakClassifiers></_>
    <!-- stage 1 -->
    <_>
      <maxWeakCount>3</maxWeakCount>
      <stageThreshold>-1.5084400177001953e+00</stageThreshold>
      <weakClassifiers>
        <_>
          <internalNodes>
            0 -1 14 -1.4854898676276207e-02</internalNodes>
          <leafValues>
            1. -9.8807156085968018e-01</leafValues></_>
        <_>
          <internalNodes>
            0 -1 16 -4.2428467422723770e-03</internalNodes>
          <leafValues>
            5.6591862440109253e-01 -9.7132492065429688e-01</leafValues></_>
        <_>
          <internalNodes>
            0 -1 1 -4.1502978652715683e-02</internalNodes>
          <leafValues>
            4.5095649361610413e-01 -9.8584014177322388e-01</leafValues></_></weakClassifiers></_>
    <!-- stage 2 -->
    <_>
      <maxWeakCount>3</maxWeakCount>
      <stageThreshold>-1.7096303701400757e+00</stageThreshold>
      <weakClassifiers>
        <_>
          <internalNodes>
            0 -1 15 3.0146896839141846e-02</internalNodes>
          <leafValues>
            -9.8608350753784180e-01 5.0000000000000000e-01</leafValues></_>
        <_>
          <internalNodes>
            0 -1 8 -2.8315309435129166e-02</internalNodes>
          <leafValues>
            1.6229693591594696e-01 -9.8199415206909180e-01</leafValues></_>
        <_>
          <internalNodes>
            0 -1 9 -1.0120211169123650e-02</internalNodes>
          <leafValues>
            7.6030749082565308e-01 -8.8584381341934204e-01</leafValues></_></weakClassifiers></_>
    <!-- stage 3 -->
    <_>
      <maxWeakCount>3</maxWeakCount>
      <stageThreshold>-1.6779621839523315e+00</stageThreshold>
      <weakClassifiers>
        <_>
          <internalNodes>
            0 -1 0 -4.7775042057037354e-01</internalNodes>
          <leafValues>
            1. -9.8412698507308960e-01</leafValues></_>
        <_>
          <internalNodes>
            0 -1 4 -6.6443786025047302e-02</internalNodes>
          <leafValues>
            6.2227803468704224e-01 -9.3055653572082520e-01</leafValues></_>
        <_>
          <internalNodes>
            0 -1 13 8.7399557232856750e-02</internalNodes>
          <leafValues>
            -9.8529624938964844e-01 2.3672133684158325e-01</leafValues></_></weakClassifiers></_>
    <!-- stage 4 -->
    <_>
      <maxWeakCount>2</maxWeakCount>
      <stageThreshold>-1.1210440397262573e+00</stageThreshold>
      <weakClassifiers>
        <_>
          <internalNodes>
            0 -1 7 -1.6141224652528763e-02</internalNodes>
          <leafValues>
            1. -9.8609733581542969e-01</leafValues></_>
        <_>
          <internalNodes>
            0 -1 12 2.4151129648089409e-02</internalNodes>
          <leafValues>
            -1. -1.3494674861431122e-01</leafValues></_></weakClassifiers></_>
    <!-- stage 5 -->
    <_>
      <maxWeakCount>3</maxWeakCount>
      <stageThreshold>-9.6148961782455444e-01</stageThreshold>
      <weakClassifiers>
        <_>
          <internalNodes>
            0 -1 2 1.4325025491416454e-02</internalNodes>
          <leafValues>
            -9.9004977941513062e-01 1.</leafValues></_>
        <_>
          <internalNodes>
            0 -1 6 -1.3005176186561584e-01</internalNodes>
          <leafValues>
            1. -9.7143989801406860e-01</leafValues></_>
        <_>
          <internalNodes>
            0 -1 11 1.9050743430852890e-02</internalNodes>
          <leafValues>
            -9.0725469589233398e-01 1.</leafValues></_></weakClassifiers></_></stages>
  <features>
    <_>
      <rects>
        <_>
          0 8 22 16 -1.</_>
        <_>
          0 16 22 8 2.</_></rects>
      <tilted>0</tilted></_>
    <_>
      <rects>
        <_>
          0 16 24 1 -1.</_>
        <_>
          8 16 8 1 3.</_></rects>
      <tilted>0</tilted></_>
    <_>
      <rects>
        <_>
          1 18 10 4 -1.</_>
        <_>
          1 18 5 2 2.</_>
        <_>
          6 20 5 2 2.</_></rects>
      <tilted>0</tilted></_>
    <_>
      <rects>
        <_>
          2 2 21 16 -1.</_>
        <_>
          9 2 7 16 3.</_></rects>
      <tilted>0</tilted></_>
    <_>
      <rects>
        <_>
          2 5 21 1 -1.</_>
        <_>
          9 5 7 1 3.</_></rects>
      <tilted>0</tilted></_>
    <_>
      <rects>
        <_>
          3 2 18 3 -1.</_>
        <_>
          9 2 6 3 3.</_></rects>
      <tilted>0</tilted></_>
    <_>
      <rects>
        <_>
          4 2 15 4 -1.</_>
        <_>
          9 2 5 4 3.</_></rects>
      <tilted>0</tilted></_>
    <_>
      <rects>
        <_>
          6 4 2 6 -1.</_>
        <_>
          7 4 1 6 2.</_></rects>
      <tilted>0</tilted></_>
    <_>
      <rects>
        <_>
          7 0 8 4 -1.</_>
        <_>
          7 2 8 2 2.</_></rects>
      <tilted>0</tilted></_>
    <_>
      <rects>
        <_>
          8 0 2 8 -1.</_>
        <_>
          8 0 1 4 2.</_>
        <_>
          9 4 1 4 2.</_></rects>
      <tilted>0</tilted></_>
    <_>
      <rects>
        <_>
          8 2 4 8 -1.</_>
        <_>
          8 2 2 4 2.</_>
        <_>
          10 6 2 4 2.</_></rects>
      <tilted>0</tilted></_>
    <_>
      <rects>
        <_>
          9 1 10 1 -1.</_>
        <_>
          14 1 5 1 2.</_></rects>
      <tilted>0</tilted></_>
    <_>
      <rects>
        <_>
          9 5 4 19 -1.</_>
        <_>
          11 5 2 19 2.</_></rects>
      <tilted>0</tilted></_>
    <_>
      <rects>
        <_>
          14 7 8 11 -1.</_>
        <_>
          18 7 4 11 2.</_></rects>
      <tilted>0</tilted></_>
    <_>
      <rects>
        <_>
          16 11 3 7 -1.</_>
        <_>
          17 11 1 7 3.</_></rects>
      <tilted>0</tilted></_>
    <_>
      <rects>
        <_>
          17 5 2 8 -1.</_>
        <_>
          18 5 1 8 2.</_></rects>
      <tilted>0</tilted></_>
    <_>
      <rects>
        <_>
          17 18 2 2 -1.</_>
        <_>
          17 19 2 1 2.</_></rects>
      <tilted>0</tilted></_></features></cascade>
</opencv_storage>
