<?xml version="1.0"?>
<opencv_storage>
<stage3>
  <maxWeakCount>8</maxWeakCount>
  <stageThreshold>-2.1438133716583252e+00</stageThreshold>
  <weakClassifiers>
    <_>
      <internalNodes>
        0 -1 639 5.8053231239318848e-01</internalNodes>
      <leafValues>
        -8.2514733076095581e-01 2.1978022158145905e-01</leafValues></_>
    <_>
      <internalNodes>
        0 -1 149289 -1.6504555940628052e-02</internalNodes>
      <leafValues>
        3.8296496868133545e-01 -5.8642023801803589e-01</leafValues></_>
    <_>
      <internalNodes>
        0 -1 129545 6.2781455926597118e-03</internalNodes>
      <leafValues>
        -5.2248603105545044e-01 3.1780102849006653e-01</leafValues></_>
    <_>
      <internalNodes>
        0 -1 33914 4.0143090300261974e-03</internalNodes>
      <leafValues>
        -3.3454018831253052e-01 4.4315063953399658e-01</leafValues></_>
    <_>
      <internalNodes>
        0 -1 18095 1.1130318976938725e-02</internalNodes>
      <leafValues>
        -3.3028396964073181e-01 5.2585262060165405e-01</leafValues></_>
    <_>
      <internalNodes>
        0 -1 90992 4.1246093809604645e-02</internalNodes>
      <leafValues>
        -2.1159175038337708e-01 7.3135167360305786e-01</leafValues></_>
    <_>
      <internalNodes>
        0 -1 157484 1.6756120603531599e-03</internalNodes>
      <leafValues>
        2.4529080092906952e-01 -7.2200918197631836e-01</leafValues></_>
    <_>
      <internalNodes>
        0 -1 58660 1.2725977227091789e-02</internalNodes>
      <leafValues>
        -4.3477120995521545e-01 3.1836032867431641e-01</leafValues></_></weakClassifiers></stage3>
</opencv_storage>
