<?xml version="1.0"?>
<opencv_storage>
<stage0>
  <maxWeakCount>6</maxWeakCount>
  <stageThreshold>-1.8454196453094482e+00</stageThreshold>
  <weakClassifiers>
    <_>
      <internalNodes>
        0 -1 3627 1.0430774092674255e-01</internalNodes>
      <leafValues>
        -8.6590039730072021e-01 6.6666668653488159e-01</leafValues></_>
    <_>
      <internalNodes>
        0 -1 153747 2.5714235380291939e-03</internalNodes>
      <leafValues>
        -7.2218275070190430e-01 4.3387007713317871e-01</leafValues></_>
    <_>
      <internalNodes>
        0 -1 47206 -6.9731036201119423e-03</internalNodes>
      <leafValues>
        3.9424809813499451e-01 -7.9716539382934570e-01</leafValues></_>
    <_>
      <internalNodes>
        0 -1 45028 4.0262527763843536e-03</internalNodes>
      <leafValues>
        -5.1055794954299927e-01 5.6767642498016357e-01</leafValues></_>
    <_>
      <internalNodes>
        0 -1 617 9.9901326000690460e-02</internalNodes>
      <leafValues>
        -6.4576607942581177e-01 3.9733070135116577e-01</leafValues></_>
    <_>
      <internalNodes>
        0 -1 90865 2.0006325095891953e-02</internalNodes>
      <leafValues>
        -3.5799223184585571e-01 6.1791849136352539e-01</leafValues></_></weakClassifiers></stage0>
</opencv_storage>
