<?xml version="1.0"?>
<opencv_storage>
<stage19>
  <maxWeakCount>13</maxWeakCount>
  <stageThreshold>-1.6871259212493896e+00</stageThreshold>
  <weakClassifiers>
    <_>
      <internalNodes>
        0 -1 156439 3.3423744607716799e-03</internalNodes>
      <leafValues>
        -7.5442248582839966e-01 -3.1380751729011536e-01</leafValues></_>
    <_>
      <internalNodes>
        0 -1 133266 1.1887098662555218e-03</internalNodes>
      <leafValues>
        -3.0890810489654541e-01 3.5789126157760620e-01</leafValues></_>
    <_>
      <internalNodes>
        0 -1 98185 3.9102714508771896e-03</internalNodes>
      <leafValues>
        -1.6694508492946625e-01 4.9411287903785706e-01</leafValues></_>
    <_>
      <internalNodes>
        0 -1 15491 3.7237234413623810e-02</internalNodes>
      <leafValues>
        -2.2362728416919708e-01 3.5143351554870605e-01</leafValues></_>
    <_>
      <internalNodes>
        0 -1 150032 7.9918131232261658e-03</internalNodes>
      <leafValues>
        -3.9725154638290405e-01 1.7841938138008118e-01</leafValues></_>
    <_>
      <internalNodes>
        0 -1 113610 -8.0407562199980021e-04</internalNodes>
      <leafValues>
        3.5190621018409729e-01 -1.7610891163349152e-01</leafValues></_>
    <_>
      <internalNodes>
        0 -1 158994 9.7427694126963615e-03</internalNodes>
      <leafValues>
        1.1617608368396759e-01 -6.2817090749740601e-01</leafValues></_>
    <_>
      <internalNodes>
        0 -1 70057 -2.8389040380716324e-04</internalNodes>
      <leafValues>
        -4.6980848908424377e-01 1.3807177543640137e-01</leafValues></_>
    <_>
      <internalNodes>
        0 -1 143354 -3.3619537134654820e-05</internalNodes>
      <leafValues>
        1.9929699599742889e-01 -3.8389879465103149e-01</leafValues></_>
    <_>
      <internalNodes>
        0 -1 134634 -1.2183475773781538e-03</internalNodes>
      <leafValues>
        -7.5210672616958618e-01 9.7589224576950073e-02</leafValues></_>
    <_>
      <internalNodes>
        0 -1 25608 1.8890119099523872e-04</internalNodes>
      <leafValues>
        1.2952816486358643e-01 -4.9414679408073425e-01</leafValues></_>
    <_>
      <internalNodes>
        0 -1 63429 1.8792523443698883e-01</internalNodes>
      <leafValues>
        8.6552068591117859e-02 -7.6323676109313965e-01</leafValues></_>
    <_>
      <internalNodes>
        0 -1 151568 -2.7959733270108700e-03</internalNodes>
      <leafValues>
        1.5611895918846130e-01 -4.2759934067726135e-01</leafValues></_></weakClassifiers></stage19>
</opencv_storage>
