<?xml version="1.0"?>
<opencv_storage>
<stage3>
  <maxWeakCount>5</maxWeakCount>
  <stageThreshold>-1.8773580789566040e+00</stageThreshold>
  <weakClassifiers>
    <_>
      <internalNodes>
        0 -1 75282 3.7325501441955566e-02</internalNodes>
      <leafValues>
        -8.8210964202880859e-01 2.2746780514717102e-01</leafValues></_>
    <_>
      <internalNodes>
        0 -1 141634 -2.1497155539691448e-03</internalNodes>
      <leafValues>
        2.8028473258018494e-01 -7.6008623838424683e-01</leafValues></_>
    <_>
      <internalNodes>
        0 -1 78 1.8466524779796600e-02</internalNodes>
      <leafValues>
        -4.0183719992637634e-01 8.4656602144241333e-01</leafValues></_>
    <_>
      <internalNodes>
        0 -1 79958 8.6450167000293732e-03</internalNodes>
      <leafValues>
        -4.3436679244041443e-01 6.6420960426330566e-01</leafValues></_>
    <_>
      <internalNodes>
        0 -1 73856 8.3673568442463875e-03</internalNodes>
      <leafValues>
        -4.2207211256027222e-01 6.0104173421859741e-01</leafValues></_></weakClassifiers></stage3>
</opencv_storage>
