<?xml version="1.0"?>
<opencv_storage>
<stage4>
  <maxWeakCount>6</maxWeakCount>
  <stageThreshold>-1.3756262063980103e+00</stageThreshold>
  <weakClassifiers>
    <_>
      <internalNodes>
        0 -1 2661 2.0114707946777344e-01</internalNodes>
      <leafValues>
        -8.1477832794189453e-01 1.4594595134258270e-01</leafValues></_>
    <_>
      <internalNodes>
        0 -1 54150 -1.1061548441648483e-01</internalNodes>
      <leafValues>
        6.6332429647445679e-01 -4.2750856280326843e-01</leafValues></_>
    <_>
      <internalNodes>
        0 -1 139215 -1.2919765431433916e-03</internalNodes>
      <leafValues>
        3.3063271641731262e-01 -6.0622543096542358e-01</leafValues></_>
    <_>
      <internalNodes>
        0 -1 101142 1.1826502159237862e-03</internalNodes>
      <leafValues>
        1.6905473172664642e-01 -9.8771387338638306e-01</leafValues></_>
    <_>
      <internalNodes>
        0 -1 100565 -1.1768847471103072e-03</internalNodes>
      <leafValues>
        -7.6431858539581299e-01 1.9525766372680664e-01</leafValues></_>
    <_>
      <internalNodes>
        0 -1 59489 1.4602919691242278e-04</internalNodes>
      <leafValues>
        1.3129183650016785e-01 -7.6993536949157715e-01</leafValues></_></weakClassifiers></stage4>
</opencv_storage>
