<?xml version="1.0"?>
<opencv_storage>
<stage1>
  <maxWeakCount>6</maxWeakCount>
  <stageThreshold>-1.8436810970306396e+00</stageThreshold>
  <weakClassifiers>
    <_>
      <internalNodes>
        0 -1 3627 1.2054333090782166e-01</internalNodes>
      <leafValues>
        -8.3650189638137817e-01 5.4054051637649536e-01</leafValues></_>
    <_>
      <internalNodes>
        0 -1 99709 2.3562708869576454e-02</internalNodes>
      <leafValues>
        -6.0672241449356079e-01 4.1386753320693970e-01</leafValues></_>
    <_>
      <internalNodes>
        0 -1 14698 4.8188589513301849e-02</internalNodes>
      <leafValues>
        -5.4393374919891357e-01 4.6111166477203369e-01</leafValues></_>
    <_>
      <internalNodes>
        0 -1 58625 -3.7406054325401783e-03</internalNodes>
      <leafValues>
        2.9004824161529541e-01 -8.4215551614761353e-01</leafValues></_>
    <_>
      <internalNodes>
        0 -1 150238 6.2178755179047585e-03</internalNodes>
      <leafValues>
        -5.7252937555313110e-01 4.0378963947296143e-01</leafValues></_>
    <_>
      <internalNodes>
        0 -1 155487 -6.1680753715336323e-03</internalNodes>
      <leafValues>
        5.6624388694763184e-01 -4.2320251464843750e-01</leafValues></_></weakClassifiers></stage1>
</opencv_storage>
