<?xml version="1.0"?>
<opencv_storage>
<stage5>
  <maxWeakCount>6</maxWeakCount>
  <stageThreshold>-1.9724167585372925e+00</stageThreshold>
  <weakClassifiers>
    <_>
      <internalNodes>
        0 -1 141369 -9.9236797541379929e-03</internalNodes>
      <leafValues>
        -5.4545454680919647e-02 -8.4864866733551025e-01</leafValues></_>
    <_>
      <internalNodes>
        0 -1 54327 -1.3697696849703789e-02</internalNodes>
      <leafValues>
        2.4647209048271179e-01 -6.3077646493911743e-01</leafValues></_>
    <_>
      <internalNodes>
        0 -1 136157 1.6542284356546588e-05</internalNodes>
      <leafValues>
        -8.5107302665710449e-01 2.1546548604965210e-01</leafValues></_>
    <_>
      <internalNodes>
        0 -1 137138 -3.3550325315445662e-04</internalNodes>
      <leafValues>
        2.8154814243316650e-01 -7.4891012907028198e-01</leafValues></_>
    <_>
      <internalNodes>
        0 -1 5042 1.5425295569002628e-02</internalNodes>
      <leafValues>
        -3.2972446084022522e-01 6.9141411781311035e-01</leafValues></_>
    <_>
      <internalNodes>
        0 -1 118354 -2.4089864455163479e-03</internalNodes>
      <leafValues>
        3.4726178646087646e-01 -6.5096116065979004e-01</leafValues></_></weakClassifiers></stage5>
</opencv_storage>
