<?xml version="1.0"?>
<opencv_storage>
<stage1>
  <maxWeakCount>7</maxWeakCount>
  <stageThreshold>-1.8748785257339478e+00</stageThreshold>
  <weakClassifiers>
    <_>
      <internalNodes>
        0 -1 592 2.8738471865653992e-01</internalNodes>
      <leafValues>
        -8.1220656633377075e-01 4.8148149251937866e-01</leafValues></_>
    <_>
      <internalNodes>
        0 -1 123545 9.8255984485149384e-03</internalNodes>
      <leafValues>
        -6.7897337675094604e-01 2.6903647184371948e-01</leafValues></_>
    <_>
      <internalNodes>
        0 -1 15491 1.7635796219110489e-02</internalNodes>
      <leafValues>
        -5.2245867252349854e-01 4.7941362857818604e-01</leafValues></_>
    <_>
      <internalNodes>
        0 -1 20046 3.9079293608665466e-02</internalNodes>
      <leafValues>
        -6.2900841236114502e-01 4.1086566448211670e-01</leafValues></_>
    <_>
      <internalNodes>
        0 -1 83373 1.5304445289075375e-02</internalNodes>
      <leafValues>
        -3.6522477865219116e-01 5.1681953668594360e-01</leafValues></_>
    <_>
      <internalNodes>
        0 -1 115369 1.0310970246791840e-01</internalNodes>
      <leafValues>
        -2.7234196662902832e-01 7.0014017820358276e-01</leafValues></_>
    <_>
      <internalNodes>
        0 -1 133690 -2.5116968899965286e-03</internalNodes>
      <leafValues>
        4.5821914076805115e-01 -4.2471891641616821e-01</leafValues></_></weakClassifiers></stage1>
</opencv_storage>
