<?xml version="1.0"?>
<opencv_storage>
<stage2>
  <maxWeakCount>6</maxWeakCount>
  <stageThreshold>-1.7997940778732300e+00</stageThreshold>
  <weakClassifiers>
    <_>
      <internalNodes>
        0 -1 139908 -1.3993385434150696e-01</internalNodes>
      <leafValues>
        5.5102038383483887e-01 -8.3665716648101807e-01</leafValues></_>
    <_>
      <internalNodes>
        0 -1 13708 1.0048336535692215e-01</internalNodes>
      <leafValues>
        -6.3067257404327393e-01 5.5348807573318481e-01</leafValues></_>
    <_>
      <internalNodes>
        0 -1 64844 -1.1588756740093231e-01</internalNodes>
      <leafValues>
        8.2067149877548218e-01 -3.4117662906646729e-01</leafValues></_>
    <_>
      <internalNodes>
        0 -1 27886 -1.0103862732648849e-03</internalNodes>
      <leafValues>
        -8.9921712875366211e-01 2.6743677258491516e-01</leafValues></_>
    <_>
      <internalNodes>
        0 -1 37923 7.2833155281841755e-03</internalNodes>
      <leafValues>
        -3.9655023813247681e-01 5.1252758502960205e-01</leafValues></_>
    <_>
      <internalNodes>
        0 -1 153851 1.1292951239738613e-04</internalNodes>
      <leafValues>
        -7.7125209569931030e-01 2.4517381191253662e-01</leafValues></_></weakClassifiers></stage2>
</opencv_storage>
