<?xml version="1.0"?>
<opencv_storage>
<stage4>
  <maxWeakCount>8</maxWeakCount>
  <stageThreshold>-1.7610104084014893e+00</stageThreshold>
  <weakClassifiers>
    <_>
      <internalNodes>
        0 -1 1656 2.7078270912170410e-01</internalNodes>
      <leafValues>
        -7.9487180709838867e-01 6.2962961196899414e-01</leafValues></_>
    <_>
      <internalNodes>
        0 -1 150018 -3.8592480123043060e-02</internalNodes>
      <leafValues>
        3.4088546037673950e-01 -5.7333588600158691e-01</leafValues></_>
    <_>
      <internalNodes>
        0 -1 70267 -2.0979887267458253e-05</internalNodes>
      <leafValues>
        2.5321480631828308e-01 -5.8360934257507324e-01</leafValues></_>
    <_>
      <internalNodes>
        0 -1 81530 -2.2586523555219173e-03</internalNodes>
      <leafValues>
        -9.0475773811340332e-01 1.5771614015102386e-01</leafValues></_>
    <_>
      <internalNodes>
        0 -1 80802 3.4939746838063002e-03</internalNodes>
      <leafValues>
        2.1788305044174194e-01 -8.0605041980743408e-01</leafValues></_>
    <_>
      <internalNodes>
        0 -1 74178 1.2422192841768265e-02</internalNodes>
      <leafValues>
        -4.1653952002525330e-01 3.9770597219467163e-01</leafValues></_>
    <_>
      <internalNodes>
        0 -1 96150 -3.3260844647884369e-03</internalNodes>
      <leafValues>
        2.8861421346664429e-01 -5.5944210290908813e-01</leafValues></_>
    <_>
      <internalNodes>
        0 -1 115599 7.7358027920126915e-03</internalNodes>
      <leafValues>
        1.5282076597213745e-01 -9.2167872190475464e-01</leafValues></_></weakClassifiers></stage4>
</opencv_storage>
