<?xml version="1.0"?>
<opencv_storage>
<stage9>
  <maxWeakCount>9</maxWeakCount>
  <stageThreshold>-1.8507329225540161e+00</stageThreshold>
  <weakClassifiers>
    <_>
      <internalNodes>
        0 -1 12338 6.1341658234596252e-02</internalNodes>
      <leafValues>
        -7.9125249385833740e-01 -2.5906736031174660e-02</leafValues></_>
    <_>
      <internalNodes>
        0 -1 73664 -8.8456876575946808e-02</internalNodes>
      <leafValues>
        2.6378196477890015e-01 -6.1686033010482788e-01</leafValues></_>
    <_>
      <internalNodes>
        0 -1 18884 1.1191429570317268e-02</internalNodes>
      <leafValues>
        -4.9697852134704590e-01 3.5411110520362854e-01</leafValues></_>
    <_>
      <internalNodes>
        0 -1 153033 -3.6667041480541229e-02</internalNodes>
      <leafValues>
        5.2327799797058105e-01 -3.7915515899658203e-01</leafValues></_>
    <_>
      <internalNodes>
        0 -1 81525 -1.0790037922561169e-03</internalNodes>
      <leafValues>
        -8.4612745046615601e-01 1.8797053396701813e-01</leafValues></_>
    <_>
      <internalNodes>
        0 -1 114909 1.7330758273601532e-02</internalNodes>
      <leafValues>
        -4.9432662129402161e-01 2.9426968097686768e-01</leafValues></_>
    <_>
      <internalNodes>
        0 -1 61284 1.8488093701307662e-05</internalNodes>
      <leafValues>
        -5.6815767288208008e-01 2.4635544419288635e-01</leafValues></_>
    <_>
      <internalNodes>
        0 -1 133557 3.4300486731808633e-05</internalNodes>
      <leafValues>
        -5.0342446565628052e-01 2.9684370756149292e-01</leafValues></_>
    <_>
      <internalNodes>
        0 -1 46415 9.0967193245887756e-03</internalNodes>
      <leafValues>
        2.0834238827228546e-01 -6.8868583440780640e-01</leafValues></_></weakClassifiers></stage9>
</opencv_storage>
