<?xml version="1.0"?>
<opencv_storage>
<stage5>
  <maxWeakCount>9</maxWeakCount>
  <stageThreshold>-1.8117437362670898e+00</stageThreshold>
  <weakClassifiers>
    <_>
      <internalNodes>
        0 -1 64814 -1.1691108345985413e-01</internalNodes>
      <leafValues>
        1.7880794405937195e-01 -7.9007631540298462e-01</leafValues></_>
    <_>
      <internalNodes>
        0 -1 149322 -7.5894668698310852e-02</internalNodes>
      <leafValues>
        4.0362533926963806e-01 -6.0992228984832764e-01</leafValues></_>
    <_>
      <internalNodes>
        0 -1 16418 2.8806801885366440e-02</internalNodes>
      <leafValues>
        -4.8401254415512085e-01 4.6331498026847839e-01</leafValues></_>
    <_>
      <internalNodes>
        0 -1 141873 2.7191806584596634e-02</internalNodes>
      <leafValues>
        -5.5173295736312866e-01 3.7229302525520325e-01</leafValues></_>
    <_>
      <internalNodes>
        0 -1 28809 -3.7677162326872349e-03</internalNodes>
      <leafValues>
        3.2677432894706726e-01 -5.8846598863601685e-01</leafValues></_>
    <_>
      <internalNodes>
        0 -1 12271 -1.6983661800622940e-02</internalNodes>
      <leafValues>
        5.7967901229858398e-01 -3.5261148214340210e-01</leafValues></_>
    <_>
      <internalNodes>
        0 -1 58125 1.1125722085125744e-04</internalNodes>
      <leafValues>
        -6.0544031858444214e-01 3.1247571110725403e-01</leafValues></_>
    <_>
      <internalNodes>
        0 -1 90629 -1.1119386181235313e-03</internalNodes>
      <leafValues>
        -9.3251299858093262e-01 1.6378180682659149e-01</leafValues></_>
    <_>
      <internalNodes>
        0 -1 15912 4.2095683515071869e-02</internalNodes>
      <leafValues>
        1.7358006536960602e-01 -8.1896823644638062e-01</leafValues></_></weakClassifiers></stage5>
</opencv_storage>
