<?xml version="1.0"?>
<opencv_storage>
<stage5>
  <maxWeakCount>9</maxWeakCount>
  <stageThreshold>-1.3203625679016113e+00</stageThreshold>
  <weakClassifiers>
    <_>
      <internalNodes>
        0 -1 75609 -4.5877516269683838e-02</internalNodes>
      <leafValues>
        9.4972066581249237e-02 -8.0019587278366089e-01</leafValues></_>
    <_>
      <internalNodes>
        0 -1 152554 -4.5186933130025864e-02</internalNodes>
      <leafValues>
        4.3572705984115601e-01 -5.1814550161361694e-01</leafValues></_>
    <_>
      <internalNodes>
        0 -1 76454 8.8226543739438057e-03</internalNodes>
      <leafValues>
        -6.9738239049911499e-01 2.1422801911830902e-01</leafValues></_>
    <_>
      <internalNodes>
        0 -1 26983 3.0322827398777008e-02</internalNodes>
      <leafValues>
        -3.3997121453285217e-01 5.0241208076477051e-01</leafValues></_>
    <_>
      <internalNodes>
        0 -1 145049 2.7449725894257426e-04</internalNodes>
      <leafValues>
        2.5871878862380981e-01 -6.9686394929885864e-01</leafValues></_>
    <_>
      <internalNodes>
        0 -1 148246 -3.3005599398165941e-03</internalNodes>
      <leafValues>
        4.5748773217201233e-01 -3.6138451099395752e-01</leafValues></_>
    <_>
      <internalNodes>
        0 -1 108012 7.5744907371699810e-04</internalNodes>
      <leafValues>
        1.6977402567863464e-01 -9.6668994426727295e-01</leafValues></_>
    <_>
      <internalNodes>
        0 -1 126232 1.2563837226480246e-03</internalNodes>
      <leafValues>
        -4.0639477968215942e-01 3.6487561464309692e-01</leafValues></_>
    <_>
      <internalNodes>
        0 -1 72999 6.5385445952415466e-02</internalNodes>
      <leafValues>
        -2.1381348371505737e-01 6.8529403209686279e-01</leafValues></_></weakClassifiers></stage5>
</opencv_storage>
