<?xml version="1.0"?>
<opencv_storage>
<stage4>
  <maxWeakCount>7</maxWeakCount>
  <stageThreshold>-1.9454568624496460e+00</stageThreshold>
  <weakClassifiers>
    <_>
      <internalNodes>
        0 -1 1656 2.7078557014465332e-01</internalNodes>
      <leafValues>
        -8.2061070203781128e-01 3.9072847366333008e-01</leafValues></_>
    <_>
      <internalNodes>
        0 -1 67129 2.5735162198543549e-02</internalNodes>
      <leafValues>
        -6.3890594244003296e-01 3.7477356195449829e-01</leafValues></_>
    <_>
      <internalNodes>
        0 -1 587 1.0785737633705139e-01</internalNodes>
      <leafValues>
        -7.2130596637725830e-01 3.4458568692207336e-01</leafValues></_>
    <_>
      <internalNodes>
        0 -1 17385 3.0595571734011173e-03</internalNodes>
      <leafValues>
        -6.4212781190872192e-01 2.6640355587005615e-01</leafValues></_>
    <_>
      <internalNodes>
        0 -1 153802 -2.6816106401383877e-04</internalNodes>
      <leafValues>
        -8.1217682361602783e-01 2.4169500172138214e-01</leafValues></_>
    <_>
      <internalNodes>
        0 -1 47638 1.7734888941049576e-02</internalNodes>
      <leafValues>
        -5.3643119335174561e-01 3.6210954189300537e-01</leafValues></_>
    <_>
      <internalNodes>
        0 -1 140430 -1.0330167133361101e-03</internalNodes>
      <leafValues>
        -7.7194589376449585e-01 2.7368900179862976e-01</leafValues></_></weakClassifiers></stage4>
</opencv_storage>
