<?xml version="1.0"?>
<opencv_storage>
<stage8>
  <maxWeakCount>7</maxWeakCount>
  <stageThreshold>-1.7112516164779663e+00</stageThreshold>
  <weakClassifiers>
    <_>
      <internalNodes>
        0 -1 54826 -3.6891952157020569e-02</internalNodes>
      <leafValues>
        -1.6819572448730469e-01 -8.5550457239151001e-01</leafValues></_>
    <_>
      <internalNodes>
        0 -1 128016 -8.2854498177766800e-03</internalNodes>
      <leafValues>
        3.0486044287681580e-01 -5.4173809289932251e-01</leafValues></_>
    <_>
      <internalNodes>
        0 -1 70417 -3.5852717701345682e-05</internalNodes>
      <leafValues>
        2.7810493111610413e-01 -5.5911058187484741e-01</leafValues></_>
    <_>
      <internalNodes>
        0 -1 154643 -4.0670427551958710e-05</internalNodes>
      <leafValues>
        2.6832193136215210e-01 -5.7429993152618408e-01</leafValues></_>
    <_>
      <internalNodes>
        0 -1 98653 4.5418928493745625e-05</internalNodes>
      <leafValues>
        -5.0755763053894043e-01 3.1526157259941101e-01</leafValues></_>
    <_>
      <internalNodes>
        0 -1 81312 2.7403134852647781e-02</internalNodes>
      <leafValues>
        -6.9932395219802856e-01 2.3205722868442535e-01</leafValues></_>
    <_>
      <internalNodes>
        0 -1 147821 -3.6565725167747587e-05</internalNodes>
      <leafValues>
        2.9366949200630188e-01 -5.0015276670455933e-01</leafValues></_></weakClassifiers></stage8>
</opencv_storage>
