<?xml version="1.0"?>
<opencv_storage>
<stage6>
  <maxWeakCount>9</maxWeakCount>
  <stageThreshold>-1.8290084600448608e+00</stageThreshold>
  <weakClassifiers>
    <_>
      <internalNodes>
        0 -1 139425 3.3469714224338531e-02</internalNodes>
      <leafValues>
        -7.8461539745330811e-01 1.0000000149011612e-01</leafValues></_>
    <_>
      <internalNodes>
        0 -1 72576 3.9538845419883728e-02</internalNodes>
      <leafValues>
        -5.9735494852066040e-01 3.2601895928382874e-01</leafValues></_>
    <_>
      <internalNodes>
        0 -1 29534 3.8330093957483768e-03</internalNodes>
      <leafValues>
        -3.9787527918815613e-01 5.4431724548339844e-01</leafValues></_>
    <_>
      <internalNodes>
        0 -1 59799 4.3289824388921261e-03</internalNodes>
      <leafValues>
        -3.5549867153167725e-01 4.3057131767272949e-01</leafValues></_>
    <_>
      <internalNodes>
        0 -1 120590 6.7553116241469979e-04</internalNodes>
      <leafValues>
        -2.6676061749458313e-01 5.5166488885879517e-01</leafValues></_>
    <_>
      <internalNodes>
        0 -1 116812 1.9889574497938156e-02</internalNodes>
      <leafValues>
        -4.6858417987823486e-01 3.3203643560409546e-01</leafValues></_>
    <_>
      <internalNodes>
        0 -1 58682 -1.2314501218497753e-03</internalNodes>
      <leafValues>
        2.2914043068885803e-01 -7.3383808135986328e-01</leafValues></_>
    <_>
      <internalNodes>
        0 -1 152033 -1.7192028462886810e-02</internalNodes>
      <leafValues>
        3.9442715048789978e-01 -3.9426985383033752e-01</leafValues></_>
    <_>
      <internalNodes>
        0 -1 45028 4.5150760561227798e-03</internalNodes>
      <leafValues>
        -3.3910718560218811e-01 4.2074009776115417e-01</leafValues></_></weakClassifiers></stage6>
</opencv_storage>
