<?xml version="1.0"?>
<opencv_storage>
<stage15>
  <maxWeakCount>12</maxWeakCount>
  <stageThreshold>-1.6530754566192627e+00</stageThreshold>
  <weakClassifiers>
    <_>
      <internalNodes>
        0 -1 113874 -1.0400164872407913e-02</internalNodes>
      <leafValues>
        8.6956523358821869e-02 -7.2924184799194336e-01</leafValues></_>
    <_>
      <internalNodes>
        0 -1 29715 -1.6984476242214441e-03</internalNodes>
      <leafValues>
        -8.4938555955886841e-01 -3.6774899810552597e-02</leafValues></_>
    <_>
      <internalNodes>
        0 -1 133266 1.0297682601958513e-03</internalNodes>
      <leafValues>
        -2.1194289624691010e-01 4.8350277543067932e-01</leafValues></_>
    <_>
      <internalNodes>
        0 -1 154934 -5.4668355733156204e-03</internalNodes>
      <leafValues>
        3.4531208872795105e-01 -2.6462417840957642e-01</leafValues></_>
    <_>
      <internalNodes>
        0 -1 30411 -1.0213717818260193e-02</internalNodes>
      <leafValues>
        -7.6833766698837280e-01 1.2256427109241486e-01</leafValues></_>
    <_>
      <internalNodes>
        0 -1 7882 1.3675820082426071e-02</internalNodes>
      <leafValues>
        -4.6938467025756836e-01 2.4169263243675232e-01</leafValues></_>
    <_>
      <internalNodes>
        0 -1 129378 -3.3472548238933086e-05</internalNodes>
      <leafValues>
        2.3330041766166687e-01 -3.8655897974967957e-01</leafValues></_>
    <_>
      <internalNodes>
        0 -1 157005 1.4390973956324160e-04</internalNodes>
      <leafValues>
        1.9695486128330231e-01 -4.7456845641136169e-01</leafValues></_>
    <_>
      <internalNodes>
        0 -1 47871 -1.3370069209486246e-03</internalNodes>
      <leafValues>
        -8.3097171783447266e-01 1.1774431169033051e-01</leafValues></_>
    <_>
      <internalNodes>
        0 -1 57951 -2.2946955636143684e-02</internalNodes>
      <leafValues>
        -6.9747465848922729e-01 1.0622423142194748e-01</leafValues></_>
    <_>
      <internalNodes>
        0 -1 151558 1.5823723515495658e-04</internalNodes>
      <leafValues>
        2.2008134424686432e-01 -3.7938442826271057e-01</leafValues></_>
    <_>
      <internalNodes>
        0 -1 127564 -1.1529456824064255e-03</internalNodes>
      <leafValues>
        3.3301272988319397e-01 -3.1115576624870300e-01</leafValues></_></weakClassifiers></stage15>
</opencv_storage>
