<?xml version="1.0"?>
<opencv_storage>
<stage13>
  <maxWeakCount>13</maxWeakCount>
  <stageThreshold>-1.6032242774963379e+00</stageThreshold>
  <weakClassifiers>
    <_>
      <internalNodes>
        0 -1 113985 -6.9289850071072578e-03</internalNodes>
      <leafValues>
        -6.4220182597637177e-02 -7.2685611248016357e-01</leafValues></_>
    <_>
      <internalNodes>
        0 -1 70430 -1.1512168566696346e-04</internalNodes>
      <leafValues>
        7.1589969098567963e-02 -5.8759588003158569e-01</leafValues></_>
    <_>
      <internalNodes>
        0 -1 82223 2.8025046922266483e-03</internalNodes>
      <leafValues>
        1.0458934307098389e-01 -7.2917366027832031e-01</leafValues></_>
    <_>
      <internalNodes>
        0 -1 146234 4.8732217401266098e-03</internalNodes>
      <leafValues>
        -4.2430892586708069e-01 2.2399149835109711e-01</leafValues></_>
    <_>
      <internalNodes>
        0 -1 159813 1.8629810074344277e-04</internalNodes>
      <leafValues>
        2.0738369226455688e-01 -4.3735095858573914e-01</leafValues></_>
    <_>
      <internalNodes>
        0 -1 14806 7.1791246533393860e-02</internalNodes>
      <leafValues>
        -1.9750709831714630e-01 4.7760283946990967e-01</leafValues></_>
    <_>
      <internalNodes>
        0 -1 36044 -3.0654526781290770e-03</internalNodes>
      <leafValues>
        1.9363957643508911e-01 -4.7958472371101379e-01</leafValues></_>
    <_>
      <internalNodes>
        0 -1 33007 7.6794326305389404e-02</internalNodes>
      <leafValues>
        9.8970256745815277e-02 -8.7477016448974609e-01</leafValues></_>
    <_>
      <internalNodes>
        0 -1 98828 2.4945294484496117e-02</internalNodes>
      <leafValues>
        -1.9460062682628632e-01 4.7323921322822571e-01</leafValues></_>
    <_>
      <internalNodes>
        0 -1 113941 3.6485891323536634e-03</internalNodes>
      <leafValues>
        1.1559996753931046e-01 -8.8081789016723633e-01</leafValues></_>
    <_>
      <internalNodes>
        0 -1 151970 1.4651525998488069e-03</internalNodes>
      <leafValues>
        -3.1732168793678284e-01 2.7898412942886353e-01</leafValues></_>
    <_>
      <internalNodes>
        0 -1 85200 4.5620530843734741e-02</internalNodes>
      <leafValues>
        -1.3036784529685974e-01 7.3436295986175537e-01</leafValues></_>
    <_>
      <internalNodes>
        0 -1 104024 -8.8752986630424857e-04</internalNodes>
      <leafValues>
        4.4398540258407593e-01 -2.1857219934463501e-01</leafValues></_></weakClassifiers></stage13>
</opencv_storage>
