<?xml version="1.0"?>
<opencv_storage>
<stage12>
  <maxWeakCount>12</maxWeakCount>
  <stageThreshold>-1.6818635463714600e+00</stageThreshold>
  <weakClassifiers>
    <_>
      <internalNodes>
        0 -1 150530 2.6703001931309700e-03</internalNodes>
      <leafValues>
        -7.8073090314865112e-01 -3.1986531615257263e-01</leafValues></_>
    <_>
      <internalNodes>
        0 -1 144259 -8.2086538895964622e-03</internalNodes>
      <leafValues>
        2.2622838616371155e-01 -3.9407283067703247e-01</leafValues></_>
    <_>
      <internalNodes>
        0 -1 3204 6.3247955404222012e-04</internalNodes>
      <leafValues>
        1.5140166878700256e-01 -5.8548003435134888e-01</leafValues></_>
    <_>
      <internalNodes>
        0 -1 115526 -1.3390693347901106e-03</internalNodes>
      <leafValues>
        -7.8415244817733765e-01 1.4424534142017365e-01</leafValues></_>
    <_>
      <internalNodes>
        0 -1 17258 5.3025493398308754e-03</internalNodes>
      <leafValues>
        -3.2442426681518555e-01 2.9743915796279907e-01</leafValues></_>
    <_>
      <internalNodes>
        0 -1 25042 -1.2034690007567406e-02</internalNodes>
      <leafValues>
        4.4536930322647095e-01 -1.9135044515132904e-01</leafValues></_>
    <_>
      <internalNodes>
        0 -1 160603 2.8503958601504564e-03</internalNodes>
      <leafValues>
        1.0422886908054352e-01 -9.0795838832855225e-01</leafValues></_>
    <_>
      <internalNodes>
        0 -1 120618 3.3158641308546066e-03</internalNodes>
      <leafValues>
        -1.9404570758342743e-01 5.6844830513000488e-01</leafValues></_>
    <_>
      <internalNodes>
        0 -1 79802 -4.8303473740816116e-03</internalNodes>
      <leafValues>
        5.9476059675216675e-01 -1.6962313652038574e-01</leafValues></_>
    <_>
      <internalNodes>
        0 -1 52753 6.0566097497940063e-02</internalNodes>
      <leafValues>
        -1.5789584815502167e-01 5.8163380622863770e-01</leafValues></_>
    <_>
      <internalNodes>
        0 -1 17874 -6.1826050281524658e-02</internalNodes>
      <leafValues>
        4.4248887896537781e-01 -2.0235756039619446e-01</leafValues></_>
    <_>
      <internalNodes>
        0 -1 103035 4.2660370469093323e-02</internalNodes>
      <leafValues>
        1.7999225854873657e-01 -6.6910707950592041e-01</leafValues></_></weakClassifiers></stage12>
</opencv_storage>
