<?xml version="1.0"?>
<opencv_storage>
<stage17>
  <maxWeakCount>14</maxWeakCount>
  <stageThreshold>-1.4932622909545898e+00</stageThreshold>
  <weakClassifiers>
    <_>
      <internalNodes>
        0 -1 106358 -1.4415640383958817e-02</internalNodes>
      <leafValues>
        3.0612245202064514e-01 -7.0807993412017822e-01</leafValues></_>
    <_>
      <internalNodes>
        0 -1 155298 -8.1794587895274162e-03</internalNodes>
      <leafValues>
        1.0390507429838181e-01 -4.6337196230888367e-01</leafValues></_>
    <_>
      <internalNodes>
        0 -1 141529 2.1857993677258492e-02</internalNodes>
      <leafValues>
        -3.9530345797538757e-01 1.6986781358718872e-01</leafValues></_>
    <_>
      <internalNodes>
        0 -1 120022 2.4565458297729492e-03</internalNodes>
      <leafValues>
        -2.0434254407882690e-01 3.3977189660072327e-01</leafValues></_>
    <_>
      <internalNodes>
        0 -1 112452 -1.7363272607326508e-02</internalNodes>
      <leafValues>
        6.9110375642776489e-01 -8.6966887116432190e-02</leafValues></_>
    <_>
      <internalNodes>
        0 -1 70753 4.0102358907461166e-03</internalNodes>
      <leafValues>
        1.1531266570091248e-01 -6.5248370170593262e-01</leafValues></_>
    <_>
      <internalNodes>
        0 -1 70762 -3.5730013623833656e-03</internalNodes>
      <leafValues>
        -7.5571548938751221e-01 1.0370096564292908e-01</leafValues></_>
    <_>
      <internalNodes>
        0 -1 55564 2.1617431193590164e-03</internalNodes>
      <leafValues>
        -2.6337629556655884e-01 2.6101431250572205e-01</leafValues></_>
    <_>
      <internalNodes>
        0 -1 109946 3.6252316087484360e-02</internalNodes>
      <leafValues>
        1.1564467102289200e-01 -6.6924613714218140e-01</leafValues></_>
    <_>
      <internalNodes>
        0 -1 109132 1.8626134842634201e-03</internalNodes>
      <leafValues>
        7.8510321676731110e-02 -6.9662165641784668e-01</leafValues></_>
    <_>
      <internalNodes>
        0 -1 85347 1.3977481052279472e-02</internalNodes>
      <leafValues>
        -1.3523110747337341e-01 5.8443695306777954e-01</leafValues></_>
    <_>
      <internalNodes>
        0 -1 162046 -8.9524532086215913e-05</internalNodes>
      <leafValues>
        -3.3642923831939697e-01 2.3641686141490936e-01</leafValues></_>
    <_>
      <internalNodes>
        0 -1 35583 -9.6567198634147644e-03</internalNodes>
      <leafValues>
        -7.4915939569473267e-01 9.8780147731304169e-02</leafValues></_>
    <_>
      <internalNodes>
        0 -1 49660 -8.3963274955749512e-03</internalNodes>
      <leafValues>
        2.5773230195045471e-01 -2.8962689638137817e-01</leafValues></_></weakClassifiers></stage17>
</opencv_storage>
