<?xml version="1.0"?>
<opencv_storage>
<stage17>
  <maxWeakCount>16</maxWeakCount>
  <stageThreshold>-1.6029075384140015e+00</stageThreshold>
  <weakClassifiers>
    <_>
      <internalNodes>
        0 -1 113206 -8.3410497754812241e-03</internalNodes>
      <leafValues>
        1.0112359374761581e-01 -7.2817283868789673e-01</leafValues></_>
    <_>
      <internalNodes>
        0 -1 155298 -4.3474663980305195e-03</internalNodes>
      <leafValues>
        4.8845343291759491e-02 -5.8605414628982544e-01</leafValues></_>
    <_>
      <internalNodes>
        0 -1 150155 6.1602392233908176e-03</internalNodes>
      <leafValues>
        -4.1850483417510986e-01 1.8847289681434631e-01</leafValues></_>
    <_>
      <internalNodes>
        0 -1 106404 7.0400945842266083e-03</internalNodes>
      <leafValues>
        -9.7858503460884094e-02 6.7192047834396362e-01</leafValues></_>
    <_>
      <internalNodes>
        0 -1 113823 4.0253913030028343e-03</internalNodes>
      <leafValues>
        -1.3416334986686707e-01 5.9212392568588257e-01</leafValues></_>
    <_>
      <internalNodes>
        0 -1 61124 -1.3907006010413170e-02</internalNodes>
      <leafValues>
        9.1273486614227295e-01 -9.0150021016597748e-02</leafValues></_>
    <_>
      <internalNodes>
        0 -1 17256 1.4051919803023338e-02</internalNodes>
      <leafValues>
        -2.1352417767047882e-01 3.7517806887626648e-01</leafValues></_>
    <_>
      <internalNodes>
        0 -1 55235 3.6237910389900208e-03</internalNodes>
      <leafValues>
        2.1041829884052277e-01 -4.1647815704345703e-01</leafValues></_>
    <_>
      <internalNodes>
        0 -1 138458 1.5878427075222135e-04</internalNodes>
      <leafValues>
        -2.9774203896522522e-01 2.9215431213378906e-01</leafValues></_>
    <_>
      <internalNodes>
        0 -1 142423 -1.2735247611999512e-02</internalNodes>
      <leafValues>
        -7.8141343593597412e-01 1.2034504115581512e-01</leafValues></_>
    <_>
      <internalNodes>
        0 -1 106677 -1.9614067859947681e-03</internalNodes>
      <leafValues>
        -8.2534033060073853e-01 8.4986366331577301e-02</leafValues></_>
    <_>
      <internalNodes>
        0 -1 45558 5.6855511502362788e-05</internalNodes>
      <leafValues>
        2.0101641118526459e-01 -4.1182380914688110e-01</leafValues></_>
    <_>
      <internalNodes>
        0 -1 64268 3.3804251870606095e-05</internalNodes>
      <leafValues>
        -4.5120564103126526e-01 1.9017049670219421e-01</leafValues></_>
    <_>
      <internalNodes>
        0 -1 48560 7.6407231390476227e-03</internalNodes>
      <leafValues>
        -3.1719636917114258e-01 2.6997050642967224e-01</leafValues></_>
    <_>
      <internalNodes>
        0 -1 111834 -1.8013927619904280e-03</internalNodes>
      <leafValues>
        4.0085199475288391e-01 -2.2248639166355133e-01</leafValues></_>
    <_>
      <internalNodes>
        0 -1 120915 -2.0837425254285336e-03</internalNodes>
      <leafValues>
        -7.6302713155746460e-01 1.4323998987674713e-01</leafValues></_></weakClassifiers></stage17>
</opencv_storage>
