<?xml version="1.0"?>
<opencv_storage>
<stage18>
  <maxWeakCount>9</maxWeakCount>
  <stageThreshold>-1.4998605251312256e+00</stageThreshold>
  <weakClassifiers>
    <_>
      <internalNodes>
        0 -1 85397 2.3686487227678299e-02</internalNodes>
      <leafValues>
        -7.7378433942794800e-01 -2.7272728085517883e-01</leafValues></_>
    <_>
      <internalNodes>
        0 -1 138350 -7.6641328632831573e-03</internalNodes>
      <leafValues>
        1.2539188563823700e-01 -4.9605202674865723e-01</leafValues></_>
    <_>
      <internalNodes>
        0 -1 114996 -9.3136657960712910e-04</internalNodes>
      <leafValues>
        -7.3476755619049072e-01 1.0657947510480881e-01</leafValues></_>
    <_>
      <internalNodes>
        0 -1 87920 -5.8771041221916676e-04</internalNodes>
      <leafValues>
        3.5470631718635559e-01 -2.8620594739913940e-01</leafValues></_>
    <_>
      <internalNodes>
        0 -1 142469 7.7929133549332619e-03</internalNodes>
      <leafValues>
        1.2466266006231308e-01 -8.2206261157989502e-01</leafValues></_>
    <_>
      <internalNodes>
        0 -1 44733 -3.2482795417308807e-02</internalNodes>
      <leafValues>
        -6.0226958990097046e-01 1.5573722124099731e-01</leafValues></_>
    <_>
      <internalNodes>
        0 -1 102770 2.9363518115133047e-03</internalNodes>
      <leafValues>
        -3.1447082757949829e-01 3.8629591464996338e-01</leafValues></_>
    <_>
      <internalNodes>
        0 -1 103669 -4.6096583828330040e-03</internalNodes>
      <leafValues>
        4.5723676681518555e-01 -2.3128871619701385e-01</leafValues></_>
    <_>
      <internalNodes>
        0 -1 130536 -6.1561376787722111e-04</internalNodes>
      <leafValues>
        3.1721818447113037e-01 -2.8938743472099304e-01</leafValues></_></weakClassifiers></stage18>
</opencv_storage>
