<?xml version="1.0"?>
<opencv_storage>
<stage11>
  <maxWeakCount>8</maxWeakCount>
  <stageThreshold>-1.6323065757751465e+00</stageThreshold>
  <weakClassifiers>
    <_>
      <internalNodes>
        0 -1 161239 -2.2710926830768585e-02</internalNodes>
      <leafValues>
        3.3333334326744080e-01 -7.4774771928787231e-01</leafValues></_>
    <_>
      <internalNodes>
        0 -1 89089 -2.9973534401506186e-03</internalNodes>
      <leafValues>
        2.3647634685039520e-01 -5.4275643825531006e-01</leafValues></_>
    <_>
      <internalNodes>
        0 -1 111914 -6.1932271346449852e-03</internalNodes>
      <leafValues>
        -8.9982277154922485e-01 1.5873774886131287e-01</leafValues></_>
    <_>
      <internalNodes>
        0 -1 146631 -1.1938887182623148e-03</internalNodes>
      <leafValues>
        -7.6194912195205688e-01 2.0983508229255676e-01</leafValues></_>
    <_>
      <internalNodes>
        0 -1 132945 2.0138629770372063e-04</internalNodes>
      <leafValues>
        -4.9556484818458557e-01 3.2471981644630432e-01</leafValues></_>
    <_>
      <internalNodes>
        0 -1 77231 1.6364830080419779e-03</internalNodes>
      <leafValues>
        -7.9507458209991455e-01 2.1274475753307343e-01</leafValues></_>
    <_>
      <internalNodes>
        0 -1 136559 -1.9117418676614761e-02</internalNodes>
      <leafValues>
        4.4643053412437439e-01 -3.9527606964111328e-01</leafValues></_>
    <_>
      <internalNodes>
        0 -1 117922 -1.1110180057585239e-03</internalNodes>
      <leafValues>
        2.4356219172477722e-01 -6.6001230478286743e-01</leafValues></_></weakClassifiers></stage11>
</opencv_storage>
