<?xml version="1.0"?>
<opencv_storage>
<stage0>
  <maxWeakCount>6</maxWeakCount>
  <stageThreshold>-1.9167929887771606e+00</stageThreshold>
  <weakClassifiers>
    <_>
      <internalNodes>
        0 -1 3627 1.0261186212301254e-01</internalNodes>
      <leafValues>
        -8.7826085090637207e-01 6.6060608625411987e-01</leafValues></_>
    <_>
      <internalNodes>
        0 -1 57853 -1.8327910453081131e-02</internalNodes>
      <leafValues>
        2.3424674570560455e-01 -8.2797783613204956e-01</leafValues></_>
    <_>
      <internalNodes>
        0 -1 146515 4.6202261000871658e-03</internalNodes>
      <leafValues>
        -6.8773764371871948e-01 4.1715431213378906e-01</leafValues></_>
    <_>
      <internalNodes>
        0 -1 16395 1.0352064855396748e-02</internalNodes>
      <leafValues>
        -4.7158154845237732e-01 5.7265353202819824e-01</leafValues></_>
    <_>
      <internalNodes>
        0 -1 141085 -7.6176202856004238e-04</internalNodes>
      <leafValues>
        4.4653180241584778e-01 -5.3511583805084229e-01</leafValues></_>
    <_>
      <internalNodes>
        0 -1 143620 -9.2370687052607536e-03</internalNodes>
      <leafValues>
        4.2165616154670715e-01 -5.1848566532135010e-01</leafValues></_></weakClassifiers></stage0>
</opencv_storage>
