<?xml version="1.0"?>
<opencv_storage>
<stage3>
  <maxWeakCount>7</maxWeakCount>
  <stageThreshold>-1.9113684892654419e+00</stageThreshold>
  <weakClassifiers>
    <_>
      <internalNodes>
        0 -1 149053 -5.8546476066112518e-02</internalNodes>
      <leafValues>
        4.1176471114158630e-01 -8.2425981760025024e-01</leafValues></_>
    <_>
      <internalNodes>
        0 -1 26942 3.0598672106862068e-02</internalNodes>
      <leafValues>
        -5.8953499794006348e-01 4.4235154986381531e-01</leafValues></_>
    <_>
      <internalNodes>
        0 -1 32665 5.7703163474798203e-03</internalNodes>
      <leafValues>
        -5.9837383031845093e-01 3.7812247872352600e-01</leafValues></_>
    <_>
      <internalNodes>
        0 -1 13904 1.3674038648605347e-01</internalNodes>
      <leafValues>
        -3.8393753767013550e-01 5.6891906261444092e-01</leafValues></_>
    <_>
      <internalNodes>
        0 -1 13200 -1.0537559166550636e-02</internalNodes>
      <leafValues>
        5.7850205898284912e-01 -3.2442918419837952e-01</leafValues></_>
    <_>
      <internalNodes>
        0 -1 103661 -3.0760285444557667e-03</internalNodes>
      <leafValues>
        5.3427815437316895e-01 -3.2136347889900208e-01</leafValues></_>
    <_>
      <internalNodes>
        0 -1 70728 -1.4606253243982792e-03</internalNodes>
      <leafValues>
        -9.2975133657455444e-01 2.2759906947612762e-01</leafValues></_></weakClassifiers></stage3>
</opencv_storage>
