<?xml version="1.0"?>
<opencv_storage>
<stage7>
  <maxWeakCount>10</maxWeakCount>
  <stageThreshold>-2.0411481857299805e+00</stageThreshold>
  <weakClassifiers>
    <_>
      <internalNodes>
        0 -1 37934 5.7051852345466614e-02</internalNodes>
      <leafValues>
        -7.9799997806549072e-01 -1.5075377188622952e-02</leafValues></_>
    <_>
      <internalNodes>
        0 -1 140088 -5.8453478850424290e-03</internalNodes>
      <leafValues>
        2.0504857599735260e-01 -7.0239549875259399e-01</leafValues></_>
    <_>
      <internalNodes>
        0 -1 28705 1.2877928093075752e-02</internalNodes>
      <leafValues>
        -3.9270716905593872e-01 5.3609943389892578e-01</leafValues></_>
    <_>
      <internalNodes>
        0 -1 156048 -1.9200041890144348e-02</internalNodes>
      <leafValues>
        4.8378530144691467e-01 -3.3357781171798706e-01</leafValues></_>
    <_>
      <internalNodes>
        0 -1 58245 -5.6916847825050354e-03</internalNodes>
      <leafValues>
        2.3286379873752594e-01 -6.8836623430252075e-01</leafValues></_>
    <_>
      <internalNodes>
        0 -1 149428 -3.7708748131990433e-03</internalNodes>
      <leafValues>
        -6.6679322719573975e-01 2.4099542200565338e-01</leafValues></_>
    <_>
      <internalNodes>
        0 -1 104062 -6.2115839682519436e-04</internalNodes>
      <leafValues>
        3.7981954216957092e-01 -3.6990872025489807e-01</leafValues></_>
    <_>
      <internalNodes>
        0 -1 144071 -1.5717034693807364e-03</internalNodes>
      <leafValues>
        3.3736959099769592e-01 -4.4511201977729797e-01</leafValues></_>
    <_>
      <internalNodes>
        0 -1 139224 -2.6083184638991952e-04</internalNodes>
      <leafValues>
        2.9554080963134766e-01 -5.2885067462921143e-01</leafValues></_>
    <_>
      <internalNodes>
        0 -1 62518 1.4409733936190605e-02</internalNodes>
      <leafValues>
        -4.0852561593055725e-01 4.0265488624572754e-01</leafValues></_></weakClassifiers></stage7>
</opencv_storage>
