<?xml version="1.0"?>
<opencv_storage>
<stage8>
  <maxWeakCount>9</maxWeakCount>
  <stageThreshold>-1.7625626325607300e+00</stageThreshold>
  <weakClassifiers>
    <_>
      <internalNodes>
        0 -1 92986 -4.4326208531856537e-02</internalNodes>
      <leafValues>
        -6.9124422967433929e-02 -7.9857575893402100e-01</leafValues></_>
    <_>
      <internalNodes>
        0 -1 80472 -3.3834547502920032e-04</internalNodes>
      <leafValues>
        1.6324837505817413e-01 -6.6873842477798462e-01</leafValues></_>
    <_>
      <internalNodes>
        0 -1 127973 -2.1157706156373024e-02</internalNodes>
      <leafValues>
        3.9691591262817383e-01 -3.8916021585464478e-01</leafValues></_>
    <_>
      <internalNodes>
        0 -1 157103 -3.1205745472107083e-05</internalNodes>
      <leafValues>
        2.9897743463516235e-01 -4.4211885333061218e-01</leafValues></_>
    <_>
      <internalNodes>
        0 -1 34246 -3.2336197793483734e-02</internalNodes>
      <leafValues>
        -7.7018082141876221e-01 1.9029107689857483e-01</leafValues></_>
    <_>
      <internalNodes>
        0 -1 78951 2.9188054613769054e-03</internalNodes>
      <leafValues>
        -3.6455106735229492e-01 3.7153267860412598e-01</leafValues></_>
    <_>
      <internalNodes>
        0 -1 18866 3.4064711071550846e-03</internalNodes>
      <leafValues>
        -3.1743773818016052e-01 4.0594762563705444e-01</leafValues></_>
    <_>
      <internalNodes>
        0 -1 44052 2.7519891038537025e-02</internalNodes>
      <leafValues>
        1.3473390042781830e-01 -8.9322495460510254e-01</leafValues></_>
    <_>
      <internalNodes>
        0 -1 92398 1.3692791573703289e-02</internalNodes>
      <leafValues>
        -3.9000830054283142e-01 3.3130654692649841e-01</leafValues></_></weakClassifiers></stage8>
</opencv_storage>
