<?xml version="1.0"?>
<opencv_storage>
<stage15>
  <maxWeakCount>11</maxWeakCount>
  <stageThreshold>-1.3276790380477905e+00</stageThreshold>
  <weakClassifiers>
    <_>
      <internalNodes>
        0 -1 127878 -4.5798933133482933e-03</internalNodes>
      <leafValues>
        -3.4203654527664185e-01 -8.2107841968536377e-01</leafValues></_>
    <_>
      <internalNodes>
        0 -1 14316 3.4503126516938210e-03</internalNodes>
      <leafValues>
        -5.9402227401733398e-01 5.9994325041770935e-02</leafValues></_>
    <_>
      <internalNodes>
        0 -1 82201 -2.8249423485249281e-04</internalNodes>
      <leafValues>
        -9.3550139665603638e-01 7.4982784688472748e-02</leafValues></_>
    <_>
      <internalNodes>
        0 -1 120160 -3.3815484493970871e-03</internalNodes>
      <leafValues>
        6.7396843433380127e-01 -1.5318877995014191e-01</leafValues></_>
    <_>
      <internalNodes>
        0 -1 126863 7.9832511255517602e-04</internalNodes>
      <leafValues>
        -1.9658519327640533e-01 5.2414321899414063e-01</leafValues></_>
    <_>
      <internalNodes>
        0 -1 157338 7.2307733353227377e-04</internalNodes>
      <leafValues>
        1.4824797213077545e-01 -7.5327223539352417e-01</leafValues></_>
    <_>
      <internalNodes>
        0 -1 132945 2.6270240778103471e-04</internalNodes>
      <leafValues>
        -2.3693048954010010e-01 4.0592390298843384e-01</leafValues></_>
    <_>
      <internalNodes>
        0 -1 116525 4.7408201498910785e-04</internalNodes>
      <leafValues>
        9.6315212547779083e-02 -8.7591344118118286e-01</leafValues></_>
    <_>
      <internalNodes>
        0 -1 118281 3.7068892270326614e-03</internalNodes>
      <leafValues>
        -1.7663668096065521e-01 5.8689206838607788e-01</leafValues></_>
    <_>
      <internalNodes>
        0 -1 116058 -1.9113277085125446e-03</internalNodes>
      <leafValues>
        4.9748072028160095e-01 -2.3676115274429321e-01</leafValues></_>
    <_>
      <internalNodes>
        0 -1 31114 4.8068520845845342e-04</internalNodes>
      <leafValues>
        -3.6299782991409302e-01 2.8893610835075378e-01</leafValues></_></weakClassifiers></stage15>
</opencv_storage>
