<?xml version="1.0"?>
<opencv_storage>
<stage17>
  <maxWeakCount>13</maxWeakCount>
  <stageThreshold>-1.6926157474517822e+00</stageThreshold>
  <weakClassifiers>
    <_>
      <internalNodes>
        0 -1 95288 8.7951691821217537e-03</internalNodes>
      <leafValues>
        -7.5595235824584961e-01 -2.0418848097324371e-01</leafValues></_>
    <_>
      <internalNodes>
        0 -1 150542 -3.5053710453212261e-03</internalNodes>
      <leafValues>
        1.5747475624084473e-01 -4.6454840898513794e-01</leafValues></_>
    <_>
      <internalNodes>
        0 -1 47889 2.0034634508192539e-03</internalNodes>
      <leafValues>
        -4.9881708621978760e-01 1.8746091425418854e-01</leafValues></_>
    <_>
      <internalNodes>
        0 -1 116105 3.3744950778782368e-03</internalNodes>
      <leafValues>
        8.5409030318260193e-02 -9.5766782760620117e-01</leafValues></_>
    <_>
      <internalNodes>
        0 -1 113823 4.0336875244975090e-03</internalNodes>
      <leafValues>
        -1.8312685191631317e-01 5.5698543787002563e-01</leafValues></_>
    <_>
      <internalNodes>
        0 -1 113801 -4.6576368622481823e-03</internalNodes>
      <leafValues>
        5.8411163091659546e-01 -1.6638571023941040e-01</leafValues></_>
    <_>
      <internalNodes>
        0 -1 141515 -1.0941851884126663e-02</internalNodes>
      <leafValues>
        2.9812127351760864e-01 -3.6128196120262146e-01</leafValues></_>
    <_>
      <internalNodes>
        0 -1 84211 3.6391918547451496e-03</internalNodes>
      <leafValues>
        -2.6990488171577454e-01 3.9645394682884216e-01</leafValues></_>
    <_>
      <internalNodes>
        0 -1 38662 2.9380593448877335e-02</internalNodes>
      <leafValues>
        -3.9767119288444519e-01 2.4039688706398010e-01</leafValues></_>
    <_>
      <internalNodes>
        0 -1 147911 -1.1726981028914452e-02</internalNodes>
      <leafValues>
        -9.7070926427841187e-01 1.2259127199649811e-01</leafValues></_>
    <_>
      <internalNodes>
        0 -1 143775 -3.8086087442934513e-03</internalNodes>
      <leafValues>
        -7.5590890645980835e-01 1.1145207285881042e-01</leafValues></_>
    <_>
      <internalNodes>
        0 -1 119390 6.4230617135763168e-03</internalNodes>
      <leafValues>
        -2.5586903095245361e-01 4.1274881362915039e-01</leafValues></_>
    <_>
      <internalNodes>
        0 -1 120606 -8.2055944949388504e-03</internalNodes>
      <leafValues>
        -9.2928940057754517e-01 1.2305683642625809e-01</leafValues></_></weakClassifiers></stage17>
</opencv_storage>
