<?xml version="1.0"?>
<opencv_storage>
<stage10>
  <maxWeakCount>9</maxWeakCount>
  <stageThreshold>-1.4034289121627808e+00</stageThreshold>
  <weakClassifiers>
    <_>
      <internalNodes>
        0 -1 13889 1.5053778886795044e-01</internalNodes>
      <leafValues>
        -7.5296443700790405e-01 -2.0212766528129578e-01</leafValues></_>
    <_>
      <internalNodes>
        0 -1 135617 6.1584949493408203e-02</internalNodes>
      <leafValues>
        -4.1215524077415466e-01 2.4545581638813019e-01</leafValues></_>
    <_>
      <internalNodes>
        0 -1 146392 1.4488844200968742e-02</internalNodes>
      <leafValues>
        -5.2188116312026978e-01 1.8352843821048737e-01</leafValues></_>
    <_>
      <internalNodes>
        0 -1 115011 2.2126070689409971e-03</internalNodes>
      <leafValues>
        1.4054091274738312e-01 -7.1072798967361450e-01</leafValues></_>
    <_>
      <internalNodes>
        0 -1 122945 -1.9444786012172699e-03</internalNodes>
      <leafValues>
        4.1456323862075806e-01 -2.4016319215297699e-01</leafValues></_>
    <_>
      <internalNodes>
        0 -1 59295 5.2711819298565388e-03</internalNodes>
      <leafValues>
        -4.3754610419273376e-01 2.3753266036510468e-01</leafValues></_>
    <_>
      <internalNodes>
        0 -1 86192 2.7698441408574581e-03</internalNodes>
      <leafValues>
        -2.2581627964973450e-01 4.9618434906005859e-01</leafValues></_>
    <_>
      <internalNodes>
        0 -1 87834 -6.9201570004224777e-03</internalNodes>
      <leafValues>
        2.6003935933113098e-01 -4.2056873440742493e-01</leafValues></_>
    <_>
      <internalNodes>
        0 -1 151438 -8.4545053541660309e-03</internalNodes>
      <leafValues>
        -9.0853977203369141e-01 1.1143846809864044e-01</leafValues></_></weakClassifiers></stage10>
</opencv_storage>
