<?xml version="1.0"?>
<opencv_storage>
<stage11>
  <maxWeakCount>12</maxWeakCount>
  <stageThreshold>-1.5583478212356567e+00</stageThreshold>
  <weakClassifiers>
    <_>
      <internalNodes>
        0 -1 152980 -1.1427870020270348e-02</internalNodes>
      <leafValues>
        -1.9672131538391113e-01 -7.8661090135574341e-01</leafValues></_>
    <_>
      <internalNodes>
        0 -1 27057 -2.3773010820150375e-02</internalNodes>
      <leafValues>
        2.3271760344505310e-01 -4.5148530602455139e-01</leafValues></_>
    <_>
      <internalNodes>
        0 -1 25666 2.8092652559280396e-02</internalNodes>
      <leafValues>
        -3.9564383029937744e-01 3.0867430567741394e-01</leafValues></_>
    <_>
      <internalNodes>
        0 -1 147821 -3.6141202144790441e-05</internalNodes>
      <leafValues>
        2.6001095771789551e-01 -4.0787276625633240e-01</leafValues></_>
    <_>
      <internalNodes>
        0 -1 106048 3.0091833323240280e-03</internalNodes>
      <leafValues>
        -1.7764565348625183e-01 5.1905763149261475e-01</leafValues></_>
    <_>
      <internalNodes>
        0 -1 96737 3.3691052813082933e-03</internalNodes>
      <leafValues>
        -2.8996375203132629e-01 3.4642416238784790e-01</leafValues></_>
    <_>
      <internalNodes>
        0 -1 133747 1.9532800652086735e-03</internalNodes>
      <leafValues>
        1.6477587819099426e-01 -6.1051523685455322e-01</leafValues></_>
    <_>
      <internalNodes>
        0 -1 123151 1.7726603895425797e-02</internalNodes>
      <leafValues>
        -4.8666527867317200e-01 2.1061129868030548e-01</leafValues></_>
    <_>
      <internalNodes>
        0 -1 154064 1.6497645527124405e-02</internalNodes>
      <leafValues>
        1.0063920915126801e-01 -8.4179544448852539e-01</leafValues></_>
    <_>
      <internalNodes>
        0 -1 77286 7.8158583492040634e-03</internalNodes>
      <leafValues>
        -2.5445342063903809e-01 4.3850421905517578e-01</leafValues></_>
    <_>
      <internalNodes>
        0 -1 95111 6.3747083768248558e-03</internalNodes>
      <leafValues>
        -1.7447674274444580e-01 5.3013724088668823e-01</leafValues></_>
    <_>
      <internalNodes>
        0 -1 40584 4.7854937613010406e-02</internalNodes>
      <leafValues>
        -3.0940529704093933e-01 3.7338164448738098e-01</leafValues></_></weakClassifiers></stage11>
</opencv_storage>
