<?xml version="1.0"?>
<opencv_storage>
<stage2>
  <maxWeakCount>6</maxWeakCount>
  <stageThreshold>-1.7897012233734131e+00</stageThreshold>
  <weakClassifiers>
    <_>
      <internalNodes>
        0 -1 592 2.8557324409484863e-01</internalNodes>
      <leafValues>
        -8.4586107730865479e-01 5.9459459781646729e-01</leafValues></_>
    <_>
      <internalNodes>
        0 -1 17283 1.4957387000322342e-02</internalNodes>
      <leafValues>
        -7.4357372522354126e-01 3.9529874920845032e-01</leafValues></_>
    <_>
      <internalNodes>
        0 -1 152552 -1.5861924737691879e-02</internalNodes>
      <leafValues>
        4.7867867350578308e-01 -6.8844789266586304e-01</leafValues></_>
    <_>
      <internalNodes>
        0 -1 84060 -6.0262955725193024e-02</internalNodes>
      <leafValues>
        5.8688664436340332e-01 -4.8191422224044800e-01</leafValues></_>
    <_>
      <internalNodes>
        0 -1 114769 3.7756506353616714e-02</internalNodes>
      <leafValues>
        -5.6629627943038940e-01 4.8150438070297241e-01</leafValues></_>
    <_>
      <internalNodes>
        0 -1 13723 4.5423717238008976e-03</internalNodes>
      <leafValues>
        -4.9234604835510254e-01 4.8859128355979919e-01</leafValues></_></weakClassifiers></stage2>
</opencv_storage>
