<?xml version="1.0"?>
<opencv_storage>
<stage7>
  <maxWeakCount>10</maxWeakCount>
  <stageThreshold>-1.6161382198333740e+00</stageThreshold>
  <weakClassifiers>
    <_>
      <internalNodes>
        0 -1 127681 -8.9326780289411545e-03</internalNodes>
      <leafValues>
        -2.2435897588729858e-01 -8.2207208871841431e-01</leafValues></_>
    <_>
      <internalNodes>
        0 -1 25956 4.0104527026414871e-02</internalNodes>
      <leafValues>
        -4.9719122052192688e-01 2.6928102970123291e-01</leafValues></_>
    <_>
      <internalNodes>
        0 -1 40566 5.1459461450576782e-02</internalNodes>
      <leafValues>
        -3.3403483033180237e-01 4.2003899812698364e-01</leafValues></_>
    <_>
      <internalNodes>
        0 -1 48776 -8.5389692685566843e-05</internalNodes>
      <leafValues>
        2.4250294268131256e-01 -4.7375756502151489e-01</leafValues></_>
    <_>
      <internalNodes>
        0 -1 71444 6.5011596307158470e-03</internalNodes>
      <leafValues>
        -2.4225893616676331e-01 4.9679529666900635e-01</leafValues></_>
    <_>
      <internalNodes>
        0 -1 156846 -9.6923522651195526e-03</internalNodes>
      <leafValues>
        5.3780698776245117e-01 -2.1108888089656830e-01</leafValues></_>
    <_>
      <internalNodes>
        0 -1 80603 1.7525548173580319e-05</internalNodes>
      <leafValues>
        -4.8384413123130798e-01 2.4277654290199280e-01</leafValues></_>
    <_>
      <internalNodes>
        0 -1 54813 5.5312566459178925e-02</internalNodes>
      <leafValues>
        -1.3106943666934967e-01 8.0992931127548218e-01</leafValues></_>
    <_>
      <internalNodes>
        0 -1 19623 -7.5071665924042463e-04</internalNodes>
      <leafValues>
        -7.1876645088195801e-01 1.7874726653099060e-01</leafValues></_>
    <_>
      <internalNodes>
        0 -1 129385 1.3272124342620373e-03</internalNodes>
      <leafValues>
        1.0099025815725327e-01 -8.3401602506637573e-01</leafValues></_></weakClassifiers></stage7>
</opencv_storage>
