<?xml version="1.0"?>
<opencv_storage>
<stage7>
  <maxWeakCount>11</maxWeakCount>
  <stageThreshold>-1.9734690189361572e+00</stageThreshold>
  <weakClassifiers>
    <_>
      <internalNodes>
        0 -1 152055 -1.0623976588249207e-02</internalNodes>
      <leafValues>
        -7.7669903635978699e-02 -7.8873240947723389e-01</leafValues></_>
    <_>
      <internalNodes>
        0 -1 127799 -5.1733516156673431e-03</internalNodes>
      <leafValues>
        2.8642210364341736e-01 -5.4600429534912109e-01</leafValues></_>
    <_>
      <internalNodes>
        0 -1 38958 2.5428934022784233e-03</internalNodes>
      <leafValues>
        -4.3918758630752563e-01 3.6945989727973938e-01</leafValues></_>
    <_>
      <internalNodes>
        0 -1 142309 4.9373623915016651e-03</internalNodes>
      <leafValues>
        -4.8107817769050598e-01 3.1859090924263000e-01</leafValues></_>
    <_>
      <internalNodes>
        0 -1 100646 2.1404875442385674e-03</internalNodes>
      <leafValues>
        -3.1495639681816101e-01 4.3961232900619507e-01</leafValues></_>
    <_>
      <internalNodes>
        0 -1 135058 -4.2932818178087473e-04</internalNodes>
      <leafValues>
        3.0959880352020264e-01 -4.5033437013626099e-01</leafValues></_>
    <_>
      <internalNodes>
        0 -1 87884 -9.7977612167596817e-03</internalNodes>
      <leafValues>
        3.0755054950714111e-01 -4.1011258959770203e-01</leafValues></_>
    <_>
      <internalNodes>
        0 -1 19599 2.0258763470337726e-05</internalNodes>
      <leafValues>
        2.4687452614307404e-01 -5.7319498062133789e-01</leafValues></_>
    <_>
      <internalNodes>
        0 -1 160017 -1.0196827352046967e-02</internalNodes>
      <leafValues>
        6.6262173652648926e-01 -2.3697337508201599e-01</leafValues></_>
    <_>
      <internalNodes>
        0 -1 74454 7.6574251579586416e-05</internalNodes>
      <leafValues>
        -4.7110101580619812e-01 3.3300042152404785e-01</leafValues></_>
    <_>
      <internalNodes>
        0 -1 12577 -3.3961667213588953e-03</internalNodes>
      <leafValues>
        4.2926913499832153e-01 -3.5819667577743530e-01</leafValues></_></weakClassifiers></stage7>
</opencv_storage>
