<?xml version="1.0"?>
<opencv_storage>
<stage10>
  <maxWeakCount>11</maxWeakCount>
  <stageThreshold>-1.6363525390625000e+00</stageThreshold>
  <weakClassifiers>
    <_>
      <internalNodes>
        0 -1 44721 2.4054730311036110e-02</internalNodes>
      <leafValues>
        -8.4398978948593140e-01 -3.3812949061393738e-01</leafValues></_>
    <_>
      <internalNodes>
        0 -1 128809 -8.9107908308506012e-02</internalNodes>
      <leafValues>
        3.1667980551719666e-01 -5.1463574171066284e-01</leafValues></_>
    <_>
      <internalNodes>
        0 -1 25954 3.3237107098102570e-02</internalNodes>
      <leafValues>
        -4.4052806496620178e-01 3.1141784787178040e-01</leafValues></_>
    <_>
      <internalNodes>
        0 -1 32660 6.7574121057987213e-03</internalNodes>
      <leafValues>
        -3.4769120812416077e-01 3.5835579037666321e-01</leafValues></_>
    <_>
      <internalNodes>
        0 -1 161310 1.7212005332112312e-02</internalNodes>
      <leafValues>
        -1.5831188857555389e-01 7.4405837059020996e-01</leafValues></_>
    <_>
      <internalNodes>
        0 -1 80777 2.8131844010204077e-03</internalNodes>
      <leafValues>
        1.7104659974575043e-01 -9.4286346435546875e-01</leafValues></_>
    <_>
      <internalNodes>
        0 -1 133555 -2.6470599696040154e-03</internalNodes>
      <leafValues>
        4.4783046841621399e-01 -3.0551528930664063e-01</leafValues></_>
    <_>
      <internalNodes>
        0 -1 157338 -6.6222401801496744e-04</internalNodes>
      <leafValues>
        -9.0050894021987915e-01 1.3239419460296631e-01</leafValues></_>
    <_>
      <internalNodes>
        0 -1 105988 5.5227573029696941e-03</internalNodes>
      <leafValues>
        -2.0745301246643066e-01 6.4315259456634521e-01</leafValues></_>
    <_>
      <internalNodes>
        0 -1 147665 2.7767368592321873e-03</internalNodes>
      <leafValues>
        2.0335565507411957e-01 -6.6840672492980957e-01</leafValues></_>
    <_>
      <internalNodes>
        0 -1 51242 -5.6200282415375113e-04</internalNodes>
      <leafValues>
        1.6911570727825165e-01 -6.0582506656646729e-01</leafValues></_></weakClassifiers></stage10>
</opencv_storage>
