<?xml version="1.0"?>
<opencv_storage>
<stage18>
  <maxWeakCount>15</maxWeakCount>
  <stageThreshold>-1.7282576560974121e+00</stageThreshold>
  <weakClassifiers>
    <_>
      <internalNodes>
        0 -1 113660 4.5980191789567471e-03</internalNodes>
      <leafValues>
        -7.5424575805664063e-01 -2.2613064944744110e-01</leafValues></_>
    <_>
      <internalNodes>
        0 -1 137273 1.1602032929658890e-02</internalNodes>
      <leafValues>
        -4.1582876443862915e-01 2.1325394511222839e-01</leafValues></_>
    <_>
      <internalNodes>
        0 -1 155027 -9.7396422643214464e-04</internalNodes>
      <leafValues>
        2.2264550626277924e-01 -3.8423770666122437e-01</leafValues></_>
    <_>
      <internalNodes>
        0 -1 92668 1.0829967446625233e-02</internalNodes>
      <leafValues>
        -3.3020558953285217e-01 2.3853667080402374e-01</leafValues></_>
    <_>
      <internalNodes>
        0 -1 109125 9.2965119984000921e-04</internalNodes>
      <leafValues>
        1.8093982338905334e-01 -6.4614862203598022e-01</leafValues></_>
    <_>
      <internalNodes>
        0 -1 29559 -1.3443026691675186e-02</internalNodes>
      <leafValues>
        4.9759918451309204e-01 -2.0272234082221985e-01</leafValues></_>
    <_>
      <internalNodes>
        0 -1 133853 -8.6164735257625580e-03</internalNodes>
      <leafValues>
        -8.1180083751678467e-01 1.2800824642181396e-01</leafValues></_>
    <_>
      <internalNodes>
        0 -1 117459 -1.3157939538359642e-03</internalNodes>
      <leafValues>
        3.6702623963356018e-01 -2.2685135900974274e-01</leafValues></_>
    <_>
      <internalNodes>
        0 -1 103233 4.1604614816606045e-03</internalNodes>
      <leafValues>
        -2.1173796057701111e-01 4.1365611553192139e-01</leafValues></_>
    <_>
      <internalNodes>
        0 -1 34060 -3.2833265140652657e-03</internalNodes>
      <leafValues>
        -5.2440518140792847e-01 1.6686002910137177e-01</leafValues></_>
    <_>
      <internalNodes>
        0 -1 125083 -1.6160369850695133e-03</internalNodes>
      <leafValues>
        3.0050259828567505e-01 -2.7779892086982727e-01</leafValues></_>
    <_>
      <internalNodes>
        0 -1 4749 -9.6421670168638229e-03</internalNodes>
      <leafValues>
        -8.7318944931030273e-01 8.5884712636470795e-02</leafValues></_>
    <_>
      <internalNodes>
        0 -1 13906 -3.4316565841436386e-02</internalNodes>
      <leafValues>
        2.4940983951091766e-01 -3.0223938822746277e-01</leafValues></_>
    <_>
      <internalNodes>
        0 -1 76276 1.6339041758328676e-04</internalNodes>
      <leafValues>
        -2.5589442253112793e-01 3.3095115423202515e-01</leafValues></_>
    <_>
      <internalNodes>
        0 -1 82046 1.3671502470970154e-01</internalNodes>
      <leafValues>
        -1.0381371527910233e-01 7.9699873924255371e-01</leafValues></_></weakClassifiers></stage18>
</opencv_storage>
