<?xml version="1.0"?>
<opencv_storage>
<stage10>
  <maxWeakCount>11</maxWeakCount>
  <stageThreshold>-1.5550571680068970e+00</stageThreshold>
  <weakClassifiers>
    <_>
      <internalNodes>
        0 -1 1646 1.5545165538787842e-01</internalNodes>
      <leafValues>
        -8.0454546213150024e-01 -2.8749999403953552e-01</leafValues></_>
    <_>
      <internalNodes>
        0 -1 136997 1.2077974155545235e-02</internalNodes>
      <leafValues>
        -5.9578114748001099e-01 1.0195053368806839e-01</leafValues></_>
    <_>
      <internalNodes>
        0 -1 34982 2.8737045824527740e-02</internalNodes>
      <leafValues>
        -2.5274732708930969e-01 4.8947149515151978e-01</leafValues></_>
    <_>
      <internalNodes>
        0 -1 154967 -8.3742372225970030e-04</internalNodes>
      <leafValues>
        -7.0899116992950439e-01 1.7780335247516632e-01</leafValues></_>
    <_>
      <internalNodes>
        0 -1 151677 -1.1935599613934755e-03</internalNodes>
      <leafValues>
        -8.3627331256866455e-01 1.4042414724826813e-01</leafValues></_>
    <_>
      <internalNodes>
        0 -1 56629 3.3368647098541260e-02</internalNodes>
      <leafValues>
        -2.5307360291481018e-01 4.9812278151512146e-01</leafValues></_>
    <_>
      <internalNodes>
        0 -1 76715 3.9636841975152493e-03</internalNodes>
      <leafValues>
        -1.9150090217590332e-01 5.8247107267379761e-01</leafValues></_>
    <_>
      <internalNodes>
        0 -1 116808 1.4868505299091339e-02</internalNodes>
      <leafValues>
        -4.4900542497634888e-01 2.4409894645214081e-01</leafValues></_>
    <_>
      <internalNodes>
        0 -1 158305 -8.8283177465200424e-03</internalNodes>
      <leafValues>
        4.8129838705062866e-01 -2.4626265466213226e-01</leafValues></_>
    <_>
      <internalNodes>
        0 -1 6685 4.8634014092385769e-04</internalNodes>
      <leafValues>
        2.4734343588352203e-01 -4.7228360176086426e-01</leafValues></_>
    <_>
      <internalNodes>
        0 -1 110932 2.8599768877029419e-02</internalNodes>
      <leafValues>
        1.6824692487716675e-01 -6.2328892946243286e-01</leafValues></_></weakClassifiers></stage10>
</opencv_storage>
