<?xml version="1.0"?>
<opencv_storage>
<stage14>
  <maxWeakCount>13</maxWeakCount>
  <stageThreshold>-1.5692374706268311e+00</stageThreshold>
  <weakClassifiers>
    <_>
      <internalNodes>
        0 -1 20279 -8.8448245078325272e-03</internalNodes>
      <leafValues>
        2.5581395626068115e-01 -7.0095074176788330e-01</leafValues></_>
    <_>
      <internalNodes>
        0 -1 3411 -2.3461589589715004e-03</internalNodes>
      <leafValues>
        -7.7447026968002319e-01 -3.1782794743776321e-02</leafValues></_>
    <_>
      <internalNodes>
        0 -1 45841 -5.3315859287977219e-02</internalNodes>
      <leafValues>
        -9.5542168617248535e-01 5.8170836418867111e-02</leafValues></_>
    <_>
      <internalNodes>
        0 -1 66337 -2.6549110189080238e-03</internalNodes>
      <leafValues>
        3.8171622157096863e-01 -2.2455359995365143e-01</leafValues></_>
    <_>
      <internalNodes>
        0 -1 145341 -3.1079041946213692e-05</internalNodes>
      <leafValues>
        1.6802330315113068e-01 -4.6775799989700317e-01</leafValues></_>
    <_>
      <internalNodes>
        0 -1 132786 8.4755494026467204e-04</internalNodes>
      <leafValues>
        -2.8168940544128418e-01 2.8274706006050110e-01</leafValues></_>
    <_>
      <internalNodes>
        0 -1 99888 -1.3261088728904724e-01</internalNodes>
      <leafValues>
        -8.3407884836196899e-01 8.9512825012207031e-02</leafValues></_>
    <_>
      <internalNodes>
        0 -1 85149 -1.2514834105968475e-01</internalNodes>
      <leafValues>
        -8.3221560716629028e-01 8.0606639385223389e-02</leafValues></_>
    <_>
      <internalNodes>
        0 -1 152363 -2.8716302476823330e-03</internalNodes>
      <leafValues>
        -8.4915179014205933e-01 7.4210479855537415e-02</leafValues></_>
    <_>
      <internalNodes>
        0 -1 127625 2.8566666878759861e-03</internalNodes>
      <leafValues>
        7.3605090379714966e-02 -8.1919717788696289e-01</leafValues></_>
    <_>
      <internalNodes>
        0 -1 106793 2.2951476275920868e-03</internalNodes>
      <leafValues>
        -3.0403551459312439e-01 2.4162817001342773e-01</leafValues></_>
    <_>
      <internalNodes>
        0 -1 1122 1.0510040447115898e-03</internalNodes>
      <leafValues>
        1.7824985086917877e-01 -4.4811305403709412e-01</leafValues></_>
    <_>
      <internalNodes>
        0 -1 18290 -5.6574154645204544e-02</internalNodes>
      <leafValues>
        -9.4096207618713379e-01 7.4782244861125946e-02</leafValues></_></weakClassifiers></stage14>
</opencv_storage>
